{
  "sizes": [
    35,
    17,
    35
  ],
  "layers": [
    {
      "horse1Odd": {},
      "horse2Odd": {},
      "horse3Odd": {},
      "horse4Odd": {},
      "horse5Odd": {},
      "horse6Odd": {},
      "horse7Odd": {},
      "horse8Odd": {},
      "horse9Odd": {},
      "horse10Odd": {},
      "horse11Odd": {},
      "horse12Odd": {},
      "horse13Odd": {},
      "horse14Odd": {},
      "horse15Odd": {},
      "horse16Odd": {},
      "horse17Odd": {},
      "horse18Odd": {},
      "horse19Odd": {},
      "horse20Odd": {},
      "horse21Odd": {},
      "horse22Odd": {},
      "horse23Odd": {},
      "horse24Odd": {},
      "horse25Odd": {},
      "horse26Odd": {},
      "horse27Odd": {},
      "horse28Odd": {},
      "horse29Odd": {},
      "horse30Odd": {},
      "horse31Odd": {},
      "horse32Odd": {},
      "horse33Odd": {},
      "horse34Odd": {},
      "horse35Odd": {}
    },
    {
      "0": {
        "bias": 17.702856063842773,
        "weights": {
          "horse1Odd": -0.7404444217681885,
          "horse2Odd": 2.5463643074035645,
          "horse3Odd": -0.6524011492729187,
          "horse4Odd": -3.9588136672973633,
          "horse5Odd": -11.846512794494629,
          "horse6Odd": -11.568181991577148,
          "horse7Odd": -8.253373146057129,
          "horse8Odd": -7.433279991149902,
          "horse9Odd": -3.1613576412200928,
          "horse10Odd": -9.763426780700684,
          "horse11Odd": -4.838371276855469,
          "horse12Odd": -3.4362497329711914,
          "horse13Odd": -2.7044918537139893,
          "horse14Odd": -0.6361993551254272,
          "horse15Odd": -0.5624379515647888,
          "horse16Odd": -0.14697937667369843,
          "horse17Odd": -0.01409271452575922,
          "horse18Odd": -0.3658140301704407,
          "horse19Odd": -0.0928623229265213,
          "horse20Odd": -0.09399471431970596,
          "horse21Odd": 0.028207913041114807,
          "horse22Odd": -0.03550289198756218,
          "horse23Odd": -0.07175948470830917,
          "horse24Odd": -0.0966821014881134,
          "horse25Odd": -0.13486769795417786,
          "horse26Odd": 0.08213309943675995,
          "horse27Odd": 0.0765145868062973,
          "horse28Odd": 0.11729730665683746,
          "horse29Odd": -0.029053159058094025,
          "horse30Odd": -0.060858726501464844,
          "horse31Odd": -0.16486749053001404,
          "horse32Odd": -0.19788534939289093,
          "horse33Odd": -0.12581422924995422,
          "horse34Odd": -0.032430920749902725,
          "horse35Odd": -0.19355863332748413
        }
      },
      "1": {
        "bias": 3.4284956455230713,
        "weights": {
          "horse1Odd": -46.40618133544922,
          "horse2Odd": 7.880045413970947,
          "horse3Odd": 3.3804545402526855,
          "horse4Odd": -1.587638258934021,
          "horse5Odd": 10.739418029785156,
          "horse6Odd": -8.826814651489258,
          "horse7Odd": -0.6548058986663818,
          "horse8Odd": 18.643415451049805,
          "horse9Odd": -1.3921235799789429,
          "horse10Odd": -3.447444200515747,
          "horse11Odd": -9.802923202514648,
          "horse12Odd": 4.979463577270508,
          "horse13Odd": 10.675304412841797,
          "horse14Odd": -3.4237053394317627,
          "horse15Odd": 7.27324104309082,
          "horse16Odd": 10.257250785827637,
          "horse17Odd": 1.0330016613006592,
          "horse18Odd": -0.5450066924095154,
          "horse19Odd": 3.5148448944091797,
          "horse20Odd": -0.8323423266410828,
          "horse21Odd": 0.2196793258190155,
          "horse22Odd": -1.4213428497314453,
          "horse23Odd": -0.6465985774993896,
          "horse24Odd": -0.5420033931732178,
          "horse25Odd": -0.03979859873652458,
          "horse26Odd": 0.4206112325191498,
          "horse27Odd": 0.1588783711194992,
          "horse28Odd": -0.16247713565826416,
          "horse29Odd": -0.14590135216712952,
          "horse30Odd": -0.020125171169638634,
          "horse31Odd": 0.11043079942464828,
          "horse32Odd": -0.18869072198867798,
          "horse33Odd": 0.12757442891597748,
          "horse34Odd": 0.19559137523174286,
          "horse35Odd": 0.07057321071624756
        }
      },
      "2": {
        "bias": 5.133403301239014,
        "weights": {
          "horse1Odd": -30.968591690063477,
          "horse2Odd": -4.204915523529053,
          "horse3Odd": 1.8234708309173584,
          "horse4Odd": 27.035659790039062,
          "horse5Odd": -4.870870113372803,
          "horse6Odd": 0.7804417610168457,
          "horse7Odd": 4.020840167999268,
          "horse8Odd": -12.925946235656738,
          "horse9Odd": -7.600217819213867,
          "horse10Odd": -17.560100555419922,
          "horse11Odd": -13.852745056152344,
          "horse12Odd": -20.262117385864258,
          "horse13Odd": -10.930920600891113,
          "horse14Odd": -13.340075492858887,
          "horse15Odd": -6.312134742736816,
          "horse16Odd": -2.2400522232055664,
          "horse17Odd": -5.19753885269165,
          "horse18Odd": -2.2048237323760986,
          "horse19Odd": -0.48096728324890137,
          "horse20Odd": -0.6401402950286865,
          "horse21Odd": -0.2779220640659332,
          "horse22Odd": -0.24617324769496918,
          "horse23Odd": -0.2794884145259857,
          "horse24Odd": 0.009767292998731136,
          "horse25Odd": -0.2341303676366806,
          "horse26Odd": -0.22604642808437347,
          "horse27Odd": 0.11241316050291061,
          "horse28Odd": -0.14301833510398865,
          "horse29Odd": -0.17829225957393646,
          "horse30Odd": 0.02160024084150791,
          "horse31Odd": -0.028055397793650627,
          "horse32Odd": -0.11178846657276154,
          "horse33Odd": 0.06480973213911057,
          "horse34Odd": -0.15577594935894012,
          "horse35Odd": 0.16698946058750153
        }
      },
      "3": {
        "bias": 0.58454829454422,
        "weights": {
          "horse1Odd": 1.7560597658157349,
          "horse2Odd": 3.5682950019836426,
          "horse3Odd": 4.428175449371338,
          "horse4Odd": 0.9654685258865356,
          "horse5Odd": 1.282232403755188,
          "horse6Odd": 0.44384831190109253,
          "horse7Odd": 0.5466026067733765,
          "horse8Odd": 0.7012646198272705,
          "horse9Odd": 0.337486207485199,
          "horse10Odd": 0.36368027329444885,
          "horse11Odd": 0.18662981688976288,
          "horse12Odd": 0.47947195172309875,
          "horse13Odd": -0.06603109836578369,
          "horse14Odd": 0.180108904838562,
          "horse15Odd": -0.11384684592485428,
          "horse16Odd": 0.07208306342363358,
          "horse17Odd": -0.0562015138566494,
          "horse18Odd": 0.19001279771327972,
          "horse19Odd": 0.013961371034383774,
          "horse20Odd": 0.19210012257099152,
          "horse21Odd": -0.08279174566268921,
          "horse22Odd": -0.148656964302063,
          "horse23Odd": -0.12993201613426208,
          "horse24Odd": 0.12463440001010895,
          "horse25Odd": -0.058293260633945465,
          "horse26Odd": 0.15709759294986725,
          "horse27Odd": -0.1008065938949585,
          "horse28Odd": -0.19273829460144043,
          "horse29Odd": 0.10976948589086533,
          "horse30Odd": -0.17771540582180023,
          "horse31Odd": -0.05745327100157738,
          "horse32Odd": 0.05306653678417206,
          "horse33Odd": 0.18612909317016602,
          "horse34Odd": -0.1930004507303238,
          "horse35Odd": 0.18041710555553436
        }
      },
      "4": {
        "bias": 11.377767562866211,
        "weights": {
          "horse1Odd": 5.9334330558776855,
          "horse2Odd": 0.8072970509529114,
          "horse3Odd": 8.595911026000977,
          "horse4Odd": -18.024721145629883,
          "horse5Odd": -20.062889099121094,
          "horse6Odd": -2.7215232849121094,
          "horse7Odd": -4.9745283126831055,
          "horse8Odd": -12.508983612060547,
          "horse9Odd": -8.3208646774292,
          "horse10Odd": 7.832077980041504,
          "horse11Odd": 1.930757999420166,
          "horse12Odd": -3.9155783653259277,
          "horse13Odd": -5.54293966293335,
          "horse14Odd": -0.4702194035053253,
          "horse15Odd": 2.231264591217041,
          "horse16Odd": -3.1280834674835205,
          "horse17Odd": -0.1445917785167694,
          "horse18Odd": -1.295356035232544,
          "horse19Odd": -0.6942816376686096,
          "horse20Odd": -1.7483569383621216,
          "horse21Odd": -0.03604155778884888,
          "horse22Odd": -0.11399924755096436,
          "horse23Odd": -0.1400829553604126,
          "horse24Odd": 0.06869985908269882,
          "horse25Odd": 0.13879908621311188,
          "horse26Odd": 0.09365269541740417,
          "horse27Odd": 0.027775146067142487,
          "horse28Odd": -0.12836182117462158,
          "horse29Odd": 0.1499553620815277,
          "horse30Odd": -0.16520819067955017,
          "horse31Odd": 0.08778894692659378,
          "horse32Odd": -0.03188805282115936,
          "horse33Odd": -0.07565569132566452,
          "horse34Odd": 0.0790577232837677,
          "horse35Odd": -0.1976800113916397
        }
      },
      "5": {
        "bias": 2.7120015621185303,
        "weights": {
          "horse1Odd": -0.31707513332366943,
          "horse2Odd": 19.86695098876953,
          "horse3Odd": -6.913965225219727,
          "horse4Odd": -18.551799774169922,
          "horse5Odd": -8.655016899108887,
          "horse6Odd": -5.990873336791992,
          "horse7Odd": 25.100919723510742,
          "horse8Odd": -6.304944038391113,
          "horse9Odd": -23.97256851196289,
          "horse10Odd": -0.8340743780136108,
          "horse11Odd": 13.042150497436523,
          "horse12Odd": -2.586216449737549,
          "horse13Odd": -8.996088027954102,
          "horse14Odd": 0.4687364995479584,
          "horse15Odd": -4.317061901092529,
          "horse16Odd": -4.883704662322998,
          "horse17Odd": -2.6995787620544434,
          "horse18Odd": 3.182468891143799,
          "horse19Odd": -2.9928202629089355,
          "horse20Odd": 1.2133911848068237,
          "horse21Odd": 1.4831653833389282,
          "horse22Odd": -0.6634296178817749,
          "horse23Odd": 1.596942663192749,
          "horse24Odd": 1.5598008632659912,
          "horse25Odd": -0.8853262662887573,
          "horse26Odd": 1.136222004890442,
          "horse27Odd": 0.2541942000389099,
          "horse28Odd": -0.22108937799930573,
          "horse29Odd": 0.1253661811351776,
          "horse30Odd": -0.09229570627212524,
          "horse31Odd": -0.1328822374343872,
          "horse32Odd": 0.20766335725784302,
          "horse33Odd": 0.055983059108257294,
          "horse34Odd": 0.19254207611083984,
          "horse35Odd": 0.05658869817852974
        }
      },
      "6": {
        "bias": 1.4156396389007568,
        "weights": {
          "horse1Odd": -2.657996654510498,
          "horse2Odd": -1.9957003593444824,
          "horse3Odd": -1.888226866722107,
          "horse4Odd": -9.29976749420166,
          "horse5Odd": -0.2456093430519104,
          "horse6Odd": -2.583911418914795,
          "horse7Odd": -2.8019142150878906,
          "horse8Odd": -0.05719204992055893,
          "horse9Odd": -4.338892459869385,
          "horse10Odd": 3.616413116455078,
          "horse11Odd": -3.543444871902466,
          "horse12Odd": -2.6437554359436035,
          "horse13Odd": -2.4938178062438965,
          "horse14Odd": -1.9896016120910645,
          "horse15Odd": -0.5185784697532654,
          "horse16Odd": -0.11767425388097763,
          "horse17Odd": -0.4414840042591095,
          "horse18Odd": -0.2925344407558441,
          "horse19Odd": -0.23786047101020813,
          "horse20Odd": -0.460763543844223,
          "horse21Odd": -0.3943217098712921,
          "horse22Odd": 0.08111336082220078,
          "horse23Odd": -0.02361667901277542,
          "horse24Odd": 0.02550090290606022,
          "horse25Odd": -0.111172616481781,
          "horse26Odd": -0.09829573333263397,
          "horse27Odd": 0.119394451379776,
          "horse28Odd": 0.11626213043928146,
          "horse29Odd": 0.05082350969314575,
          "horse30Odd": 0.05208619683980942,
          "horse31Odd": 0.09575195610523224,
          "horse32Odd": 0.03500549867749214,
          "horse33Odd": 0.05059655010700226,
          "horse34Odd": -0.048014864325523376,
          "horse35Odd": 0.1911955028772354
        }
      },
      "7": {
        "bias": -19.946062088012695,
        "weights": {
          "horse1Odd": -0.7593586444854736,
          "horse2Odd": -0.5777380466461182,
          "horse3Odd": -0.5519676208496094,
          "horse4Odd": -0.522357165813446,
          "horse5Odd": -2.409512758255005,
          "horse6Odd": -2.317183256149292,
          "horse7Odd": -0.10331277549266815,
          "horse8Odd": 47.761512756347656,
          "horse9Odd": 34.06952667236328,
          "horse10Odd": 23.63524055480957,
          "horse11Odd": 10.971050262451172,
          "horse12Odd": 7.699774265289307,
          "horse13Odd": 5.940948009490967,
          "horse14Odd": 2.22751784324646,
          "horse15Odd": 1.5187946557998657,
          "horse16Odd": 2.957162857055664,
          "horse17Odd": 0.5012094378471375,
          "horse18Odd": 0.5349875688552856,
          "horse19Odd": 0.3768731951713562,
          "horse20Odd": 0.5358351469039917,
          "horse21Odd": 0.05149464309215546,
          "horse22Odd": 0.03301629051566124,
          "horse23Odd": 0.000323033076710999,
          "horse24Odd": 0.0285788606852293,
          "horse25Odd": -0.05498219653964043,
          "horse26Odd": 0.17751246690750122,
          "horse27Odd": -0.15726153552532196,
          "horse28Odd": -0.12469974160194397,
          "horse29Odd": -0.15553145110607147,
          "horse30Odd": 0.10526227951049805,
          "horse31Odd": -0.0575144998729229,
          "horse32Odd": 0.09901295602321625,
          "horse33Odd": 0.10478606820106506,
          "horse34Odd": -0.1344977766275406,
          "horse35Odd": 0.046515390276908875
        }
      },
      "8": {
        "bias": 1.4423260688781738,
        "weights": {
          "horse1Odd": 6.5555644035339355,
          "horse2Odd": -21.661035537719727,
          "horse3Odd": -35.05066680908203,
          "horse4Odd": 17.270009994506836,
          "horse5Odd": 6.9722371101379395,
          "horse6Odd": -11.943955421447754,
          "horse7Odd": 17.781475067138672,
          "horse8Odd": 2.615312099456787,
          "horse9Odd": 10.10486125946045,
          "horse10Odd": 7.355544090270996,
          "horse11Odd": -9.813498497009277,
          "horse12Odd": -2.5331315994262695,
          "horse13Odd": -1.0385816097259521,
          "horse14Odd": 9.03683090209961,
          "horse15Odd": -10.132625579833984,
          "horse16Odd": -1.3977018594741821,
          "horse17Odd": 2.8455657958984375,
          "horse18Odd": 1.951205849647522,
          "horse19Odd": 4.651748180389404,
          "horse20Odd": 0.996956467628479,
          "horse21Odd": -1.0428028106689453,
          "horse22Odd": -0.2659189701080322,
          "horse23Odd": 0.9520307183265686,
          "horse24Odd": 5.348386764526367,
          "horse25Odd": 0.5964852571487427,
          "horse26Odd": 1.0197422504425049,
          "horse27Odd": -0.20132987201213837,
          "horse28Odd": 0.21849757432937622,
          "horse29Odd": -0.29221421480178833,
          "horse30Odd": -0.25846245884895325,
          "horse31Odd": -0.06797637790441513,
          "horse32Odd": -0.1395978331565857,
          "horse33Odd": 0.02357500232756138,
          "horse34Odd": 0.03959238529205322,
          "horse35Odd": 0.07954774051904678
        }
      },
      "9": {
        "bias": 0.38662728667259216,
        "weights": {
          "horse1Odd": 1.818773865699768,
          "horse2Odd": 2.2902615070343018,
          "horse3Odd": 2.180311918258667,
          "horse4Odd": 1.7796622514724731,
          "horse5Odd": 2.0537362098693848,
          "horse6Odd": 0.9874218106269836,
          "horse7Odd": 2.012021780014038,
          "horse8Odd": 0.762643575668335,
          "horse9Odd": 0.49095526337623596,
          "horse10Odd": 0.5196966528892517,
          "horse11Odd": 0.40854084491729736,
          "horse12Odd": 2.6716182231903076,
          "horse13Odd": 0.3210572600364685,
          "horse14Odd": 0.3876991271972656,
          "horse15Odd": -0.15799160301685333,
          "horse16Odd": 0.23054750263690948,
          "horse17Odd": 0.06075078994035721,
          "horse18Odd": -0.06314629316329956,
          "horse19Odd": 0.165981262922287,
          "horse20Odd": 0.059562720358371735,
          "horse21Odd": 0.11503821611404419,
          "horse22Odd": -0.10639888048171997,
          "horse23Odd": -0.09178352355957031,
          "horse24Odd": -0.03435195982456207,
          "horse25Odd": -0.08928017318248749,
          "horse26Odd": 0.08789368718862534,
          "horse27Odd": -0.024806998670101166,
          "horse28Odd": -0.009887710213661194,
          "horse29Odd": 0.01386415958404541,
          "horse30Odd": 0.12900863587856293,
          "horse31Odd": -0.06259565055370331,
          "horse32Odd": 0.15870577096939087,
          "horse33Odd": 0.03642493113875389,
          "horse34Odd": 0.02543615736067295,
          "horse35Odd": -0.039040785282850266
        }
      },
      "10": {
        "bias": -0.5200529098510742,
        "weights": {
          "horse1Odd": -11.470974922180176,
          "horse2Odd": -5.665892601013184,
          "horse3Odd": -1.7721364498138428,
          "horse4Odd": -17.625051498413086,
          "horse5Odd": -10.620406150817871,
          "horse6Odd": -6.939876079559326,
          "horse7Odd": -1.182420015335083,
          "horse8Odd": 17.250709533691406,
          "horse9Odd": 7.8670125007629395,
          "horse10Odd": -6.352283000946045,
          "horse11Odd": -9.279998779296875,
          "horse12Odd": -11.109909057617188,
          "horse13Odd": 2.7073750495910645,
          "horse14Odd": 0.8040134310722351,
          "horse15Odd": -2.8813982009887695,
          "horse16Odd": -2.414950370788574,
          "horse17Odd": 3.380915641784668,
          "horse18Odd": -0.5707002878189087,
          "horse19Odd": -0.8653927445411682,
          "horse20Odd": 0.4629898965358734,
          "horse21Odd": -0.6932731866836548,
          "horse22Odd": 0.008115128614008427,
          "horse23Odd": 0.23919588327407837,
          "horse24Odd": 1.6028116941452026,
          "horse25Odd": 0.4111018478870392,
          "horse26Odd": 0.5810279846191406,
          "horse27Odd": -0.1304093897342682,
          "horse28Odd": -0.10139334201812744,
          "horse29Odd": 0.02922588400542736,
          "horse30Odd": -0.0027822800911962986,
          "horse31Odd": -0.11311764270067215,
          "horse32Odd": 0.1357077956199646,
          "horse33Odd": 0.1624717265367508,
          "horse34Odd": -0.007635150570422411,
          "horse35Odd": 0.13513438403606415
        }
      },
      "11": {
        "bias": 0.351317822933197,
        "weights": {
          "horse1Odd": -15.338465690612793,
          "horse2Odd": 0.14617225527763367,
          "horse3Odd": -32.127113342285156,
          "horse4Odd": 19.511991500854492,
          "horse5Odd": -6.939881324768066,
          "horse6Odd": 31.593338012695312,
          "horse7Odd": -3.084200143814087,
          "horse8Odd": -8.462244033813477,
          "horse9Odd": -3.815886974334717,
          "horse10Odd": 6.308650016784668,
          "horse11Odd": -8.232675552368164,
          "horse12Odd": -0.48462623357772827,
          "horse13Odd": 2.782057046890259,
          "horse14Odd": 5.581190586090088,
          "horse15Odd": 3.1763007640838623,
          "horse16Odd": -2.364461898803711,
          "horse17Odd": 6.629561901092529,
          "horse18Odd": 3.7757365703582764,
          "horse19Odd": -1.7760908603668213,
          "horse20Odd": -1.8102264404296875,
          "horse21Odd": 1.4913264513015747,
          "horse22Odd": 2.323796033859253,
          "horse23Odd": 0.2033720761537552,
          "horse24Odd": -0.690136730670929,
          "horse25Odd": -0.305743932723999,
          "horse26Odd": 0.025170445442199707,
          "horse27Odd": 0.05515337735414505,
          "horse28Odd": 0.07144586741924286,
          "horse29Odd": -0.12311046570539474,
          "horse30Odd": -0.0504460372030735,
          "horse31Odd": 0.14294810593128204,
          "horse32Odd": 0.09475567191839218,
          "horse33Odd": -0.05957893654704094,
          "horse34Odd": -0.05618032440543175,
          "horse35Odd": -0.031089255586266518
        }
      },
      "12": {
        "bias": 1.5138262510299683,
        "weights": {
          "horse1Odd": -29.05372428894043,
          "horse2Odd": 7.165685176849365,
          "horse3Odd": 27.859888076782227,
          "horse4Odd": 15.712658882141113,
          "horse5Odd": -14.83270263671875,
          "horse6Odd": -5.832296371459961,
          "horse7Odd": 8.874856948852539,
          "horse8Odd": -12.86961555480957,
          "horse9Odd": 7.806050777435303,
          "horse10Odd": 3.872176170349121,
          "horse11Odd": 6.686563014984131,
          "horse12Odd": -7.30645227432251,
          "horse13Odd": 15.15180492401123,
          "horse14Odd": 8.748344421386719,
          "horse15Odd": -0.75020432472229,
          "horse16Odd": 11.693730354309082,
          "horse17Odd": 3.9739794731140137,
          "horse18Odd": -7.206127166748047,
          "horse19Odd": -0.47750869393348694,
          "horse20Odd": 1.248578429222107,
          "horse21Odd": 1.1267104148864746,
          "horse22Odd": -0.05932993441820145,
          "horse23Odd": 0.9198510050773621,
          "horse24Odd": 0.5992435216903687,
          "horse25Odd": 4.444932460784912,
          "horse26Odd": 2.682474374771118,
          "horse27Odd": 0.7938286066055298,
          "horse28Odd": 0.775768518447876,
          "horse29Odd": 0.04546044394373894,
          "horse30Odd": 0.11538062989711761,
          "horse31Odd": 0.31127411127090454,
          "horse32Odd": 0.3439177870750427,
          "horse33Odd": 0.10070778429508209,
          "horse34Odd": 0.29800012707710266,
          "horse35Odd": 0.16658560931682587
        }
      },
      "13": {
        "bias": -0.9841631650924683,
        "weights": {
          "horse1Odd": 17.88083267211914,
          "horse2Odd": -3.0706984996795654,
          "horse3Odd": -1.8024531602859497,
          "horse4Odd": 23.989959716796875,
          "horse5Odd": -36.98353958129883,
          "horse6Odd": -0.7875012159347534,
          "horse7Odd": -4.036653518676758,
          "horse8Odd": 3.4493279457092285,
          "horse9Odd": -22.003938674926758,
          "horse10Odd": 0.10993649810552597,
          "horse11Odd": -15.176974296569824,
          "horse12Odd": -6.4456000328063965,
          "horse13Odd": 7.179164886474609,
          "horse14Odd": 8.034003257751465,
          "horse15Odd": -5.789080619812012,
          "horse16Odd": -4.8450517654418945,
          "horse17Odd": -2.0990943908691406,
          "horse18Odd": -2.751434564590454,
          "horse19Odd": -0.08113736659288406,
          "horse20Odd": -0.5549070835113525,
          "horse21Odd": -0.4765295088291168,
          "horse22Odd": -0.6046756505966187,
          "horse23Odd": -0.03105384297668934,
          "horse24Odd": -0.3514814078807831,
          "horse25Odd": 0.21557272970676422,
          "horse26Odd": 0.2630811631679535,
          "horse27Odd": 0.1505565345287323,
          "horse28Odd": -0.13503152132034302,
          "horse29Odd": -0.02587452530860901,
          "horse30Odd": -0.12045133858919144,
          "horse31Odd": 0.03571178391575813,
          "horse32Odd": -0.09063935279846191,
          "horse33Odd": 0.1895328015089035,
          "horse34Odd": -0.16000069677829742,
          "horse35Odd": 0.0674789547920227
        }
      },
      "14": {
        "bias": -17.37248992919922,
        "weights": {
          "horse1Odd": 5.049018383026123,
          "horse2Odd": 2.159616470336914,
          "horse3Odd": 2.3433878421783447,
          "horse4Odd": 1.1134984493255615,
          "horse5Odd": 4.826134204864502,
          "horse6Odd": 28.923690795898438,
          "horse7Odd": 20.780736923217773,
          "horse8Odd": 13.07663631439209,
          "horse9Odd": 8.65834903717041,
          "horse10Odd": 6.107877254486084,
          "horse11Odd": 6.2519354820251465,
          "horse12Odd": 1.7677069902420044,
          "horse13Odd": 2.5724964141845703,
          "horse14Odd": 1.7931358814239502,
          "horse15Odd": 0.4718622863292694,
          "horse16Odd": 0.40287119150161743,
          "horse17Odd": 0.8565988540649414,
          "horse18Odd": 1.3556780815124512,
          "horse19Odd": 0.2257542908191681,
          "horse20Odd": 0.40177151560783386,
          "horse21Odd": 0.10954344272613525,
          "horse22Odd": 0.04938386753201485,
          "horse23Odd": 0.14123369753360748,
          "horse24Odd": 0.1607806235551834,
          "horse25Odd": -0.04439619183540344,
          "horse26Odd": 0.147774338722229,
          "horse27Odd": -0.19620539247989655,
          "horse28Odd": 0.03812633827328682,
          "horse29Odd": 0.1737949103116989,
          "horse30Odd": -0.11990541219711304,
          "horse31Odd": -0.1358756572008133,
          "horse32Odd": 0.14292381703853607,
          "horse33Odd": 0.05993939936161041,
          "horse34Odd": -0.19258305430412292,
          "horse35Odd": -0.16288672387599945
        }
      },
      "15": {
        "bias": 4.016976833343506,
        "weights": {
          "horse1Odd": 6.9438371658325195,
          "horse2Odd": 16.800214767456055,
          "horse3Odd": -42.50087356567383,
          "horse4Odd": 6.174616813659668,
          "horse5Odd": 2.425743818283081,
          "horse6Odd": -21.514389038085938,
          "horse7Odd": -17.445371627807617,
          "horse8Odd": 11.075555801391602,
          "horse9Odd": 8.168561935424805,
          "horse10Odd": -5.5038628578186035,
          "horse11Odd": 6.392292499542236,
          "horse12Odd": -4.615904808044434,
          "horse13Odd": 1.2089076042175293,
          "horse14Odd": -6.075152397155762,
          "horse15Odd": -5.651528835296631,
          "horse16Odd": -4.246859550476074,
          "horse17Odd": -5.157304286956787,
          "horse18Odd": 6.859851360321045,
          "horse19Odd": -0.5926024913787842,
          "horse20Odd": 2.678377151489258,
          "horse21Odd": 0.49537816643714905,
          "horse22Odd": 2.4651665687561035,
          "horse23Odd": 0.42431992292404175,
          "horse24Odd": 0.928505539894104,
          "horse25Odd": -1.1231719255447388,
          "horse26Odd": -0.3626709580421448,
          "horse27Odd": 0.16342028975486755,
          "horse28Odd": -0.313737690448761,
          "horse29Odd": 0.09905358403921127,
          "horse30Odd": 0.04636528342962265,
          "horse31Odd": -0.0571938082575798,
          "horse32Odd": -0.013427523896098137,
          "horse33Odd": -0.03120274282991886,
          "horse34Odd": -0.14395172894001007,
          "horse35Odd": -0.05515066161751747
        }
      },
      "16": {
        "bias": -0.9889911413192749,
        "weights": {
          "horse1Odd": 7.534034252166748,
          "horse2Odd": 3.2679495811462402,
          "horse3Odd": 2.4712722301483154,
          "horse4Odd": 0.505564272403717,
          "horse5Odd": 0.3371776044368744,
          "horse6Odd": 0.331800639629364,
          "horse7Odd": 0.05056474357843399,
          "horse8Odd": 0.1651654839515686,
          "horse9Odd": 0.1391129195690155,
          "horse10Odd": 0.173262819647789,
          "horse11Odd": 0.005514885764569044,
          "horse12Odd": 0.04328516870737076,
          "horse13Odd": 0.11928218603134155,
          "horse14Odd": -0.08387506008148193,
          "horse15Odd": 0.010988058522343636,
          "horse16Odd": -0.04070033133029938,
          "horse17Odd": 0.18532595038414001,
          "horse18Odd": -0.17679478228092194,
          "horse19Odd": 0.19288906455039978,
          "horse20Odd": 0.030305461958050728,
          "horse21Odd": 0.11579001694917679,
          "horse22Odd": -0.18913741409778595,
          "horse23Odd": -0.06835997104644775,
          "horse24Odd": 0.13414809107780457,
          "horse25Odd": 0.19293172657489777,
          "horse26Odd": 0.0923265740275383,
          "horse27Odd": 0.0467560701072216,
          "horse28Odd": -0.07012122124433517,
          "horse29Odd": 0.09966041892766953,
          "horse30Odd": -0.08427263796329498,
          "horse31Odd": 0.11219006776809692,
          "horse32Odd": -0.10747062414884567,
          "horse33Odd": -0.17136703431606293,
          "horse34Odd": 0.03939088433980942,
          "horse35Odd": -0.11645132303237915
        }
      }
    },
    {
      "horse1Green": {
        "bias": 1.1928410530090332,
        "weights": {
          "0": 1.7637566328048706,
          "1": 1.137152075767517,
          "2": 1.0682272911071777,
          "3": -0.16854660212993622,
          "4": 0.15482906997203827,
          "5": -0.09735075384378433,
          "6": 0.31457677483558655,
          "7": -0.8252421617507935,
          "8": -0.29784950613975525,
          "9": 0.9537180066108704,
          "10": 0.3927387595176697,
          "11": 0.1314471811056137,
          "12": 0.6551514863967896,
          "13": -0.4340893030166626,
          "14": -2.861384630203247,
          "15": -0.08978570252656937,
          "16": -1.6656032800674438
        }
      },
      "horse2Green": {
        "bias": -0.9812843203544617,
        "weights": {
          "0": 1.3646931648254395,
          "1": -0.31042414903640747,
          "2": 0.3186173141002655,
          "3": -0.05510258302092552,
          "4": -0.3162950873374939,
          "5": -1.2706506252288818,
          "6": 0.4350685775279999,
          "7": -1.213554859161377,
          "8": 1.1685563325881958,
          "9": 0.8438118696212769,
          "10": 0.36248454451560974,
          "11": -0.5237293243408203,
          "12": -0.8331159353256226,
          "13": -0.14399249851703644,
          "14": -0.8364001512527466,
          "15": -1.1170634031295776,
          "16": 0.4636240303516388
        }
      },
      "horse3Green": {
        "bias": -2.313030481338501,
        "weights": {
          "0": 0.7294975519180298,
          "1": -0.3717813789844513,
          "2": 0.24316927790641785,
          "3": -1.6517733335494995,
          "4": -0.8757712841033936,
          "5": 0.7321411967277527,
          "6": 0.4635346531867981,
          "7": -0.6815301775932312,
          "8": 0.42385733127593994,
          "9": -0.6170240640640259,
          "10": 0.19952011108398438,
          "11": 0.9913725852966309,
          "12": -1.0495450496673584,
          "13": 0.14842383563518524,
          "14": 3.5291810035705566,
          "15": 1.061210036277771,
          "16": -1.16219961643219
        }
      },
      "horse4Green": {
        "bias": 0.463482141494751,
        "weights": {
          "0": -0.9779208302497864,
          "1": -0.19760896265506744,
          "2": -1.3957439661026,
          "3": 0.24097250401973724,
          "4": 0.7073544263839722,
          "5": 0.2330162227153778,
          "6": -1.303654670715332,
          "7": -1.0097476243972778,
          "8": -0.685736358165741,
          "9": -6.376946926116943,
          "10": 0.5762917995452881,
          "11": 0.03485622629523277,
          "12": -0.20498235523700714,
          "13": -0.7934768199920654,
          "14": 3.2265372276306152,
          "15": -0.43086495995521545,
          "16": 1.5287489891052246
        }
      },
      "horse5Green": {
        "bias": -1.8060494661331177,
        "weights": {
          "0": -3.8147456645965576,
          "1": -0.7928192615509033,
          "2": 0.08432755619287491,
          "3": -1.5472251176834106,
          "4": -0.11966579407453537,
          "5": 0.2692013382911682,
          "6": 0.9350889921188354,
          "7": -0.5076515078544617,
          "8": -0.7323061227798462,
          "9": 0.23561924695968628,
          "10": 1.5686661005020142,
          "11": 0.12095287442207336,
          "12": 0.5721285343170166,
          "13": 0.9191919565200806,
          "14": 1.3656599521636963,
          "15": -0.08681265264749527,
          "16": -0.9990207552909851
        }
      },
      "horse6Green": {
        "bias": -2.376497745513916,
        "weights": {
          "0": -1.9960145950317383,
          "1": 0.3484795391559601,
          "2": 0.08206318318843842,
          "3": -2.1140668392181396,
          "4": -0.531428337097168,
          "5": 0.39214858412742615,
          "6": -0.20862674713134766,
          "7": 0.02080371230840683,
          "8": 0.4006493389606476,
          "9": 0.44146081805229187,
          "10": 0.1916079819202423,
          "11": -0.9386789798736572,
          "12": 0.3814605176448822,
          "13": 0.6854519248008728,
          "14": 2.5560266971588135,
          "15": 0.022365402430295944,
          "16": -2.0542151927948
        }
      },
      "horse7Green": {
        "bias": -1.998187780380249,
        "weights": {
          "0": -0.9857925176620483,
          "1": -0.2261892557144165,
          "2": 0.37561166286468506,
          "3": -1.6190366744995117,
          "4": -0.1139458492398262,
          "5": -0.9231496453285217,
          "6": -0.11939339339733124,
          "7": 1.660695195198059,
          "8": -1.119287371635437,
          "9": 0.14952349662780762,
          "10": -0.7368732690811157,
          "11": -0.09409298002719879,
          "12": -0.8643308877944946,
          "13": 0.18833065032958984,
          "14": 2.3283753395080566,
          "15": 0.9363939762115479,
          "16": -1.7566306591033936
        }
      },
      "horse8Green": {
        "bias": -1.6615854501724243,
        "weights": {
          "0": -0.2334926426410675,
          "1": -0.9559282660484314,
          "2": 0.10772789269685745,
          "3": -1.7373459339141846,
          "4": -0.1971217840909958,
          "5": -0.40768957138061523,
          "6": -0.898902177810669,
          "7": 2.4640932083129883,
          "8": 0.09160395711660385,
          "9": -1.0831282138824463,
          "10": -1.3669569492340088,
          "11": -0.2465626746416092,
          "12": 0.26994043588638306,
          "13": -0.528835117816925,
          "14": 1.327817678451538,
          "15": -0.507259726524353,
          "16": -1.7008967399597168
        }
      },
      "horse9Green": {
        "bias": -2.812376022338867,
        "weights": {
          "0": -1.0531551837921143,
          "1": 0.4779505133628845,
          "2": -0.3351885974407196,
          "3": -2.541261911392212,
          "4": 0.1458739936351776,
          "5": 0.551703155040741,
          "6": 1.1385290622711182,
          "7": 3.7510125637054443,
          "8": -0.12094034999608994,
          "9": 0.06069524213671684,
          "10": -1.018311858177185,
          "11": 0.1326148808002472,
          "12": -0.24273715913295746,
          "13": 0.19316059350967407,
          "14": 1.9175602197647095,
          "15": -0.32723334431648254,
          "16": -3.091344118118286
        }
      },
      "horse10Green": {
        "bias": -2.2910196781158447,
        "weights": {
          "0": -1.6183863878250122,
          "1": -0.03644057363271713,
          "2": -0.5637530088424683,
          "3": -2.1255033016204834,
          "4": -0.6516721844673157,
          "5": -0.6981754899024963,
          "6": -2.3171958923339844,
          "7": 3.7794268131256104,
          "8": 0.08082938939332962,
          "9": -0.610605776309967,
          "10": 0.14680320024490356,
          "11": -0.07050170749425888,
          "12": 0.2667318284511566,
          "13": -0.3274998962879181,
          "14": 1.3302582502365112,
          "15": 0.07696932554244995,
          "16": -2.511309862136841
        }
      },
      "horse11Green": {
        "bias": -2.797010660171509,
        "weights": {
          "0": -1.2770925760269165,
          "1": 0.3697451055049896,
          "2": -1.5853849649429321,
          "3": -2.6112685203552246,
          "4": 0.3745010793209076,
          "5": -0.5009469985961914,
          "6": -0.03470516577363014,
          "7": 3.6795201301574707,
          "8": 0.5935176610946655,
          "9": -0.1580260694026947,
          "10": -0.6432625651359558,
          "11": 0.3291798532009125,
          "12": 0.5772479176521301,
          "13": 0.22478564083576202,
          "14": 1.025423288345337,
          "15": -0.06593651324510574,
          "16": -2.865429401397705
        }
      },
      "horse12Green": {
        "bias": -2.058009386062622,
        "weights": {
          "0": -1.6734248399734497,
          "1": -0.5362535715103149,
          "2": -0.08532179892063141,
          "3": -2.1837265491485596,
          "4": 0.15630139410495758,
          "5": -0.8015086650848389,
          "6": -1.7381635904312134,
          "7": 3.524188756942749,
          "8": -0.32231754064559937,
          "9": -0.8918200731277466,
          "10": -0.4015190005302429,
          "11": -0.3210052251815796,
          "12": 0.03468257188796997,
          "13": -0.8500553965568542,
          "14": 0.9698357582092285,
          "15": 0.394888699054718,
          "16": -2.1770803928375244
        }
      },
      "horse13Green": {
        "bias": -2.117393732070923,
        "weights": {
          "0": -0.7921228408813477,
          "1": -0.10088609904050827,
          "2": -1.6535813808441162,
          "3": -2.012734889984131,
          "4": -0.8558163642883301,
          "5": 0.10605307668447495,
          "6": -0.15153290331363678,
          "7": 2.917119026184082,
          "8": 0.31699275970458984,
          "9": -0.791050374507904,
          "10": -0.8691635131835938,
          "11": -0.20226222276687622,
          "12": 0.2747304141521454,
          "13": -0.6534537076950073,
          "14": 0.4167635142803192,
          "15": -0.016911428421735764,
          "16": -2.1402149200439453
        }
      },
      "horse14Green": {
        "bias": -2.1455507278442383,
        "weights": {
          "0": -0.9709519147872925,
          "1": -0.04142960160970688,
          "2": -2.19010066986084,
          "3": -1.9588825702667236,
          "4": 2.289443254470825,
          "5": -1.7977306842803955,
          "6": 1.0816240310668945,
          "7": 2.4006075859069824,
          "8": -2.439572334289551,
          "9": -1.8601323366165161,
          "10": -2.392683506011963,
          "11": 2.1166369915008545,
          "12": 1.0172032117843628,
          "13": -1.8402198553085327,
          "14": -0.08286581188440323,
          "15": -1.4998798370361328,
          "16": -2.294612169265747
        }
      },
      "horse15Green": {
        "bias": -3.52665376663208,
        "weights": {
          "0": -0.6678745150566101,
          "1": 3.488110303878784,
          "2": -4.515203475952148,
          "3": -4.148484706878662,
          "4": -0.6107519268989563,
          "5": -3.906184434890747,
          "6": -0.4316279888153076,
          "7": 0.36421799659729004,
          "8": -0.5361449122428894,
          "9": -3.1852126121520996,
          "10": -2.337357759475708,
          "11": 1.494122862815857,
          "12": 1.6308647394180298,
          "13": 3.620145559310913,
          "14": -1.6124835014343262,
          "15": 4.030742168426514,
          "16": -4.165127754211426
        }
      },
      "horse16Green": {
        "bias": -1.849521279335022,
        "weights": {
          "0": -0.6126179099082947,
          "1": -0.09923090785741806,
          "2": -1.8503988981246948,
          "3": -1.6282517910003662,
          "4": -0.812354564666748,
          "5": 0.17963102459907532,
          "6": -0.44596511125564575,
          "7": 1.9120854139328003,
          "8": -0.11278074979782104,
          "9": -1.558474063873291,
          "10": -0.4724552631378174,
          "11": 0.2842109203338623,
          "12": -0.29515907168388367,
          "13": 0.15404321253299713,
          "14": -0.2200610190629959,
          "15": -0.023844508454203606,
          "16": -1.7493163347244263
        }
      },
      "horse17Green": {
        "bias": -2.064992904663086,
        "weights": {
          "0": -0.8401330709457397,
          "1": 0.9475373029708862,
          "2": -1.0017220973968506,
          "3": -2.108147144317627,
          "4": -1.1275169849395752,
          "5": 0.6755766868591309,
          "6": -0.21000538766384125,
          "7": 1.044311285018921,
          "8": 0.4072043299674988,
          "9": -1.9426671266555786,
          "10": -1.1370582580566406,
          "11": 0.11136079579591751,
          "12": 1.708547830581665,
          "13": -0.012634090147912502,
          "14": -0.7324699759483337,
          "15": -0.018199235200881958,
          "16": -2.0759830474853516
        }
      },
      "horse18Green": {
        "bias": -2.227065086364746,
        "weights": {
          "0": -0.9234998226165771,
          "1": 2.3484394550323486,
          "2": -2.4605393409729004,
          "3": -2.5249907970428467,
          "4": -1.0608705282211304,
          "5": -3.2968082427978516,
          "6": -0.18424083292484283,
          "7": 0.725425124168396,
          "8": -2.603834867477417,
          "9": -2.5347418785095215,
          "10": -2.069995880126953,
          "11": 1.945206880569458,
          "12": 2.259138345718384,
          "13": -1.8682891130447388,
          "14": -1.1629045009613037,
          "15": 2.548383951187134,
          "16": -2.5221827030181885
        }
      },
      "horse19Green": {
        "bias": -1.2056275606155396,
        "weights": {
          "0": -0.5551415681838989,
          "1": 0.21670103073120117,
          "2": -0.8329632878303528,
          "3": -1.4114046096801758,
          "4": -0.6212723255157471,
          "5": -0.560001790523529,
          "6": -0.059825215488672256,
          "7": -0.027255140244960785,
          "8": -0.07207764685153961,
          "9": -1.2675734758377075,
          "10": -0.4337209165096283,
          "11": -0.4378756582736969,
          "12": 0.09015858918428421,
          "13": -0.5129647254943848,
          "14": -1.0493175983428955,
          "15": -0.4474982023239136,
          "16": -1.3094178438186646
        }
      },
      "horse20Green": {
        "bias": -1.4187304973602295,
        "weights": {
          "0": -0.23718257248401642,
          "1": -0.2213817834854126,
          "2": -0.5854415893554688,
          "3": -1.2975990772247314,
          "4": -0.7408382296562195,
          "5": -0.8600268363952637,
          "6": -0.1923503875732422,
          "7": -0.45794615149497986,
          "8": -0.7251660823822021,
          "9": -1.2397964000701904,
          "10": -0.5369770526885986,
          "11": -0.8347529768943787,
          "12": -0.16570359468460083,
          "13": -0.7396277785301208,
          "14": -0.9523335099220276,
          "15": -0.7825413346290588,
          "16": -1.4026076793670654
        }
      },
      "horse21Green": {
        "bias": -1.2226319313049316,
        "weights": {
          "0": -0.3326849043369293,
          "1": -0.38770046830177307,
          "2": -0.7210635542869568,
          "3": -1.3738605976104736,
          "4": -0.4476349353790283,
          "5": -0.5835563540458679,
          "6": -0.19824959337711334,
          "7": -0.222521111369133,
          "8": -0.6150698661804199,
          "9": -1.1459100246429443,
          "10": -0.5222591161727905,
          "11": -0.5418949127197266,
          "12": -0.19408008456230164,
          "13": -0.832101047039032,
          "14": -1.0181427001953125,
          "15": -0.45391136407852173,
          "16": -1.3766758441925049
        }
      },
      "horse22Green": {
        "bias": -1.4604064226150513,
        "weights": {
          "0": -0.3654223382472992,
          "1": -0.29130280017852783,
          "2": -0.5312209725379944,
          "3": -1.3998342752456665,
          "4": -0.35381338000297546,
          "5": -0.8647313117980957,
          "6": -0.22213353216648102,
          "7": -0.6239982843399048,
          "8": -0.5321057438850403,
          "9": -1.2286094427108765,
          "10": -0.5631162524223328,
          "11": -0.9961274862289429,
          "12": -0.3916822671890259,
          "13": -0.8741075396537781,
          "14": -1.1337946653366089,
          "15": -0.3732233941555023,
          "16": -1.50596022605896
        }
      },
      "horse23Green": {
        "bias": -1.1779289245605469,
        "weights": {
          "0": -0.24124273657798767,
          "1": -0.39018115401268005,
          "2": -0.5086438059806824,
          "3": -1.483143925666809,
          "4": -0.6200657486915588,
          "5": -0.764677882194519,
          "6": 0.04836278036236763,
          "7": -0.6316275000572205,
          "8": -0.7258371710777283,
          "9": -1.5697499513626099,
          "10": -0.5702140927314758,
          "11": -0.8472491502761841,
          "12": -0.5152420997619629,
          "13": -0.8220106959342957,
          "14": -1.2621843814849854,
          "15": -0.6927299499511719,
          "16": -1.4927541017532349
        }
      },
      "horse24Green": {
        "bias": -1.4348887205123901,
        "weights": {
          "0": -0.5020416975021362,
          "1": -0.3327970802783966,
          "2": -0.5102679133415222,
          "3": -1.4141972064971924,
          "4": -0.381204754114151,
          "5": -0.6261003613471985,
          "6": -0.20774677395820618,
          "7": -0.6524287462234497,
          "8": -0.6743887662887573,
          "9": -1.4952672719955444,
          "10": -0.5894355177879333,
          "11": -0.9942589402198792,
          "12": -0.4842459559440613,
          "13": -0.8130190968513489,
          "14": -1.126814603805542,
          "15": -0.6459755897521973,
          "16": -1.4908034801483154
        }
      },
      "horse25Green": {
        "bias": -1.4672064781188965,
        "weights": {
          "0": -0.41999220848083496,
          "1": -0.361789733171463,
          "2": -0.6568810343742371,
          "3": -1.392643928527832,
          "4": -0.5431380271911621,
          "5": -0.7593618035316467,
          "6": -0.15245570242404938,
          "7": -0.8610461354255676,
          "8": -0.5405744910240173,
          "9": -1.2946242094039917,
          "10": -0.6473091840744019,
          "11": -1.006663203239441,
          "12": -0.3264652490615845,
          "13": -0.8828312754631042,
          "14": -1.0893595218658447,
          "15": -0.6841754913330078,
          "16": -1.678095817565918
        }
      },
      "horse26Green": {
        "bias": -1.1580718755722046,
        "weights": {
          "0": -0.334735631942749,
          "1": -0.33626827597618103,
          "2": -0.5527030229568481,
          "3": -1.5347272157669067,
          "4": -0.6611502766609192,
          "5": -0.8140411376953125,
          "6": -0.0733477920293808,
          "7": -0.6676406264305115,
          "8": -0.682999312877655,
          "9": -1.4760582447052002,
          "10": -0.5186772346496582,
          "11": -1.017583966255188,
          "12": -0.5025604367256165,
          "13": -0.7168647050857544,
          "14": -1.2059407234191895,
          "15": -0.5785269737243652,
          "16": -1.6139798164367676
        }
      },
      "horse27Green": {
        "bias": -1.3410539627075195,
        "weights": {
          "0": -0.2979649603366852,
          "1": -0.3231941759586334,
          "2": -0.5304652452468872,
          "3": -1.2867017984390259,
          "4": -0.6378338932991028,
          "5": -0.8997789025306702,
          "6": 0.09625139832496643,
          "7": -0.6523902416229248,
          "8": -0.5601880550384521,
          "9": -1.5787335634231567,
          "10": -0.6125355958938599,
          "11": -1.042850136756897,
          "12": -0.42396581172943115,
          "13": -0.8165607452392578,
          "14": -1.2747966051101685,
          "15": -0.5841407179832458,
          "16": -1.5493718385696411
        }
      },
      "horse28Green": {
        "bias": -1.2718454599380493,
        "weights": {
          "0": -0.39261335134506226,
          "1": -0.3981708884239197,
          "2": -0.5363179445266724,
          "3": -1.4197272062301636,
          "4": -0.6456722021102905,
          "5": -0.7797185182571411,
          "6": 0.10810316354036331,
          "7": -0.7516550421714783,
          "8": -0.5730095505714417,
          "9": -1.4562411308288574,
          "10": -0.39357617497444153,
          "11": -0.8018617033958435,
          "12": -0.5623983144760132,
          "13": -0.8358008861541748,
          "14": -1.2209528684616089,
          "15": -0.6057569980621338,
          "16": -1.5876702070236206
        }
      },
      "horse29Green": {
        "bias": -1.2963366508483887,
        "weights": {
          "0": -0.19978660345077515,
          "1": -0.34087416529655457,
          "2": -0.6033439636230469,
          "3": -1.3472570180892944,
          "4": -0.7289436459541321,
          "5": -0.9696581959724426,
          "6": 0.08677177876234055,
          "7": -0.6695650219917297,
          "8": -0.5571646690368652,
          "9": -1.611250877380371,
          "10": -0.4897177517414093,
          "11": -0.8799538612365723,
          "12": -0.41766345500946045,
          "13": -0.927608072757721,
          "14": -1.3472996950149536,
          "15": -0.6682711839675903,
          "16": -1.4210649728775024
        }
      },
      "horse30Green": {
        "bias": -1.3262118101119995,
        "weights": {
          "0": -0.510037899017334,
          "1": -0.3202124834060669,
          "2": -0.5189191699028015,
          "3": -1.4980454444885254,
          "4": -0.747085690498352,
          "5": -0.9853368997573853,
          "6": -0.1280219703912735,
          "7": -0.5950987339019775,
          "8": -0.5786924362182617,
          "9": -1.2922677993774414,
          "10": -0.39774563908576965,
          "11": -1.0721917152404785,
          "12": -0.422489196062088,
          "13": -0.8880118727684021,
          "14": -1.3224290609359741,
          "15": -0.465694785118103,
          "16": -1.6127521991729736
        }
      },
      "horse31Green": {
        "bias": -1.5362062454223633,
        "weights": {
          "0": -0.29471203684806824,
          "1": -0.391940176486969,
          "2": -0.6642006039619446,
          "3": -1.3159571886062622,
          "4": -0.7379023432731628,
          "5": -0.9858191013336182,
          "6": -0.07996021211147308,
          "7": -0.7687950730323792,
          "8": -0.7792341709136963,
          "9": -1.2818474769592285,
          "10": -0.5332444310188293,
          "11": -0.8393796682357788,
          "12": -0.426923930644989,
          "13": -0.9124264121055603,
          "14": -1.1646289825439453,
          "15": -0.5074582099914551,
          "16": -1.6189969778060913
        }
      },
      "horse32Green": {
        "bias": -1.2441221475601196,
        "weights": {
          "0": -0.23980967700481415,
          "1": -0.2258586883544922,
          "2": -0.6013672351837158,
          "3": -1.376930832862854,
          "4": -0.48471611738204956,
          "5": -0.6725149750709534,
          "6": -0.25273093581199646,
          "7": -0.7378938794136047,
          "8": -0.6132519245147705,
          "9": -1.6349519491195679,
          "10": -0.38662564754486084,
          "11": -1.1122996807098389,
          "12": -0.39508530497550964,
          "13": -0.7429391145706177,
          "14": -1.166714072227478,
          "15": -0.5809794068336487,
          "16": -1.606137752532959
        }
      },
      "horse33Green": {
        "bias": -1.461952567100525,
        "weights": {
          "0": -0.27311959862709045,
          "1": -0.3069557249546051,
          "2": -0.5287873148918152,
          "3": -1.3759976625442505,
          "4": -0.518351674079895,
          "5": -0.8903411030769348,
          "6": 0.09476260840892792,
          "7": -0.7303290963172913,
          "8": -0.6312785148620605,
          "9": -1.4275317192077637,
          "10": -0.6506012082099915,
          "11": -1.0576395988464355,
          "12": -0.47068679332733154,
          "13": -0.8983824253082275,
          "14": -1.1363146305084229,
          "15": -0.5889685750007629,
          "16": -1.5301258563995361
        }
      },
      "horse34Green": {
        "bias": -1.505113959312439,
        "weights": {
          "0": -0.3191951513290405,
          "1": -0.3023459017276764,
          "2": -0.713889479637146,
          "3": -1.3046268224716187,
          "4": -0.6142215728759766,
          "5": -0.664063036441803,
          "6": 0.10275397449731827,
          "7": -0.7832986116409302,
          "8": -0.6114891171455383,
          "9": -1.260576844215393,
          "10": -0.5586607456207275,
          "11": -0.9478740692138672,
          "12": -0.4293127954006195,
          "13": -0.8180463910102844,
          "14": -1.2765064239501953,
          "15": -0.5279412865638733,
          "16": -1.6558996438980103
        }
      },
      "horse35Green": {
        "bias": -1.264256238937378,
        "weights": {
          "0": -0.4680716395378113,
          "1": -0.3350293040275574,
          "2": -0.5254843235015869,
          "3": -1.4249674081802368,
          "4": -0.41477128863334656,
          "5": -0.9176126718521118,
          "6": -0.18846292793750763,
          "7": -0.6390516757965088,
          "8": -0.5367910861968994,
          "9": -1.5718810558319092,
          "10": -0.5843067765235901,
          "11": -1.105879783630371,
          "12": -0.3793080449104309,
          "13": -0.756271481513977,
          "14": -1.3437833786010742,
          "15": -0.5118473172187805,
          "16": -1.5048803091049194
        }
      }
    }
  ],
  "outputLookup": true,
  "inputLookup": true,
  "activation": "sigmoid",
  "trainOpts": {
    "iterations": 2000,
    "errorThresh": 0.005,
    "log": true,
    "logPeriod": 10,
    "learningRate": 0.3,
    "momentum": 0.1,
    "callbackPeriod": 10,
    "beta1": 0.9,
    "beta2": 0.999,
    "epsilon": 1e-8
  }
}