{
  "sizes": [
    35,
    17,
    35
  ],
  "layers": [
    {
      "horse1-odd": {},
      "horse2-odd": {},
      "horse3-odd": {},
      "horse4-odd": {},
      "horse5-odd": {},
      "horse6-odd": {},
      "horse7-odd": {},
      "horse8-odd": {},
      "horse9-odd": {},
      "horse10-odd": {},
      "horse11-odd": {},
      "horse12-odd": {},
      "horse13-odd": {},
      "horse14-odd": {},
      "horse15-odd": {},
      "horse16-odd": {},
      "horse17-odd": {},
      "horse18-odd": {},
      "horse19-odd": {},
      "horse20-odd": {},
      "horse21-odd": {},
      "horse22-odd": {},
      "horse23-odd": {},
      "horse24-odd": {},
      "horse25-odd": {},
      "horse26-odd": {},
      "horse27-odd": {},
      "horse28-odd": {},
      "horse29-odd": {},
      "horse30-odd": {},
      "horse31-odd": {},
      "horse32-odd": {},
      "horse33-odd": {},
      "horse34-odd": {},
      "horse35-odd": {}
    },
    {
      "0": {
        "bias": 17.321365356445312,
        "weights": {
          "horse1-odd": -101.29368591308594,
          "horse2-odd": 7.80638313293457,
          "horse3-odd": 5.871859073638916,
          "horse4-odd": 4.01766300201416,
          "horse5-odd": -14.539703369140625,
          "horse6-odd": 33.4686164855957,
          "horse7-odd": -28.410066604614258,
          "horse8-odd": -3.1787097454071045,
          "horse9-odd": 44.36798858642578,
          "horse10-odd": -0.9425661563873291,
          "horse11-odd": -1.8629509210586548,
          "horse12-odd": -21.016101837158203,
          "horse13-odd": -16.454050064086914,
          "horse14-odd": 13.639612197875977,
          "horse15-odd": -9.143396377563477,
          "horse16-odd": -6.3871989250183105,
          "horse17-odd": -2.7455530166625977,
          "horse18-odd": 3.8183372020721436,
          "horse19-odd": -0.7007565498352051,
          "horse20-odd": -0.8889170289039612,
          "horse21-odd": 2.8526220321655273,
          "horse22-odd": -2.26922607421875,
          "horse23-odd": -0.8487688899040222,
          "horse24-odd": -1.9545538425445557,
          "horse25-odd": 0.015265580266714096,
          "horse26-odd": -0.39313021302223206,
          "horse27-odd": -0.20361578464508057,
          "horse28-odd": 0.07279302179813385,
          "horse29-odd": -0.07214665412902832,
          "horse30-odd": -0.14373965561389923,
          "horse31-odd": 0.03835620358586311,
          "horse32-odd": -0.12321512401103973,
          "horse33-odd": -0.07109218090772629,
          "horse34-odd": 0.15428102016448975,
          "horse35-odd": -0.19318915903568268
        }
      },
      "1": {
        "bias": -4.562157154083252,
        "weights": {
          "horse1-odd": -7.886916160583496,
          "horse2-odd": -9.462087631225586,
          "horse3-odd": -30.90257453918457,
          "horse4-odd": -18.886383056640625,
          "horse5-odd": -11.350178718566895,
          "horse6-odd": -17.128456115722656,
          "horse7-odd": 34.13924026489258,
          "horse8-odd": 15.343201637268066,
          "horse9-odd": 15.457657814025879,
          "horse10-odd": 3.965397834777832,
          "horse11-odd": 0.49515852332115173,
          "horse12-odd": -33.05186462402344,
          "horse13-odd": -3.481934070587158,
          "horse14-odd": -10.242598533630371,
          "horse15-odd": -11.808119773864746,
          "horse16-odd": -9.938776016235352,
          "horse17-odd": -5.997349739074707,
          "horse18-odd": -4.50504207611084,
          "horse19-odd": -0.5106158256530762,
          "horse20-odd": 1.980681300163269,
          "horse21-odd": 1.9266700744628906,
          "horse22-odd": 1.6340285539627075,
          "horse23-odd": 0.7720382213592529,
          "horse24-odd": 1.4292255640029907,
          "horse25-odd": 0.16835592687129974,
          "horse26-odd": 0.2203104943037033,
          "horse27-odd": -0.06679557263851166,
          "horse28-odd": 0.24368314445018768,
          "horse29-odd": -0.13450025022029877,
          "horse30-odd": 0.09110485017299652,
          "horse31-odd": 0.18133945763111115,
          "horse32-odd": -0.19247809052467346,
          "horse33-odd": 0.18460431694984436,
          "horse34-odd": -0.14226722717285156,
          "horse35-odd": 0.019774533808231354
        }
      },
      "2": {
        "bias": -10.887255668640137,
        "weights": {
          "horse1-odd": 2.4204905033111572,
          "horse2-odd": 14.63621711730957,
          "horse3-odd": 4.798563003540039,
          "horse4-odd": 4.269201278686523,
          "horse5-odd": 3.6063690185546875,
          "horse6-odd": 1.5279834270477295,
          "horse7-odd": 2.381256580352783,
          "horse8-odd": 0.869855523109436,
          "horse9-odd": 1.906121850013733,
          "horse10-odd": 1.8734341859817505,
          "horse11-odd": 0.5298269391059875,
          "horse12-odd": 0.6013666987419128,
          "horse13-odd": 0.14970897138118744,
          "horse14-odd": 0.1951398402452469,
          "horse15-odd": 0.15045548975467682,
          "horse16-odd": 0.08282779157161713,
          "horse17-odd": -0.013776153326034546,
          "horse18-odd": -0.0475081130862236,
          "horse19-odd": 0.12990716099739075,
          "horse20-odd": -0.08062205463647842,
          "horse21-odd": -0.07706662267446518,
          "horse22-odd": 0.17926688492298126,
          "horse23-odd": -0.15095698833465576,
          "horse24-odd": 0.14544163644313812,
          "horse25-odd": 0.09937107563018799,
          "horse26-odd": 0.10022567212581635,
          "horse27-odd": 0.15494778752326965,
          "horse28-odd": -0.17983755469322205,
          "horse29-odd": -0.1717100590467453,
          "horse30-odd": 0.008462077006697655,
          "horse31-odd": -0.17613650858402252,
          "horse32-odd": -0.1587952822446823,
          "horse33-odd": 0.07757385820150375,
          "horse34-odd": 0.09530840069055557,
          "horse35-odd": -0.1121707335114479
        }
      },
      "3": {
        "bias": 10.622587203979492,
        "weights": {
          "horse1-odd": 43.7733154296875,
          "horse2-odd": 18.53110694885254,
          "horse3-odd": -126.13634490966797,
          "horse4-odd": 1.767555832862854,
          "horse5-odd": 18.302167892456055,
          "horse6-odd": 30.85516929626465,
          "horse7-odd": -13.715523719787598,
          "horse8-odd": 9.89646053314209,
          "horse9-odd": -10.753666877746582,
          "horse10-odd": -12.034377098083496,
          "horse11-odd": 3.575247049331665,
          "horse12-odd": -12.778014183044434,
          "horse13-odd": 2.9162094593048096,
          "horse14-odd": 1.8799952268600464,
          "horse15-odd": -10.043628692626953,
          "horse16-odd": -17.939645767211914,
          "horse17-odd": 6.659882068634033,
          "horse18-odd": -2.3671934604644775,
          "horse19-odd": -6.855908393859863,
          "horse20-odd": -10.667813301086426,
          "horse21-odd": -1.9837751388549805,
          "horse22-odd": 5.942248344421387,
          "horse23-odd": 2.995453357696533,
          "horse24-odd": 3.335772752761841,
          "horse25-odd": 0.2733009457588196,
          "horse26-odd": 0.30958816409111023,
          "horse27-odd": -0.0191211961209774,
          "horse28-odd": -0.2465183287858963,
          "horse29-odd": 0.06313420832157135,
          "horse30-odd": -0.042219068855047226,
          "horse31-odd": -0.2615564465522766,
          "horse32-odd": 0.014992780983448029,
          "horse33-odd": -0.2113739550113678,
          "horse34-odd": -0.13568660616874695,
          "horse35-odd": -0.06283654272556305
        }
      },
      "4": {
        "bias": 0.9637132287025452,
        "weights": {
          "horse1-odd": 2.565523624420166,
          "horse2-odd": 1.8027424812316895,
          "horse3-odd": 0.9249286651611328,
          "horse4-odd": 0.39489442110061646,
          "horse5-odd": 0.37244728207588196,
          "horse6-odd": 0.13243147730827332,
          "horse7-odd": 0.8767908215522766,
          "horse8-odd": 0.6658868193626404,
          "horse9-odd": -0.05897078290581703,
          "horse10-odd": 0.18932227790355682,
          "horse11-odd": 0.34813880920410156,
          "horse12-odd": 0.8059572577476501,
          "horse13-odd": 0.20238399505615234,
          "horse14-odd": 0.05321746692061424,
          "horse15-odd": -0.014985720627009869,
          "horse16-odd": -0.058056384325027466,
          "horse17-odd": 0.1875174641609192,
          "horse18-odd": -0.06723467260599136,
          "horse19-odd": 0.17077310383319855,
          "horse20-odd": 0.18014496564865112,
          "horse21-odd": -0.18309760093688965,
          "horse22-odd": -0.10366668552160263,
          "horse23-odd": 0.11968792229890823,
          "horse24-odd": -0.12858980894088745,
          "horse25-odd": 0.06730933487415314,
          "horse26-odd": 0.0738256573677063,
          "horse27-odd": -0.18962040543556213,
          "horse28-odd": 0.1371299922466278,
          "horse29-odd": 0.06531459838151932,
          "horse30-odd": 0.10010121762752533,
          "horse31-odd": 0.01763719879090786,
          "horse32-odd": 0.0013924501836299896,
          "horse33-odd": -0.02808568999171257,
          "horse34-odd": 0.11433645337820053,
          "horse35-odd": 0.15852604806423187
        }
      },
      "5": {
        "bias": -0.855370044708252,
        "weights": {
          "horse1-odd": -2.7261927127838135,
          "horse2-odd": -2.140759229660034,
          "horse3-odd": -1.7560073137283325,
          "horse4-odd": -0.22992394864559174,
          "horse5-odd": -1.1601297855377197,
          "horse6-odd": -1.1465277671813965,
          "horse7-odd": -0.27171623706817627,
          "horse8-odd": -1.208931565284729,
          "horse9-odd": -0.9071042537689209,
          "horse10-odd": 0.5054579377174377,
          "horse11-odd": -0.14700272679328918,
          "horse12-odd": -0.8979038000106812,
          "horse13-odd": -0.22588492929935455,
          "horse14-odd": -1.637596607208252,
          "horse15-odd": -0.6627628207206726,
          "horse16-odd": -0.10011613368988037,
          "horse17-odd": -0.11994855105876923,
          "horse18-odd": 0.04982839524745941,
          "horse19-odd": 0.16329795122146606,
          "horse20-odd": -0.18556877970695496,
          "horse21-odd": -0.06422185897827148,
          "horse22-odd": -0.0920591652393341,
          "horse23-odd": 0.1896572858095169,
          "horse24-odd": -0.06293855607509613,
          "horse25-odd": 0.1054634302854538,
          "horse26-odd": -0.042699407786130905,
          "horse27-odd": 0.05256306752562523,
          "horse28-odd": 0.03770732507109642,
          "horse29-odd": -0.1974259614944458,
          "horse30-odd": -0.19596847891807556,
          "horse31-odd": -0.113662950694561,
          "horse32-odd": -0.009022888727486134,
          "horse33-odd": -0.1530112624168396,
          "horse34-odd": 0.12696383893489838,
          "horse35-odd": -0.17170687019824982
        }
      },
      "6": {
        "bias": -0.7630807161331177,
        "weights": {
          "horse1-odd": -3.822908639907837,
          "horse2-odd": -6.212294101715088,
          "horse3-odd": -1.2788653373718262,
          "horse4-odd": -2.077350378036499,
          "horse5-odd": -4.298046112060547,
          "horse6-odd": -14.124689102172852,
          "horse7-odd": -5.352756500244141,
          "horse8-odd": -5.626680374145508,
          "horse9-odd": -0.6283966302871704,
          "horse10-odd": -0.6705790758132935,
          "horse11-odd": -0.3583095371723175,
          "horse12-odd": -15.899739265441895,
          "horse13-odd": 0.5165570974349976,
          "horse14-odd": 0.1428900510072708,
          "horse15-odd": 0.14754608273506165,
          "horse16-odd": 0.14867539703845978,
          "horse17-odd": -0.13297921419143677,
          "horse18-odd": 0.1080835834145546,
          "horse19-odd": 0.24061740934848785,
          "horse20-odd": 0.023172570392489433,
          "horse21-odd": -0.10898319631814957,
          "horse22-odd": -0.023920567706227303,
          "horse23-odd": -0.15866701304912567,
          "horse24-odd": 0.1302058845758438,
          "horse25-odd": -0.1073785349726677,
          "horse26-odd": -0.002550671109929681,
          "horse27-odd": -0.1259586662054062,
          "horse28-odd": -0.18324226140975952,
          "horse29-odd": -0.1316009908914566,
          "horse30-odd": -0.06973400712013245,
          "horse31-odd": 0.11898230016231537,
          "horse32-odd": 0.11187335848808289,
          "horse33-odd": 0.04239227995276451,
          "horse34-odd": -0.07609719783067703,
          "horse35-odd": 0.046126093715429306
        }
      },
      "7": {
        "bias": -1.8809081315994263,
        "weights": {
          "horse1-odd": -7.42352294921875,
          "horse2-odd": -18.81169891357422,
          "horse3-odd": -1.237099289894104,
          "horse4-odd": -0.1801363229751587,
          "horse5-odd": -14.493939399719238,
          "horse6-odd": -1.0736198425292969,
          "horse7-odd": -7.391754627227783,
          "horse8-odd": 4.887744903564453,
          "horse9-odd": -4.884562969207764,
          "horse10-odd": -5.695694923400879,
          "horse11-odd": -1.5596619844436646,
          "horse12-odd": -8.482120513916016,
          "horse13-odd": 1.1170333623886108,
          "horse14-odd": -2.800060272216797,
          "horse15-odd": -1.1926686763763428,
          "horse16-odd": -2.582868814468384,
          "horse17-odd": 0.4586436152458191,
          "horse18-odd": 2.0813117027282715,
          "horse19-odd": -0.40780723094940186,
          "horse20-odd": 0.2990977168083191,
          "horse21-odd": -0.18783171474933624,
          "horse22-odd": 1.0328625440597534,
          "horse23-odd": -0.05752480402588844,
          "horse24-odd": 0.022268760949373245,
          "horse25-odd": -0.08336351811885834,
          "horse26-odd": 0.9373495578765869,
          "horse27-odd": 0.21741309762001038,
          "horse28-odd": 0.23253513872623444,
          "horse29-odd": 0.211266428232193,
          "horse30-odd": 0.16194050014019012,
          "horse31-odd": 0.24129727482795715,
          "horse32-odd": 0.14786717295646667,
          "horse33-odd": 0.09336333721876144,
          "horse34-odd": -0.05374876782298088,
          "horse35-odd": 0.11485142260789871
        }
      },
      "8": {
        "bias": 18.24323272705078,
        "weights": {
          "horse1-odd": -3.751689910888672,
          "horse2-odd": -82.36341094970703,
          "horse3-odd": -1.9257724285125732,
          "horse4-odd": -10.449227333068848,
          "horse5-odd": 9.04995059967041,
          "horse6-odd": 89.26805877685547,
          "horse7-odd": 15.253836631774902,
          "horse8-odd": -14.206167221069336,
          "horse9-odd": -7.65545654296875,
          "horse10-odd": -0.10531771183013916,
          "horse11-odd": -1.949765682220459,
          "horse12-odd": -26.027219772338867,
          "horse13-odd": 4.850474834442139,
          "horse14-odd": 1.8336588144302368,
          "horse15-odd": -0.11260256171226501,
          "horse16-odd": -42.24966812133789,
          "horse17-odd": 5.104475021362305,
          "horse18-odd": -6.914422035217285,
          "horse19-odd": -8.20197868347168,
          "horse20-odd": -5.0995402336120605,
          "horse21-odd": -3.408233404159546,
          "horse22-odd": 2.531325578689575,
          "horse23-odd": -3.150097370147705,
          "horse24-odd": -3.0058183670043945,
          "horse25-odd": -3.3606910705566406,
          "horse26-odd": -2.094418525695801,
          "horse27-odd": -0.2653640806674957,
          "horse28-odd": -0.8882846832275391,
          "horse29-odd": 0.031130682677030563,
          "horse30-odd": -0.11467672884464264,
          "horse31-odd": 0.10386373102664948,
          "horse32-odd": 0.06978322565555573,
          "horse33-odd": -0.1945621520280838,
          "horse34-odd": -0.041173409670591354,
          "horse35-odd": -0.07301359623670578
        }
      },
      "9": {
        "bias": 14.500494003295898,
        "weights": {
          "horse1-odd": -4.986067295074463,
          "horse2-odd": -9.968141555786133,
          "horse3-odd": -13.528559684753418,
          "horse4-odd": -11.257988929748535,
          "horse5-odd": -8.028741836547852,
          "horse6-odd": -4.670309066772461,
          "horse7-odd": -5.155502796173096,
          "horse8-odd": -3.291440725326538,
          "horse9-odd": -4.695744037628174,
          "horse10-odd": -2.4373342990875244,
          "horse11-odd": -1.4186054468154907,
          "horse12-odd": -1.477433681488037,
          "horse13-odd": -2.375948667526245,
          "horse14-odd": -1.174433708190918,
          "horse15-odd": 0.022118380293250084,
          "horse16-odd": 0.0563584603369236,
          "horse17-odd": 0.1398712396621704,
          "horse18-odd": -0.018574675545096397,
          "horse19-odd": 0.02543087676167488,
          "horse20-odd": 0.22581763565540314,
          "horse21-odd": 0.026295356452465057,
          "horse22-odd": -0.08490221202373505,
          "horse23-odd": 0.04152301326394081,
          "horse24-odd": -0.05598652362823486,
          "horse25-odd": 0.19240449368953705,
          "horse26-odd": -0.10920602828264236,
          "horse27-odd": -0.14403969049453735,
          "horse28-odd": -0.137604221701622,
          "horse29-odd": 0.10886076837778091,
          "horse30-odd": 0.14055290818214417,
          "horse31-odd": -0.18644584715366364,
          "horse32-odd": -0.0009971294784918427,
          "horse33-odd": -0.0582755021750927,
          "horse34-odd": 0.0695689469575882,
          "horse35-odd": -0.08038722723722458
        }
      },
      "10": {
        "bias": 0.9060244560241699,
        "weights": {
          "horse1-odd": -9.752363204956055,
          "horse2-odd": -15.268420219421387,
          "horse3-odd": -44.00740051269531,
          "horse4-odd": 45.929725646972656,
          "horse5-odd": -5.178358554840088,
          "horse6-odd": -18.335329055786133,
          "horse7-odd": 6.303102970123291,
          "horse8-odd": -7.830883979797363,
          "horse9-odd": 15.357712745666504,
          "horse10-odd": 27.221420288085938,
          "horse11-odd": -45.780269622802734,
          "horse12-odd": -19.55379867553711,
          "horse13-odd": -4.57548189163208,
          "horse14-odd": 0.13811059296131134,
          "horse15-odd": -14.295825958251953,
          "horse16-odd": 11.929450988769531,
          "horse17-odd": -8.900912284851074,
          "horse18-odd": 2.5076844692230225,
          "horse19-odd": 2.1638755798339844,
          "horse20-odd": -2.5254719257354736,
          "horse21-odd": -0.9296884536743164,
          "horse22-odd": -0.49128082394599915,
          "horse23-odd": -0.9335041642189026,
          "horse24-odd": 0.17736473679542542,
          "horse25-odd": -1.588229775428772,
          "horse26-odd": 0.7365161776542664,
          "horse27-odd": 0.07442577183246613,
          "horse28-odd": 0.6025466918945312,
          "horse29-odd": 0.005267399363219738,
          "horse30-odd": 0.19972437620162964,
          "horse31-odd": 0.1972055286169052,
          "horse32-odd": 0.27038881182670593,
          "horse33-odd": 0.06848052144050598,
          "horse34-odd": -0.12086894363164902,
          "horse35-odd": -0.1312018185853958
        }
      },
      "11": {
        "bias": 0.009247553534805775,
        "weights": {
          "horse1-odd": -2.479691982269287,
          "horse2-odd": -2.0811314582824707,
          "horse3-odd": -2.693006992340088,
          "horse4-odd": -2.3188276290893555,
          "horse5-odd": -1.9041703939437866,
          "horse6-odd": -3.740173101425171,
          "horse7-odd": -1.3644354343414307,
          "horse8-odd": -0.5819199681282043,
          "horse9-odd": 1.261757493019104,
          "horse10-odd": -2.2240827083587646,
          "horse11-odd": -2.605146884918213,
          "horse12-odd": -1.7875856161117554,
          "horse13-odd": 0.9265930652618408,
          "horse14-odd": 0.1829228401184082,
          "horse15-odd": -0.4397745132446289,
          "horse16-odd": 0.19575297832489014,
          "horse17-odd": 0.5056408047676086,
          "horse18-odd": 0.6501922607421875,
          "horse19-odd": 0.16104455292224884,
          "horse20-odd": 0.42214271426200867,
          "horse21-odd": 0.030209925025701523,
          "horse22-odd": 0.11198826879262924,
          "horse23-odd": 0.23740576207637787,
          "horse24-odd": 0.033994726836681366,
          "horse25-odd": -0.001977287232875824,
          "horse26-odd": -0.11700841784477234,
          "horse27-odd": -0.056833330541849136,
          "horse28-odd": 0.058487288653850555,
          "horse29-odd": -0.18809367716312408,
          "horse30-odd": -0.06654831022024155,
          "horse31-odd": 0.18924468755722046,
          "horse32-odd": 0.05261388048529625,
          "horse33-odd": -0.17326529324054718,
          "horse34-odd": 0.00421701418235898,
          "horse35-odd": -0.1293102353811264
        }
      },
      "12": {
        "bias": -37.34990310668945,
        "weights": {
          "horse1-odd": 44.61061477661133,
          "horse2-odd": -68.41419219970703,
          "horse3-odd": -10.193855285644531,
          "horse4-odd": -21.27149772644043,
          "horse5-odd": 9.562976837158203,
          "horse6-odd": -1.7360464334487915,
          "horse7-odd": -15.108418464660645,
          "horse8-odd": 20.215045928955078,
          "horse9-odd": 18.05345916748047,
          "horse10-odd": -31.160465240478516,
          "horse11-odd": 1.1830768585205078,
          "horse12-odd": 9.068540573120117,
          "horse13-odd": -22.84469985961914,
          "horse14-odd": 19.38964080810547,
          "horse15-odd": 28.85065269470215,
          "horse16-odd": 2.8485512733459473,
          "horse17-odd": -12.440674781799316,
          "horse18-odd": -0.915705680847168,
          "horse19-odd": 2.7839808464050293,
          "horse20-odd": -4.2780442237854,
          "horse21-odd": -4.003027439117432,
          "horse22-odd": 1.6119065284729004,
          "horse23-odd": -0.11936859786510468,
          "horse24-odd": 4.439314842224121,
          "horse25-odd": 0.978383481502533,
          "horse26-odd": 1.462639331817627,
          "horse27-odd": -0.1221708133816719,
          "horse28-odd": 1.6179313659667969,
          "horse29-odd": -0.14934509992599487,
          "horse30-odd": 0.005532030947506428,
          "horse31-odd": -0.06099127233028412,
          "horse32-odd": 0.18155358731746674,
          "horse33-odd": 0.1331804245710373,
          "horse34-odd": 0.09337025880813599,
          "horse35-odd": 0.05532902106642723
        }
      },
      "13": {
        "bias": -25.539306640625,
        "weights": {
          "horse1-odd": -0.3129958212375641,
          "horse2-odd": 0.09165472537279129,
          "horse3-odd": -0.004826867021620274,
          "horse4-odd": -1.2003796100616455,
          "horse5-odd": -0.5086267590522766,
          "horse6-odd": 43.16937255859375,
          "horse7-odd": 34.027374267578125,
          "horse8-odd": 24.272695541381836,
          "horse9-odd": 10.98178768157959,
          "horse10-odd": 10.728534698486328,
          "horse11-odd": 7.57956075668335,
          "horse12-odd": 5.000599384307861,
          "horse13-odd": 2.471416711807251,
          "horse14-odd": 2.01224684715271,
          "horse15-odd": 0.29719194769859314,
          "horse16-odd": 0.46886613965034485,
          "horse17-odd": 0.5157385468482971,
          "horse18-odd": 0.3253009617328644,
          "horse19-odd": 0.14996321499347687,
          "horse20-odd": 0.10934913158416748,
          "horse21-odd": 0.05322406440973282,
          "horse22-odd": 0.008033649995923042,
          "horse23-odd": -0.13172350823879242,
          "horse24-odd": -0.07982754707336426,
          "horse25-odd": -0.14840354025363922,
          "horse26-odd": 0.15064993500709534,
          "horse27-odd": 0.1438950151205063,
          "horse28-odd": 0.044592905789613724,
          "horse29-odd": -0.14621078968048096,
          "horse30-odd": -0.11864600330591202,
          "horse31-odd": -0.07044347375631332,
          "horse32-odd": 0.1526038944721222,
          "horse33-odd": -0.0052306740544736385,
          "horse34-odd": 0.06330562382936478,
          "horse35-odd": 0.07820269465446472
        }
      },
      "14": {
        "bias": 13.197343826293945,
        "weights": {
          "horse1-odd": -90.76300048828125,
          "horse2-odd": -0.8034012913703918,
          "horse3-odd": -15.836177825927734,
          "horse4-odd": -0.9071277976036072,
          "horse5-odd": 30.514406204223633,
          "horse6-odd": -2.9833414554595947,
          "horse7-odd": -4.960573673248291,
          "horse8-odd": 13.360753059387207,
          "horse9-odd": -24.8957462310791,
          "horse10-odd": -12.353557586669922,
          "horse11-odd": -7.405240535736084,
          "horse12-odd": 8.568130493164062,
          "horse13-odd": 4.74090051651001,
          "horse14-odd": -12.185193061828613,
          "horse15-odd": 11.948723793029785,
          "horse16-odd": -4.706171989440918,
          "horse17-odd": -7.660132884979248,
          "horse18-odd": 6.350603103637695,
          "horse19-odd": -5.814685821533203,
          "horse20-odd": -6.069018363952637,
          "horse21-odd": -9.949623107910156,
          "horse22-odd": -4.293828964233398,
          "horse23-odd": -0.8259409070014954,
          "horse24-odd": 0.3767506778240204,
          "horse25-odd": -1.6669774055480957,
          "horse26-odd": -2.6620616912841797,
          "horse27-odd": -0.8833311796188354,
          "horse28-odd": -1.3613547086715698,
          "horse29-odd": -0.5159862041473389,
          "horse30-odd": -0.6079921126365662,
          "horse31-odd": -0.18159817159175873,
          "horse32-odd": -0.0999695211648941,
          "horse33-odd": 0.12170058488845825,
          "horse34-odd": 0.025808490812778473,
          "horse35-odd": 0.13379830121994019
        }
      },
      "15": {
        "bias": -0.9998044371604919,
        "weights": {
          "horse1-odd": 4.145994186401367,
          "horse2-odd": 2.6367218494415283,
          "horse3-odd": 0.38680464029312134,
          "horse4-odd": 0.9439249634742737,
          "horse5-odd": 0.5578882098197937,
          "horse6-odd": 3.3235442638397217,
          "horse7-odd": 0.6184965968132019,
          "horse8-odd": 0.09697709232568741,
          "horse9-odd": 0.17593178153038025,
          "horse10-odd": 0.03616863116621971,
          "horse11-odd": 0.25550761818885803,
          "horse12-odd": 0.10714761167764664,
          "horse13-odd": 0.027510259300470352,
          "horse14-odd": 0.012215856462717056,
          "horse15-odd": -0.07790657132863998,
          "horse16-odd": -0.0326361283659935,
          "horse17-odd": -0.044747013598680496,
          "horse18-odd": -0.09862920641899109,
          "horse19-odd": 0.08359820395708084,
          "horse20-odd": 0.032909806817770004,
          "horse21-odd": 0.15195564925670624,
          "horse22-odd": -0.10342606157064438,
          "horse23-odd": -0.0381230004131794,
          "horse24-odd": 0.0857444703578949,
          "horse25-odd": -0.03736163675785065,
          "horse26-odd": 0.16525417566299438,
          "horse27-odd": -0.023481229320168495,
          "horse28-odd": -0.10138942301273346,
          "horse29-odd": -0.16586430370807648,
          "horse30-odd": 0.1958749145269394,
          "horse31-odd": 0.051364243030548096,
          "horse32-odd": -0.07154417037963867,
          "horse33-odd": 0.07148171961307526,
          "horse34-odd": 0.13742275536060333,
          "horse35-odd": -0.12942983210086823
        }
      },
      "16": {
        "bias": -12.799914360046387,
        "weights": {
          "horse1-odd": -0.13320179283618927,
          "horse2-odd": -0.4589269459247589,
          "horse3-odd": -0.6947571039199829,
          "horse4-odd": -0.03793947771191597,
          "horse5-odd": -0.3480810821056366,
          "horse6-odd": -0.10166948288679123,
          "horse7-odd": -1.367850661277771,
          "horse8-odd": 0.08801404386758804,
          "horse9-odd": 50.58150100708008,
          "horse10-odd": 33.977657318115234,
          "horse11-odd": 19.964282989501953,
          "horse12-odd": 12.015399932861328,
          "horse13-odd": 9.156485557556152,
          "horse14-odd": 2.764126777648926,
          "horse15-odd": 2.3356845378875732,
          "horse16-odd": 1.1628237962722778,
          "horse17-odd": 2.5209615230560303,
          "horse18-odd": 0.7565637826919556,
          "horse19-odd": 0.6864299774169922,
          "horse20-odd": 0.505796492099762,
          "horse21-odd": 0.14829249680042267,
          "horse22-odd": 0.053552787750959396,
          "horse23-odd": -0.0008904722635634243,
          "horse24-odd": -0.1011626347899437,
          "horse25-odd": 0.09218362718820572,
          "horse26-odd": -0.1487223505973816,
          "horse27-odd": -0.18938250839710236,
          "horse28-odd": -0.16459167003631592,
          "horse29-odd": -0.03600442782044411,
          "horse30-odd": 0.17866185307502747,
          "horse31-odd": 0.015780581161379814,
          "horse32-odd": 0.04883778840303421,
          "horse33-odd": -0.0852743536233902,
          "horse34-odd": -0.09403560310602188,
          "horse35-odd": 0.10287584364414215
        }
      }
    },
    {
      "horse1-position": {
        "bias": 0.4321300983428955,
        "weights": {
          "0": 1.3124077320098877,
          "1": 0.4508435130119324,
          "2": -0.669096052646637,
          "3": -0.6035301685333252,
          "4": -0.19271621108055115,
          "5": -2.0816004276275635,
          "6": -1.6758273839950562,
          "7": -3.044092893600464,
          "8": -0.23164856433868408,
          "9": 6.148653507232666,
          "10": -0.07712409645318985,
          "11": 1.172431230545044,
          "12": -1.3721469640731812,
          "13": -0.8761192560195923,
          "14": 1.0484552383422852,
          "15": -0.36070510745048523,
          "16": -0.6136448979377747
        }
      },
      "horse2-position": {
        "bias": -3.546699285507202,
        "weights": {
          "0": -0.2845016121864319,
          "1": -0.6848243474960327,
          "2": 7.645047664642334,
          "3": -0.3493979871273041,
          "4": -2.8131070137023926,
          "5": -3.5851526260375977,
          "6": -1.5442794561386108,
          "7": -0.6350499987602234,
          "8": 1.4912912845611572,
          "9": 0.6384741067886353,
          "10": 0.7075551152229309,
          "11": -0.07507201284170151,
          "12": 0.8621407151222229,
          "13": -1.322913646697998,
          "14": -0.17221279442310333,
          "15": -2.4991893768310547,
          "16": -0.8306381106376648
        }
      },
      "horse3-position": {
        "bias": -2.7492449283599854,
        "weights": {
          "0": -0.44959941506385803,
          "1": 0.860906183719635,
          "2": 4.9594407081604,
          "3": 1.6695654392242432,
          "4": -2.857271671295166,
          "5": 6.517611980438232,
          "6": -2.3319778442382812,
          "7": -0.054207004606723785,
          "8": 0.23351138830184937,
          "9": -3.7655739784240723,
          "10": 0.892406702041626,
          "11": -1.0804567337036133,
          "12": -0.6132689118385315,
          "13": -0.9054253101348877,
          "14": -0.2550203800201416,
          "15": -1.257746696472168,
          "16": -0.565000593662262
        }
      },
      "horse4-position": {
        "bias": -2.8504881858825684,
        "weights": {
          "0": 0.010139494203031063,
          "1": 0.08706158399581909,
          "2": 4.747316360473633,
          "3": -0.13953375816345215,
          "4": -2.509580373764038,
          "5": -1.8926039934158325,
          "6": 6.497459411621094,
          "7": 0.5390536785125732,
          "8": 0.2702128291130066,
          "9": -4.149465084075928,
          "10": -1.7867977619171143,
          "11": -1.2399996519088745,
          "12": -0.07508625090122223,
          "13": -0.47181686758995056,
          "14": -0.1293412446975708,
          "15": -0.8496339917182922,
          "16": -0.7308514714241028
        }
      },
      "horse5-position": {
        "bias": -2.1664490699768066,
        "weights": {
          "0": 0.04194214940071106,
          "1": 0.18036745488643646,
          "2": 2.7485592365264893,
          "3": -0.28995129466056824,
          "4": -1.5376715660095215,
          "5": -2.7075698375701904,
          "6": -1.3700767755508423,
          "7": 1.8451236486434937,
          "8": -0.2755765914916992,
          "9": -4.052029132843018,
          "10": -0.027169356122612953,
          "11": 0.1354217827320099,
          "12": -0.10148123651742935,
          "13": 0.3287690579891205,
          "14": -1.1426308155059814,
          "15": -1.071476936340332,
          "16": -0.7237958908081055
        }
      },
      "horse6-position": {
        "bias": -1.9003782272338867,
        "weights": {
          "0": -1.016416311264038,
          "1": 0.5117627382278442,
          "2": -0.7756019830703735,
          "3": -0.7243679165840149,
          "4": -1.6232069730758667,
          "5": -1.5952776670455933,
          "6": -1.0687062740325928,
          "7": -1.675572156906128,
          "8": -1.4022457599639893,
          "9": -0.768543541431427,
          "10": 0.3163357079029083,
          "11": 1.1937475204467773,
          "12": 0.1579207181930542,
          "13": 4.369656085968018,
          "14": -0.04076198488473892,
          "15": -1.2789777517318726,
          "16": -0.6705502867698669
        }
      },
      "horse7-position": {
        "bias": -2.136200189590454,
        "weights": {
          "0": 0.2880592346191406,
          "1": -1.4035776853561401,
          "2": -1.4439609050750732,
          "3": 0.478640615940094,
          "4": -2.398714542388916,
          "5": -1.2311207056045532,
          "6": -2.0845184326171875,
          "7": 0.13910552859306335,
          "8": -0.5186372995376587,
          "9": 0.13225853443145752,
          "10": -0.01752288267016411,
          "11": -0.45188355445861816,
          "12": 0.4407234787940979,
          "13": 5.688862323760986,
          "14": -0.0013341159792616963,
          "15": -2.222656726837158,
          "16": -0.130930557847023
        }
      },
      "horse8-position": {
        "bias": -2.0584211349487305,
        "weights": {
          "0": 0.1050335168838501,
          "1": -0.3615356683731079,
          "2": -1.838416576385498,
          "3": -0.25076374411582947,
          "4": -2.130462169647217,
          "5": -2.3979785442352295,
          "6": -1.4821017980575562,
          "7": -3.076068639755249,
          "8": 0.1880994290113449,
          "9": -0.2355707287788391,
          "10": 0.00887750182300806,
          "11": -0.5586054921150208,
          "12": -0.20014533400535583,
          "13": 4.478121757507324,
          "14": -0.5106960535049438,
          "15": -1.7640328407287598,
          "16": 0.8230528831481934
        }
      },
      "horse9-position": {
        "bias": -2.148775577545166,
        "weights": {
          "0": -1.170057773590088,
          "1": -0.8363785147666931,
          "2": -1.8673373460769653,
          "3": 0.46054139733314514,
          "4": -2.736015796661377,
          "5": -1.643850564956665,
          "6": -2.0265955924987793,
          "7": 1.6041165590286255,
          "8": 0.6106976270675659,
          "9": 0.20879416167736053,
          "10": -0.46528390049934387,
          "11": -1.303770661354065,
          "12": -1.0248665809631348,
          "13": 3.00885009765625,
          "14": 0.006206384859979153,
          "15": -1.5777209997177124,
          "16": 2.9195899963378906
        }
      },
      "horse10-position": {
        "bias": -1.4920481443405151,
        "weights": {
          "0": 0.3356129229068756,
          "1": 0.2991306185722351,
          "2": -1.4986822605133057,
          "3": -0.05966544151306152,
          "4": -1.6885814666748047,
          "5": -1.1397130489349365,
          "6": -1.1821800470352173,
          "7": -0.04914180934429169,
          "8": 0.03532640263438225,
          "9": -0.3650193512439728,
          "10": -0.6094616651535034,
          "11": 0.028604093939065933,
          "12": 0.8396795988082886,
          "13": 1.8134315013885498,
          "14": -0.7320184707641602,
          "15": -5.52345085144043,
          "16": 5.471128463745117
        }
      },
      "horse11-position": {
        "bias": -2.05460262298584,
        "weights": {
          "0": -0.6324681043624878,
          "1": -0.4438372850418091,
          "2": -2.481074571609497,
          "3": -0.7446805238723755,
          "4": -2.648550510406494,
          "5": -1.9070537090301514,
          "6": -1.1652562618255615,
          "7": -2.8078746795654297,
          "8": -0.09798584878444672,
          "9": 0.3751911520957947,
          "10": 0.4890158772468567,
          "11": 0.633643388748169,
          "12": 0.4326879680156708,
          "13": 1.3620474338531494,
          "14": -0.1744077503681183,
          "15": -2.223423480987549,
          "16": 5.561443328857422
        }
      },
      "horse12-position": {
        "bias": -2.0661470890045166,
        "weights": {
          "0": 0.050298456102609634,
          "1": -0.7181898951530457,
          "2": -2.425276041030884,
          "3": -0.023246977478265762,
          "4": -2.5815749168395996,
          "5": -0.6856780648231506,
          "6": -1.1527174711227417,
          "7": -2.9042694568634033,
          "8": -0.28631791472435,
          "9": -1.0487114191055298,
          "10": -0.6522722840309143,
          "11": -0.07894820719957352,
          "12": 0.26453402638435364,
          "13": 1.154543399810791,
          "14": 0.6355984807014465,
          "15": -2.266268730163574,
          "16": 5.024074554443359
        }
      },
      "horse13-position": {
        "bias": -2.5787088871002197,
        "weights": {
          "0": 0.7655353546142578,
          "1": -1.2576398849487305,
          "2": -2.4826056957244873,
          "3": -0.21295087039470673,
          "4": -2.5271553993225098,
          "5": -0.5202723741531372,
          "6": -1.7712574005126953,
          "7": -2.7104883193969727,
          "8": -0.7516918182373047,
          "9": -0.6481319665908813,
          "10": -0.5528451204299927,
          "11": -0.36071091890335083,
          "12": 0.875525951385498,
          "13": 1.1728466749191284,
          "14": 0.8743199706077576,
          "15": -2.4568772315979004,
          "16": 4.756227493286133
        }
      },
      "horse14-position": {
        "bias": -1.9367440938949585,
        "weights": {
          "0": -0.4214509129524231,
          "1": -1.4438412189483643,
          "2": -2.2549455165863037,
          "3": -0.6040171980857849,
          "4": -2.0394420623779297,
          "5": -0.5099469423294067,
          "6": -0.832568347454071,
          "7": -1.3194082975387573,
          "8": -0.16770483553409576,
          "9": -0.513147234916687,
          "10": -0.5296868681907654,
          "11": -0.5706738829612732,
          "12": -0.864861011505127,
          "13": 0.3857528865337372,
          "14": 0.13458485901355743,
          "15": -2.121791362762451,
          "16": 4.433111190795898
        }
      },
      "horse15-position": {
        "bias": -1.9531097412109375,
        "weights": {
          "0": -1.9381717443466187,
          "1": 0.203388512134552,
          "2": -2.082329511642456,
          "3": -0.4898577034473419,
          "4": -2.017639636993408,
          "5": -0.14813320338726044,
          "6": -0.8022205233573914,
          "7": -0.4561793804168701,
          "8": -2.0420584678649902,
          "9": -0.4236595928668976,
          "10": -0.5216066241264343,
          "11": -0.5371935963630676,
          "12": -1.0365852117538452,
          "13": 0.2747724950313568,
          "14": -0.891426682472229,
          "15": -2.0231244564056396,
          "16": 3.888644218444824
        }
      },
      "horse16-position": {
        "bias": -2.373387575149536,
        "weights": {
          "0": 0.3026033341884613,
          "1": -4.248744010925293,
          "2": -2.325228214263916,
          "3": 0.3962729275226593,
          "4": -2.0461068153381348,
          "5": -0.16511671245098114,
          "6": -0.90147864818573,
          "7": -1.1005223989486694,
          "8": -2.0576260089874268,
          "9": -0.56669020652771,
          "10": -2.0137810707092285,
          "11": -0.6073065400123596,
          "12": 1.5289865732192993,
          "13": 0.3117770552635193,
          "14": -1.5453273057937622,
          "15": -2.460329055786133,
          "16": 3.4643168449401855
        }
      },
      "horse17-position": {
        "bias": -1.8995141983032227,
        "weights": {
          "0": -2.4363508224487305,
          "1": -0.20813213288784027,
          "2": -1.991851806640625,
          "3": -0.4977876842021942,
          "4": -1.9523324966430664,
          "5": -0.20066803693771362,
          "6": -0.9333436489105225,
          "7": -1.0569721460342407,
          "8": -2.642503261566162,
          "9": -0.26829102635383606,
          "10": -0.5089491605758667,
          "11": -0.5500412583351135,
          "12": -0.8360456824302673,
          "13": 0.14241810142993927,
          "14": -1.9746736288070679,
          "15": -1.9917950630187988,
          "16": 3.45334529876709
        }
      },
      "horse18-position": {
        "bias": -2.1061904430389404,
        "weights": {
          "0": -2.674776077270508,
          "1": -2.921229362487793,
          "2": -2.1058223247528076,
          "3": 0.315694659948349,
          "4": -2.016561985015869,
          "5": -0.10903481394052505,
          "6": -0.7720896601676941,
          "7": -0.92598956823349,
          "8": -2.8037400245666504,
          "9": -0.4001426696777344,
          "10": 0.0960390567779541,
          "11": -0.4605080187320709,
          "12": 0.44268104434013367,
          "13": -0.05399518832564354,
          "14": 0.04547590762376785,
          "15": -2.105879783630371,
          "16": 3.3636953830718994
        }
      },
      "horse19-position": {
        "bias": -2.1275572776794434,
        "weights": {
          "0": -1.474224328994751,
          "1": -2.5196340084075928,
          "2": -2.0665485858917236,
          "3": -2.4056389331817627,
          "4": -2.023024082183838,
          "5": -0.22179394960403442,
          "6": -0.8362160921096802,
          "7": -1.266847014427185,
          "8": -2.6608572006225586,
          "9": -0.475313663482666,
          "10": -2.056492805480957,
          "11": -0.7024247646331787,
          "12": 1.2786442041397095,
          "13": -0.024410193786025047,
          "14": -1.6367591619491577,
          "15": -2.077934980392456,
          "16": 2.7766916751861572
        }
      },
      "horse20-position": {
        "bias": -1.9980432987213135,
        "weights": {
          "0": -1.6506712436676025,
          "1": 1.7812762260437012,
          "2": -1.9596502780914307,
          "3": -2.093705177307129,
          "4": -1.6108026504516602,
          "5": -0.24542136490345,
          "6": -0.6577131152153015,
          "7": -1.3617726564407349,
          "8": -1.8901680707931519,
          "9": -0.15945900976657867,
          "10": -2.058734655380249,
          "11": -0.5459113717079163,
          "12": -1.8767752647399902,
          "13": -0.1392638236284256,
          "14": -1.343072772026062,
          "15": -1.997340440750122,
          "16": 1.976986050605774
        }
      },
      "horse21-position": {
        "bias": -2.9919676780700684,
        "weights": {
          "0": -2.3940653800964355,
          "1": 2.6078264713287354,
          "2": -3.1107020378112793,
          "3": 3.0145254135131836,
          "4": -2.700627326965332,
          "5": 0.07888809591531754,
          "6": -1.0062543153762817,
          "7": -1.3569868803024292,
          "8": 2.315394878387451,
          "9": -0.26870274543762207,
          "10": -2.7525346279144287,
          "11": -0.711077868938446,
          "12": -3.384300947189331,
          "13": -1.7023420333862305,
          "14": -2.154355049133301,
          "15": -3.0025649070739746,
          "16": 2.495373010635376
        }
      },
      "horse22-position": {
        "bias": -1.9290952682495117,
        "weights": {
          "0": -0.37887880206108093,
          "1": -0.9711158275604248,
          "2": -1.8705815076828003,
          "3": -0.49822816252708435,
          "4": -1.7331541776657104,
          "5": -0.21640849113464355,
          "6": -0.8645393252372742,
          "7": -1.2932827472686768,
          "8": -0.4111641049385071,
          "9": -0.4949081540107727,
          "10": -0.42878609895706177,
          "11": -0.6042224168777466,
          "12": 0.09229256957769394,
          "13": -0.4439006447792053,
          "14": -0.6026078462600708,
          "15": -1.7339431047439575,
          "16": -0.3009812831878662
        }
      },
      "horse23-position": {
        "bias": -2.031493902206421,
        "weights": {
          "0": -0.43450334668159485,
          "1": -0.781865656375885,
          "2": -1.9652873277664185,
          "3": -0.9058809280395508,
          "4": -1.75919771194458,
          "5": -0.1037762239575386,
          "6": -0.8908769488334656,
          "7": -1.17327082157135,
          "8": -0.37620338797569275,
          "9": -0.2633638083934784,
          "10": -0.4546157121658325,
          "11": -0.5020251274108887,
          "12": -0.4527600109577179,
          "13": -0.8658984899520874,
          "14": -0.8053872585296631,
          "15": -2,
          "16": -0.6936514973640442
        }
      },
      "horse24-position": {
        "bias": -2.000788688659668,
        "weights": {
          "0": -0.35574135184288025,
          "1": -0.823049008846283,
          "2": -2,
          "3": -0.9726020693778992,
          "4": -1.720951795578003,
          "5": 0.005115277133882046,
          "6": -0.9659789204597473,
          "7": -1.4490106105804443,
          "8": -0.3378371000289917,
          "9": -0.32799485325813293,
          "10": -0.3706852197647095,
          "11": -0.6294865012168884,
          "12": -0.35618141293525696,
          "13": -0.8093020915985107,
          "14": -0.5885440707206726,
          "15": -2.0149927139282227,
          "16": -0.833773136138916
        }
      },
      "horse25-position": {
        "bias": -2.000516891479492,
        "weights": {
          "0": -0.2146320343017578,
          "1": -0.8442744612693787,
          "2": -2,
          "3": -0.7785562872886658,
          "4": -1.8422619104385376,
          "5": 0.05142591893672943,
          "6": -1.0769503116607666,
          "7": -1.1878535747528076,
          "8": -0.4583077132701874,
          "9": -0.4572480618953705,
          "10": -0.42895403504371643,
          "11": -0.7661795020103455,
          "12": -0.3548106551170349,
          "13": -0.9461836814880371,
          "14": -0.6394628286361694,
          "15": -1.922358512878418,
          "16": -0.6360769271850586
        }
      },
      "horse26-position": {
        "bias": -1.937353253364563,
        "weights": {
          "0": -0.17827832698822021,
          "1": -0.9773253202438354,
          "2": -2.129824638366699,
          "3": -0.8733251690864563,
          "4": -1.678732991218567,
          "5": 0.05863381177186966,
          "6": -0.7880315184593201,
          "7": -1.256265640258789,
          "8": -0.35007432103157043,
          "9": -0.4690602123737335,
          "10": -0.4631122350692749,
          "11": -0.546272873878479,
          "12": -0.5096617937088013,
          "13": -0.9117048978805542,
          "14": -0.6378619074821472,
          "15": -2,
          "16": -0.6911148428916931
        }
      },
      "horse27-position": {
        "bias": -2.0010218620300293,
        "weights": {
          "0": -0.25259849429130554,
          "1": -1.0377646684646606,
          "2": -2.0000221729278564,
          "3": -0.8792531490325928,
          "4": -1.7342519760131836,
          "5": 0.055385660380125046,
          "6": -0.8433362245559692,
          "7": -1.24897301197052,
          "8": -0.5712539553642273,
          "9": -0.2856791317462921,
          "10": -0.5,
          "11": -0.5661436915397644,
          "12": -0.3548446297645569,
          "13": -0.8141019344329834,
          "14": -0.659235954284668,
          "15": -2.0009639263153076,
          "16": -0.7878963351249695
        }
      },
      "horse28-position": {
        "bias": -1.9009679555892944,
        "weights": {
          "0": -0.359291136264801,
          "1": -0.9304072856903076,
          "2": -2.0000247955322266,
          "3": -1.0579942464828491,
          "4": -1.8375517129898071,
          "5": -0.24918466806411743,
          "6": -0.9949913620948792,
          "7": -1.2011375427246094,
          "8": -0.5181838274002075,
          "9": -0.22943516075611115,
          "10": -0.3761773705482483,
          "11": -0.5215191841125488,
          "12": -0.46732208132743835,
          "13": -0.9854532480239868,
          "14": -0.6945234537124634,
          "15": -2.0006861686706543,
          "16": -0.6688680052757263
        }
      },
      "horse29-position": {
        "bias": -1.867685317993164,
        "weights": {
          "0": -0.25619837641716003,
          "1": -1.062637209892273,
          "2": -2.000025510787964,
          "3": -0.9772161841392517,
          "4": -1.7521605491638184,
          "5": 0.061448294669389725,
          "6": -0.7859429121017456,
          "7": -1.179396629333496,
          "8": -0.43696874380111694,
          "9": -0.3477746546268463,
          "10": -0.4482407569885254,
          "11": -0.7095807194709778,
          "12": -0.37654733657836914,
          "13": -0.9175670742988586,
          "14": -0.6652124524116516,
          "15": -2.119074821472168,
          "16": -0.6879433393478394
        }
      },
      "horse30-position": {
        "bias": -1.9743860960006714,
        "weights": {
          "0": -0.22076521813869476,
          "1": -1.0663032531738281,
          "2": -2.0000247955322266,
          "3": -0.9096310138702393,
          "4": -1.662436842918396,
          "5": -0.01180248986929655,
          "6": -0.7427974939346313,
          "7": -1.265821099281311,
          "8": -0.3336818814277649,
          "9": -0.2445250153541565,
          "10": -0.387084424495697,
          "11": -0.8488636612892151,
          "12": -0.35829460620880127,
          "13": -0.9251930713653564,
          "14": -0.6482771635055542,
          "15": -2.1049318313598633,
          "16": -0.5975658297538757
        }
      },
      "horse31-position": {
        "bias": -1.9089223146438599,
        "weights": {
          "0": -0.2947404384613037,
          "1": -0.9441371560096741,
          "2": -2.0006866455078125,
          "3": -0.7081103324890137,
          "4": -1.8279519081115723,
          "5": -0.18201185762882233,
          "6": -0.7689602971076965,
          "7": -1.1183547973632812,
          "8": -0.4314499795436859,
          "9": -0.14239266514778137,
          "10": -0.5225017666816711,
          "11": -0.560722827911377,
          "12": -0.38132792711257935,
          "13": -0.9479950070381165,
          "14": -0.7792246341705322,
          "15": -2.0027756690979004,
          "16": -0.5223658680915833
        }
      },
      "horse32-position": {
        "bias": -1.9226927757263184,
        "weights": {
          "0": -0.2934006154537201,
          "1": -0.931540310382843,
          "2": -2.0127010345458984,
          "3": -0.6749321818351746,
          "4": -1.805440902709961,
          "5": -0.01934313401579857,
          "6": -0.8872838616371155,
          "7": -1.2113407850265503,
          "8": -0.41911581158638,
          "9": -0.4178171157836914,
          "10": -0.4800684154033661,
          "11": -0.619182825088501,
          "12": -0.31778484582901,
          "13": -0.8713361024856567,
          "14": -0.574103593826294,
          "15": -2.001757860183716,
          "16": -0.6737663149833679
        }
      },
      "horse33-position": {
        "bias": -2,
        "weights": {
          "0": -0.38632732629776,
          "1": -0.9605774879455566,
          "2": -2.119466543197632,
          "3": -0.8619213700294495,
          "4": -1.661672830581665,
          "5": -0.07255373895168304,
          "6": -0.9178454875946045,
          "7": -1.299695372581482,
          "8": -0.49716007709503174,
          "9": -0.49730777740478516,
          "10": -0.4722019135951996,
          "11": -0.7537215948104858,
          "12": -0.3823468089103699,
          "13": -0.8846482038497925,
          "14": -0.6885404586791992,
          "15": -1.9756708145141602,
          "16": -0.6272004246711731
        }
      },
      "horse34-position": {
        "bias": -1.903091311454773,
        "weights": {
          "0": -0.15708576142787933,
          "1": -0.8006693720817566,
          "2": -2.0000193119049072,
          "3": -0.92620849609375,
          "4": -1.8384779691696167,
          "5": -0.13576869666576385,
          "6": -0.8637620806694031,
          "7": -1.1586979627609253,
          "8": -0.46496278047561646,
          "9": -0.2740219235420227,
          "10": -0.37387755513191223,
          "11": -0.6536098718643188,
          "12": -0.38841512799263,
          "13": -0.9278671741485596,
          "14": -0.5994780659675598,
          "15": -2.0007290840148926,
          "16": -0.7303322553634644
        }
      },
      "horse35-position": {
        "bias": -2,
        "weights": {
          "0": -0.23062890768051147,
          "1": -0.8692581057548523,
          "2": -2.0115325450897217,
          "3": -0.9863446950912476,
          "4": -1.7598048448562622,
          "5": -0.23586001992225647,
          "6": -0.9637137055397034,
          "7": -1.1536693572998047,
          "8": -0.34927597641944885,
          "9": -0.48248550295829773,
          "10": -0.39915165305137634,
          "11": -0.4530101716518402,
          "12": -0.34578806161880493,
          "13": -0.8643620014190674,
          "14": -0.570209801197052,
          "15": -1.9884922504425049,
          "16": -0.7801569700241089
        }
      }
    }
  ],
  "outputLookup": true,
  "inputLookup": true,
  "activation": "sigmoid",
  "trainOpts": {
    "iterations": 20000,
    "errorThresh": 0.005,
    "log": true,
    "logPeriod": 10,
    "learningRate": 0.3,
    "momentum": 0.1,
    "callbackPeriod": 10,
    "beta1": 0.9,
    "beta2": 0.999,
    "epsilon": 1e-8
  }
}