{
  "type": "LSTM",
  "options": {
    "inputSize": 41,
    "inputRange": 41,
    "hiddenLayers": [
      20,
      20
    ],
    "outputSize": 41,
    "learningRate": 0.01,
    "decayRate": 0.999,
    "smoothEps": 1e-8,
    "regc": 0.000001,
    "clipval": 5,
    "maxPredictionLength": 100,
    "dataFormatter": {
      "values": [
        "Am I wrong?",
        "Are you eating regularly?",
        "Call me a lawyer.",
        "He will be writing a book.",
        "I am about to leave.",
        "I am here.",
        "I am running.",
        "I cannot help you",
        "I had been to London.",
        "I had been to that place.",
        "I shall bring the laptop.",
        "I shall leave.",
        "I should not have left.",
        "I was selfish.",
        "I will not cry.",
        "I will write a book.",
        "It was the best day.",
        "Let me in.",
        "Obey the rules.",
        "Please stop screaming.",
        "Right this way.",
        "They will have written the book.",
        "We had money.",
        "We will rock you.",
        "What was I thinking?",
        "What were you saying?",
        "Will Smith was late.",
        "Will you go out?",
        "You were so young!",
        "You will find happiness",
        "future",
        "past",
        "present"
      ],
      "indexTable": {
        "A": 0,
        "m": 1,
        " ": 2,
        "I": 3,
        "w": 4,
        "r": 5,
        "o": 6,
        "n": 7,
        "g": 8,
        "?": 9,
        "e": 10,
        "y": 11,
        "u": 12,
        "a": 13,
        "t": 14,
        "i": 15,
        "l": 16,
        "C": 17,
        ".": 18,
        "H": 19,
        "b": 20,
        "k": 21,
        "v": 22,
        "h": 23,
        "c": 24,
        "p": 25,
        "d": 26,
        "L": 27,
        "s": 28,
        "f": 29,
        "O": 30,
        "P": 31,
        "R": 32,
        "T": 33,
        "W": 34,
        "S": 35,
        "Y": 36,
        "!": 37,
        "stop-input": 38,
        "start-output": 39,
        "unrecognized": 40
      },
      "characterTable": {
        "0": "A",
        "1": "m",
        "2": " ",
        "3": "I",
        "4": "w",
        "5": "r",
        "6": "o",
        "7": "n",
        "8": "g",
        "9": "?",
        "10": "e",
        "11": "y",
        "12": "u",
        "13": "a",
        "14": "t",
        "15": "i",
        "16": "l",
        "17": "C",
        "18": ".",
        "19": "H",
        "20": "b",
        "21": "k",
        "22": "v",
        "23": "h",
        "24": "c",
        "25": "p",
        "26": "d",
        "27": "L",
        "28": "s",
        "29": "f",
        "30": "O",
        "31": "P",
        "32": "R",
        "33": "T",
        "34": "W",
        "35": "S",
        "36": "Y",
        "37": "!",
        "38": null,
        "39": null,
        "40": null
      },
      "characters": [
        "A",
        "m",
        " ",
        "I",
        "w",
        "r",
        "o",
        "n",
        "g",
        "?",
        "e",
        "y",
        "u",
        "a",
        "t",
        "i",
        "l",
        "C",
        ".",
        "H",
        "b",
        "k",
        "v",
        "h",
        "c",
        "p",
        "d",
        "L",
        "s",
        "f",
        "O",
        "P",
        "R",
        "T",
        "W",
        "S",
        "Y",
        "!",
        "stop-input",
        "start-output",
        "unrecognized"
      ],
      "specialIndexes": [
        38,
        39,
        40
      ]
    }
  },
  "input": {
    "rows": 42,
    "columns": 41,
    "weights": {
      "0": -2.9924302101135254,
      "1": 0.6549142599105835,
      "2": 1.3827829360961914,
      "3": -1.6232802867889404,
      "4": -0.43250560760498047,
      "5": -0.5389312505722046,
      "6": -0.4601915180683136,
      "7": -0.658059298992157,
      "8": -1.8039159774780273,
      "9": -0.5499815344810486,
      "10": -1.4877700805664062,
      "11": -1.294759750366211,
      "12": -0.5317245721817017,
      "13": 0.9178757667541504,
      "14": 1.5637887716293335,
      "15": 0.38361233472824097,
      "16": 0.9724356532096863,
      "17": -2.186224937438965,
      "18": 0.20487135648727417,
      "19": -3.7339463233947754,
      "20": -1.6439803838729858,
      "21": -3.760571002960205,
      "22": -0.3541625738143921,
      "23": -0.8823354244232178,
      "24": 0.3692625164985657,
      "25": 2.7983429431915283,
      "26": 0.5441402792930603,
      "27": 2.068030834197998,
      "28": -1.2226485013961792,
      "29": 1.0997164249420166,
      "30": 1.917212724685669,
      "31": -0.884881317615509,
      "32": -1.0814728736877441,
      "33": -0.07014013081789017,
      "34": -0.8267958760261536,
      "35": 1.4517877101898193,
      "36": 0.4907835125923157,
      "37": 1.0948553085327148,
      "38": -0.0693330317735672,
      "39": 0.08209040015935898,
      "40": 0.42780181765556335,
      "41": 1.3054155111312866,
      "42": -0.09089549630880356,
      "43": 0.39588063955307007,
      "44": -0.6309723258018494,
      "45": -1.8455770015716553,
      "46": -7.013392925262451,
      "47": -2.4163084030151367,
      "48": -7.852189540863037,
      "49": -3.4024622440338135,
      "50": 1.6006296873092651,
      "51": 3.1175506114959717,
      "52": 2.508124828338623,
      "53": -7.810417175292969,
      "54": 0.6987382769584656,
      "55": -8.821630477905273,
      "56": 2.245272159576416,
      "57": -3.036928653717041,
      "58": 0.006157738622277975,
      "59": 1.5691477060317993,
      "60": -0.10981055349111557,
      "61": -0.03562823683023453,
      "62": -5.009011268615723,
      "63": 1.5917507410049438,
      "64": 7.035688877105713,
      "65": 7.524811267852783,
      "66": -3.495249032974243,
      "67": 7.554754734039307,
      "68": 5.9561333656311035,
      "69": 3.9850213527679443,
      "70": -7.810064792633057,
      "71": -2.4976110458374023,
      "72": 2.1885483264923096,
      "73": 2.7539443969726562,
      "74": -6.760756492614746,
      "75": -10.029251098632812,
      "76": -2.76562237739563,
      "77": 3.0710649490356445,
      "78": -2.397348642349243,
      "79": -0.33488479256629944,
      "80": 4.884888172149658,
      "81": 0.9699538350105286,
      "82": -0.7433281540870667,
      "83": 1.6086171865463257,
      "84": 3.1948657035827637,
      "85": 0.8981547951698303,
      "86": -2.055161237716675,
      "87": 9.757678031921387,
      "88": 2.2685158252716064,
      "89": 1.7623319625854492,
      "90": -1.4511407613754272,
      "91": -1.191178560256958,
      "92": -5.875757694244385,
      "93": -5.319957733154297,
      "94": 2.7832484245300293,
      "95": 2.0765974521636963,
      "96": 4.115697860717773,
      "97": -1.3021844625473022,
      "98": 5.089554786682129,
      "99": -1.4118043184280396,
      "100": -5.240394115447998,
      "101": -2.510296583175659,
      "102": -1.143497347831726,
      "103": 2.974783420562744,
      "104": -0.8702476620674133,
      "105": -6.350366592407227,
      "106": 0.05755644664168358,
      "107": 7.067998886108398,
      "108": -1.3498377799987793,
      "109": -1.30838942527771,
      "110": 2.378624439239502,
      "111": 4.265748977661133,
      "112": 1.8040008544921875,
      "113": -0.21466507017612457,
      "114": 0.29307126998901367,
      "115": 2.4268453121185303,
      "116": 4.051833152770996,
      "117": -0.7849013805389404,
      "118": -2.666656494140625,
      "119": 5.202720642089844,
      "120": 1.5009222030639648,
      "121": -3.513648509979248,
      "122": 0.7268874049186707,
      "123": -1.9930126667022705,
      "124": 2.572190284729004,
      "125": 0.07552433013916016,
      "126": -2.3807764053344727,
      "127": -0.2932634651660919,
      "128": -1.137515902519226,
      "129": 0.14906208217144012,
      "130": 0.05144348368048668,
      "131": -1.5977931022644043,
      "132": -2.8325061798095703,
      "133": 0.1311568021774292,
      "134": 1.0251609086990356,
      "135": -0.187721848487854,
      "136": 2.196553945541382,
      "137": -0.09771270304918289,
      "138": -1.2123157978057861,
      "139": 1.1949119567871094,
      "140": -0.6003965735435486,
      "141": 0.4418773651123047,
      "142": -1.4003039598464966,
      "143": 0.6355570554733276,
      "144": -1.8095241785049438,
      "145": -0.2515639662742615,
      "146": 0.1995396912097931,
      "147": 0.6747801899909973,
      "148": -0.3486577868461609,
      "149": 3.2637875080108643,
      "150": 0.6008625030517578,
      "151": 0.1952923685312271,
      "152": -0.34658876061439514,
      "153": -0.6244655251502991,
      "154": 1.4431830644607544,
      "155": -0.6025088429450989,
      "156": -0.5528396964073181,
      "157": -0.8496162295341492,
      "158": 0.6315391659736633,
      "159": 0.4785449504852295,
      "160": 1.519039511680603,
      "161": -0.6922455430030823,
      "162": 3.7651970386505127,
      "163": -0.1895214319229126,
      "164": 0.34723907709121704,
      "165": -0.31854522228240967,
      "166": 2.0335469245910645,
      "167": -0.20720919966697693,
      "168": 0.42202022671699524,
      "169": 2.293625593185425,
      "170": 0.15236516296863556,
      "171": -4.030875205993652,
      "172": 1.3995252847671509,
      "173": 1.2679824829101562,
      "174": 0.9816076159477234,
      "175": -0.6491584181785583,
      "176": -1.9007749557495117,
      "177": -4.756845951080322,
      "178": 2.455528497695923,
      "179": 0.24259048700332642,
      "180": -0.4292643368244171,
      "181": 7.044513702392578,
      "182": -3.113211154937744,
      "183": -2.770430564880371,
      "184": -0.24150227010250092,
      "185": 0.6961712837219238,
      "186": -0.8973486423492432,
      "187": -3.113292694091797,
      "188": 1.1691495180130005,
      "189": -0.11528722941875458,
      "190": -3.8240652084350586,
      "191": -1.925440788269043,
      "192": 1.401602029800415,
      "193": -2.278071403503418,
      "194": -1.583082675933838,
      "195": 2.9764528274536133,
      "196": 2.7598042488098145,
      "197": 2.9862658977508545,
      "198": -0.28805971145629883,
      "199": -0.6580628156661987,
      "200": -2.001741409301758,
      "201": -4.442348957061768,
      "202": -0.18999800086021423,
      "203": 1.0335052013397217,
      "204": -2.968815565109253,
      "205": 1.1827325820922852,
      "206": 0.5278706550598145,
      "207": 1.218023657798767,
      "208": -1.1304593086242676,
      "209": 0.12199676781892776,
      "210": 2.260547161102295,
      "211": 1.1739122867584229,
      "212": -1.1091017723083496,
      "213": -2.4166953563690186,
      "214": -0.8457688093185425,
      "215": 1.8236377239227295,
      "216": 0.20783965289592743,
      "217": 0.3028525412082672,
      "218": 3.7009263038635254,
      "219": -0.283219575881958,
      "220": 3.3740408420562744,
      "221": 2.4485137462615967,
      "222": 0.7699218988418579,
      "223": -3.493197202682495,
      "224": 2.0486512184143066,
      "225": -1.178871750831604,
      "226": -0.1014823392033577,
      "227": 0.5969573855400085,
      "228": -3.2476730346679688,
      "229": -0.7150603532791138,
      "230": -1.3294649124145508,
      "231": -5.865448951721191,
      "232": -1.844455599784851,
      "233": -4.14255428314209,
      "234": 4.188327789306641,
      "235": 3.522494077682495,
      "236": -1.1580157279968262,
      "237": 1.3662513494491577,
      "238": 2.8583123683929443,
      "239": 0.6435856223106384,
      "240": -1.5498641729354858,
      "241": -1.0046826601028442,
      "242": -2.823821783065796,
      "243": 0.8655819892883301,
      "244": -0.4097040593624115,
      "245": -2.4180078506469727,
      "246": 2.0962860584259033,
      "247": -1.174031138420105,
      "248": 2.637183427810669,
      "249": -2.1603283882141113,
      "250": -0.49125874042510986,
      "251": 3.7345919609069824,
      "252": -0.3538486659526825,
      "253": -0.6113967895507812,
      "254": 1.7580678462982178,
      "255": 0.01771111600100994,
      "256": 1.998528003692627,
      "257": 1.130937933921814,
      "258": 2.0303170680999756,
      "259": -4.835498809814453,
      "260": 2.5434041023254395,
      "261": 0.6178746819496155,
      "262": -3.3094475269317627,
      "263": 6.249405384063721,
      "264": 0.11889510601758957,
      "265": -1.359720230102539,
      "266": 2.877592086791992,
      "267": 0.9797422885894775,
      "268": -0.36461910605430603,
      "269": -4.146162986755371,
      "270": -0.8929750323295593,
      "271": 1.3373692035675049,
      "272": -3.658463478088379,
      "273": 0.05225895345211029,
      "274": -0.10937649756669998,
      "275": -2.7049896717071533,
      "276": -1.5245281457901,
      "277": 1.591063380241394,
      "278": 2.573380708694458,
      "279": 3.486879348754883,
      "280": 0.6904844641685486,
      "281": -3.148242235183716,
      "282": -1.3829116821289062,
      "283": -2.1643669605255127,
      "284": -2.9867775440216064,
      "285": -0.8185756802558899,
      "286": -3.753377676010132,
      "287": -0.9705101847648621,
      "288": -6.2134294509887695,
      "289": -1.8365951776504517,
      "290": 0.5579969882965088,
      "291": -0.6121393442153931,
      "292": 0.5006007552146912,
      "293": 0.6093103885650635,
      "294": -1.814706802368164,
      "295": -0.09837234020233154,
      "296": 2.743919610977173,
      "297": 2.739802122116089,
      "298": 3.0176403522491455,
      "299": -1.8529216051101685,
      "300": -2.332625150680542,
      "301": 0.12192197144031525,
      "302": -2.1636698246002197,
      "303": -0.45495015382766724,
      "304": 1.5377413034439087,
      "305": -0.8849241137504578,
      "306": 1.2147243022918701,
      "307": 0.11236198991537094,
      "308": 2.2583985328674316,
      "309": -8.015024185180664,
      "310": 0.5257129669189453,
      "311": 0.16888149082660675,
      "312": -2.01570987701416,
      "313": 0.17500798404216766,
      "314": -0.8314960598945618,
      "315": 0.7680955529212952,
      "316": 0.07144185155630112,
      "317": -3.0759856700897217,
      "318": -0.6593964099884033,
      "319": 2.19638991355896,
      "320": -1.7614350318908691,
      "321": -1.5294742584228516,
      "322": -1.1621986627578735,
      "323": -0.07457160949707031,
      "324": -4.074110984802246,
      "325": 0.6888236999511719,
      "326": -2.0445470809936523,
      "327": -1.178174614906311,
      "328": -5.747226715087891,
      "329": 0.12561190128326416,
      "330": -1.5909987688064575,
      "331": -1.6041423082351685,
      "332": -2.001347541809082,
      "333": -1.0796908140182495,
      "334": 2.4824492931365967,
      "335": -3.583791971206665,
      "336": -4.991695880889893,
      "337": -1.6420485973358154,
      "338": 3.1965253353118896,
      "339": 3.717424154281616,
      "340": -0.6531603336334229,
      "341": 0.13770025968551636,
      "342": 0.19837842881679535,
      "343": -0.5170281529426575,
      "344": 2.928723096847534,
      "345": 2.392758369445801,
      "346": 1.0670397281646729,
      "347": 1.2099498510360718,
      "348": 2.009854316711426,
      "349": -1.4536508321762085,
      "350": -2.4596168994903564,
      "351": 0.13025225698947906,
      "352": 0.6978540420532227,
      "353": -1.7267498970031738,
      "354": 1.01629638671875,
      "355": -3.6639537811279297,
      "356": 1.6847728490829468,
      "357": 2.4972891807556152,
      "358": -2.237506866455078,
      "359": -0.14203064143657684,
      "360": 3.7438483238220215,
      "361": -0.20117394626140594,
      "362": -1.1477149724960327,
      "363": -1.7106062173843384,
      "364": 0.9505428075790405,
      "365": -2.745276689529419,
      "366": -1.6601659059524536,
      "367": 1.7375588417053223,
      "368": -3.4137918949127197,
      "369": -2.8236591815948486,
      "370": 1.6572654247283936,
      "371": 0.24233204126358032,
      "372": -0.8328174948692322,
      "373": -3.841799020767212,
      "374": 3.0460121631622314,
      "375": -2.430518865585327,
      "376": 0.6858289837837219,
      "377": -0.2816656827926636,
      "378": 0.5918200612068176,
      "379": -5.995811462402344,
      "380": -0.14890390634536743,
      "381": 1.982437252998352,
      "382": 3.0725622177124023,
      "383": 2.936556100845337,
      "384": 2.520082712173462,
      "385": 4.530855178833008,
      "386": -2.3419501781463623,
      "387": -4.309060573577881,
      "388": -3.0929956436157227,
      "389": -3.8982503414154053,
      "390": -2.5230588912963867,
      "391": -2.871058940887451,
      "392": -2.0012874603271484,
      "393": 3.3712034225463867,
      "394": 6.93187141418457,
      "395": 3.7996344566345215,
      "396": 2.6153390407562256,
      "397": 0.21331173181533813,
      "398": 1.5489885807037354,
      "399": -1.3335990905761719,
      "400": -4.014897346496582,
      "401": -1.8523701429367065,
      "402": -4.049036979675293,
      "403": 4.5486321449279785,
      "404": 1.8184415102005005,
      "405": -0.1647944450378418,
      "406": 2.6044986248016357,
      "407": 2.786846876144409,
      "408": -1.4518907070159912,
      "409": 4.264699459075928,
      "410": -0.10093191266059875,
      "411": -2.5120737552642822,
      "412": -6.503645896911621,
      "413": 11.801033973693848,
      "414": -0.471554696559906,
      "415": 2.7953989505767822,
      "416": -1.2716494798660278,
      "417": -5.167468547821045,
      "418": 4.654256343841553,
      "419": 0.9326018691062927,
      "420": -1.9873842000961304,
      "421": 5.751562595367432,
      "422": 1.4967519044876099,
      "423": -5.593454360961914,
      "424": 2.5710244178771973,
      "425": 7.118722915649414,
      "426": -3.2358343601226807,
      "427": 5.372495174407959,
      "428": -0.653404951095581,
      "429": -1.6081619262695312,
      "430": -0.6602760553359985,
      "431": 6.924950122833252,
      "432": -6.131548881530762,
      "433": -7.3892645835876465,
      "434": 0.061086975038051605,
      "435": 4.82243013381958,
      "436": 3.2231099605560303,
      "437": 3.3902194499969482,
      "438": 5.531579494476318,
      "439": -2.0988781452178955,
      "440": -10.64076042175293,
      "441": -0.8430112600326538,
      "442": -2.757611036300659,
      "443": -4.754411697387695,
      "444": 2.7564845085144043,
      "445": 5.215320110321045,
      "446": 4.603031635284424,
      "447": -2.164059638977051,
      "448": -0.2529900074005127,
      "449": -6.974670886993408,
      "450": 5.059642314910889,
      "451": 1.8905599117279053,
      "452": -0.7783365249633789,
      "453": -0.278583824634552,
      "454": 2.7082669734954834,
      "455": -0.21586973965168,
      "456": -0.6883328557014465,
      "457": -1.1344425678253174,
      "458": 2.0564796924591064,
      "459": 1.094125747680664,
      "460": 1.3088501691818237,
      "461": 0.19403274357318878,
      "462": -1.4888334274291992,
      "463": 0.4257974922657013,
      "464": 0.051258333027362823,
      "465": -3.043792486190796,
      "466": 1.4798423051834106,
      "467": -1.1241930723190308,
      "468": -1.299730896949768,
      "469": -0.5991911292076111,
      "470": 0.7915005087852478,
      "471": -2.9123599529266357,
      "472": 2.609179735183716,
      "473": -1.3523670434951782,
      "474": 1.0760196447372437,
      "475": 0.5094704627990723,
      "476": -1.2303663492202759,
      "477": -0.1000969260931015,
      "478": 0.2052273452281952,
      "479": 0.5410123467445374,
      "480": 0.36954352259635925,
      "481": -0.37147846817970276,
      "482": -2.163541793823242,
      "483": 1.019670009613037,
      "484": -1.7133558988571167,
      "485": 0.6560782194137573,
      "486": -1.234554648399353,
      "487": -0.2634071707725525,
      "488": -0.8823753595352173,
      "489": 1.2458466291427612,
      "490": -0.2545756995677948,
      "491": 1.4733576774597168,
      "492": -1.8387296199798584,
      "493": 8.623979568481445,
      "494": 0.11682533472776413,
      "495": 1.2428216934204102,
      "496": -2.411257743835449,
      "497": 1.6550092697143555,
      "498": -0.9480562210083008,
      "499": 1.0040322542190552,
      "500": -3.5048344135284424,
      "501": -4.719543933868408,
      "502": -3.412273406982422,
      "503": -2.1661524772644043,
      "504": 1.0923428535461426,
      "505": 3.1600422859191895,
      "506": 0.5322424173355103,
      "507": -1.6465044021606445,
      "508": 2.0698277950286865,
      "509": -0.17604100704193115,
      "510": -3.5159103870391846,
      "511": -2.378018379211426,
      "512": -1.4986151456832886,
      "513": -2.2716729640960693,
      "514": 6.410248279571533,
      "515": 0.6027016639709473,
      "516": 1.265384316444397,
      "517": 0.7469000220298767,
      "518": 3.85259747505188,
      "519": -2.58583402633667,
      "520": -0.7778337001800537,
      "521": -1.2993921041488647,
      "522": 0.6843298077583313,
      "523": 0.9750076532363892,
      "524": -1.7708553075790405,
      "525": -0.6469850540161133,
      "526": 2.835102081298828,
      "527": -0.4445241391658783,
      "528": -1.9430322647094727,
      "529": 2.0261318683624268,
      "530": 5.4559736251831055,
      "531": 1.1343401670455933,
      "532": 3.278428316116333,
      "533": -0.17717038094997406,
      "534": -0.25704121589660645,
      "535": -3.4861176013946533,
      "536": 0.6273659467697144,
      "537": 1.9161266088485718,
      "538": -0.3588658571243286,
      "539": 1.0676676034927368,
      "540": 3.1742758750915527,
      "541": 0.1977270543575287,
      "542": 0.8824408054351807,
      "543": 0.8869903087615967,
      "544": 2.6845643520355225,
      "545": -3.8627374172210693,
      "546": -1.3959288597106934,
      "547": -0.4458564519882202,
      "548": -3.68837833404541,
      "549": -0.7973294854164124,
      "550": 1.3148082494735718,
      "551": -2.46559739112854,
      "552": -0.37161871790885925,
      "553": 1.137789011001587,
      "554": 4.3087286949157715,
      "555": 0.5561227798461914,
      "556": 1.601226806640625,
      "557": 1.5680532455444336,
      "558": -0.12696820497512817,
      "559": -1.0183284282684326,
      "560": 0.5942379236221313,
      "561": -1.061758041381836,
      "562": -4.610142707824707,
      "563": 0.1842302531003952,
      "564": -1.7576665878295898,
      "565": -0.8130947351455688,
      "566": -2.2167105674743652,
      "567": -2.59956693649292,
      "568": 0.005390129052102566,
      "569": 0.31832996010780334,
      "570": -0.6683439016342163,
      "571": 2.709601402282715,
      "572": 1.4487451314926147,
      "573": 3.072552442550659,
      "574": 0.4692710340023041,
      "575": 1.2434661388397217,
      "576": -0.39974698424339294,
      "577": -0.9493910074234009,
      "578": 0.6519919037818909,
      "579": -0.6617229580879211,
      "580": 3.378520965576172,
      "581": -0.8310881853103638,
      "582": 0.6578679084777832,
      "583": -1.2052910327911377,
      "584": -0.2325059175491333,
      "585": 4.476574420928955,
      "586": 0.36386817693710327,
      "587": 1.828683614730835,
      "588": -3.3896870613098145,
      "589": -1.4141535758972168,
      "590": -0.28387191891670227,
      "591": -0.3764457404613495,
      "592": 0.9163187146186829,
      "593": -1.9416853189468384,
      "594": 0.5155164003372192,
      "595": 2.697516918182373,
      "596": -0.5394234657287598,
      "597": 1.5912684202194214,
      "598": 2.6505212783813477,
      "599": 0.21582427620887756,
      "600": 0.26087233424186707,
      "601": -1.6948059797286987,
      "602": -0.13930809497833252,
      "603": 0.6334272027015686,
      "604": 0.5722524523735046,
      "605": 1.1373897790908813,
      "606": -1.4852592945098877,
      "607": -1.833585262298584,
      "608": -0.04215293750166893,
      "609": 0.36266785860061646,
      "610": -2.4569358825683594,
      "611": 0.9766892790794373,
      "612": -1.6359102725982666,
      "613": -0.6331196427345276,
      "614": -2.0754451751708984,
      "615": -0.15122650563716888,
      "616": -3.4523730278015137,
      "617": -1.6559845209121704,
      "618": -1.4572639465332031,
      "619": 0.4576605260372162,
      "620": 0.6695526242256165,
      "621": 0.941494345664978,
      "622": -0.026946309953927994,
      "623": -1.1251109838485718,
      "624": 1.1838740110397339,
      "625": 3.5586650371551514,
      "626": 0.5823997259140015,
      "627": -3.444688558578491,
      "628": -2.7769148349761963,
      "629": -0.35461562871932983,
      "630": -0.140621617436409,
      "631": 0.11269596964120865,
      "632": 3.346090078353882,
      "633": -0.9990230202674866,
      "634": 2.899750232696533,
      "635": 0.43475380539894104,
      "636": 1.0719681978225708,
      "637": -4.058117389678955,
      "638": -0.8750255107879639,
      "639": -2.507476568222046,
      "640": 0.6177815198898315,
      "641": -2.0729238986968994,
      "642": -0.6561819911003113,
      "643": 2.728823661804199,
      "644": -0.38879600167274475,
      "645": -2.5517663955688477,
      "646": -0.05553876608610153,
      "647": 2.703981399536133,
      "648": -1.0316669940948486,
      "649": -2.272447347640991,
      "650": -1.4923046827316284,
      "651": -0.30281203985214233,
      "652": -1.9175612926483154,
      "653": -0.01847243681550026,
      "654": -0.8993911743164062,
      "655": -0.5624797344207764,
      "656": -1.0034499168395996,
      "657": -5.166319370269775,
      "658": -1.637891411781311,
      "659": 1.867112398147583,
      "660": 2.6566550731658936,
      "661": -3.2498810291290283,
      "662": 0.37343552708625793,
      "663": 0.6522455215454102,
      "664": 1.3412673473358154,
      "665": 4.269001007080078,
      "666": 2.022435188293457,
      "667": -0.24851062893867493,
      "668": -2.7065727710723877,
      "669": -2.2196812629699707,
      "670": -3.6523706912994385,
      "671": -3.347378730773926,
      "672": -1.544578194618225,
      "673": -2.3138139247894287,
      "674": -2.572678327560425,
      "675": 1.9138275384902954,
      "676": -2.4794869422912598,
      "677": 0.05661310255527496,
      "678": -1.6045836210250854,
      "679": 3.2066025733947754,
      "680": 1.4216922521591187,
      "681": -0.46235331892967224,
      "682": 3.1062240600585938,
      "683": -0.8342195749282837,
      "684": -0.273288369178772,
      "685": -3.672433853149414,
      "686": 0.27537792921066284,
      "687": 0.2442445605993271,
      "688": -0.7964019775390625,
      "689": -4.2268548011779785,
      "690": -2.68143892288208,
      "691": -1.459476113319397,
      "692": -1.1671894788742065,
      "693": -1.614846110343933,
      "694": -0.4913857579231262,
      "695": -0.17924506962299347,
      "696": 2.2943801879882812,
      "697": -1.0135977268218994,
      "698": -1.0327388048171997,
      "699": 0.5565007328987122,
      "700": -0.7190598249435425,
      "701": 2.8529813289642334,
      "702": -0.621000349521637,
      "703": -4.461615085601807,
      "704": -2.904789924621582,
      "705": 2.301826000213623,
      "706": 2.3166441917419434,
      "707": -1.879909873008728,
      "708": -1.3481385707855225,
      "709": 0.8046077489852905,
      "710": -5.0409255027771,
      "711": 0.5515615344047546,
      "712": 2.1200098991394043,
      "713": -2.2525835037231445,
      "714": 1.3602166175842285,
      "715": 3.1306378841400146,
      "716": -1.6357067823410034,
      "717": -1.1039313077926636,
      "718": -2.271383762359619,
      "719": 0.015038610436022282,
      "720": -0.4740678071975708,
      "721": 1.3780730962753296,
      "722": 1.7310543060302734,
      "723": -0.3231521248817444,
      "724": 1.674190640449524,
      "725": -0.464962363243103,
      "726": -0.851258397102356,
      "727": -0.8695247173309326,
      "728": 3.0022308826446533,
      "729": -1.17156982421875,
      "730": 0.7188231348991394,
      "731": 0.5375958681106567,
      "732": 2.4254486560821533,
      "733": 1.9251238107681274,
      "734": 1.9318610429763794,
      "735": -1.7363446950912476,
      "736": 1.8828835487365723,
      "737": 0.05457128584384918,
      "738": -9.400203704833984,
      "739": -17.39862823486328,
      "740": -3.007091999053955,
      "741": 3.6764121055603027,
      "742": 2.70782470703125,
      "743": -5.538784503936768,
      "744": 16.86581802368164,
      "745": 14.473687171936035,
      "746": -0.9374345541000366,
      "747": 3.791898727416992,
      "748": 5.567677974700928,
      "749": -1.2621808052062988,
      "750": -13.37234115600586,
      "751": 4.143927574157715,
      "752": 0.10993613302707672,
      "753": -9.95380973815918,
      "754": 13.898193359375,
      "755": -4.993760108947754,
      "756": -0.8616961240768433,
      "757": 17.80255699157715,
      "758": 7.0787763595581055,
      "759": 1.3046709299087524,
      "760": -4.717025279998779,
      "761": 11.983728408813477,
      "762": -7.322510719299316,
      "763": -12.426966667175293,
      "764": -3.2036898136138916,
      "765": -12.40615463256836,
      "766": -5.365628242492676,
      "767": -3.5498263835906982,
      "768": 18.20455551147461,
      "769": -14.050724029541016,
      "770": -3.709911823272705,
      "771": 9.55678653717041,
      "772": -5.399181842803955,
      "773": 3.6463568210601807,
      "774": -12.86588191986084,
      "775": 9.54911994934082,
      "776": 7.942994117736816,
      "777": 6.652773857116699,
      "778": -2.206644058227539,
      "779": -2.228184223175049,
      "780": -4.232171058654785,
      "781": -3.513198137283325,
      "782": -1.0143709182739258,
      "783": -0.6895807385444641,
      "784": -4.136401653289795,
      "785": 2.4328768253326416,
      "786": 2.4599568843841553,
      "787": -2.0192017555236816,
      "788": -0.875003457069397,
      "789": 0.47397446632385254,
      "790": -1.3264886140823364,
      "791": -3.0214478969573975,
      "792": 1.1599682569503784,
      "793": -2.7508726119995117,
      "794": 0.9705607295036316,
      "795": 2.861483573913574,
      "796": -1.185206413269043,
      "797": 0.8595525026321411,
      "798": 5.046809196472168,
      "799": 0.7119042277336121,
      "800": 2.413809299468994,
      "801": -3.8333611488342285,
      "802": 3.1545963287353516,
      "803": -3.834794521331787,
      "804": -1.5688073635101318,
      "805": -0.8115450143814087,
      "806": -2.0384485721588135,
      "807": -0.5242194533348083,
      "808": 2.2549002170562744,
      "809": 4.092493057250977,
      "810": -3.035454511642456,
      "811": -0.39411458373069763,
      "812": -0.05585991218686104,
      "813": -0.7031410336494446,
      "814": 3.5088999271392822,
      "815": 1.3696227073669434,
      "816": 1.5241625308990479,
      "817": 3.0241775512695312,
      "818": -0.1739356368780136,
      "819": -3.346207857131958,
      "820": -10.032706260681152,
      "821": 3.4689674377441406,
      "822": 8.503436088562012,
      "823": -15.405669212341309,
      "824": 13.53734016418457,
      "825": -9.25760269165039,
      "826": -2.015375852584839,
      "827": 0.7186124920845032,
      "828": 0.7628380656242371,
      "829": 6.596494674682617,
      "830": -5.51072883605957,
      "831": -4.687880516052246,
      "832": 0.7489529252052307,
      "833": 9.086597442626953,
      "834": 5.81423807144165,
      "835": -7.903195381164551,
      "836": 12.354114532470703,
      "837": 3.5180156230926514,
      "838": -6.465842247009277,
      "839": -4.251898288726807,
      "840": 5.916438102722168,
      "841": -33.91741180419922,
      "842": 14.281241416931152,
      "843": 11.066123008728027,
      "844": 3.4029979705810547,
      "845": -0.3757796287536621,
      "846": 15.11349105834961,
      "847": 9.656444549560547,
      "848": -5.7466721534729,
      "849": -6.317468166351318,
      "850": 3.276646137237549,
      "851": -11.648240089416504,
      "852": -11.624147415161133,
      "853": 2.744802474975586,
      "854": -8.215359687805176,
      "855": -0.08554348349571228,
      "856": -8.209253311157227,
      "857": 9.989241600036621,
      "858": 2.4931230545043945,
      "859": 2.7708818912506104,
      "860": 3.551032543182373,
      "861": -2.9625048637390137,
      "862": 3.468794107437134,
      "863": 4.494562149047852,
      "864": -1.9603381156921387,
      "865": 1.0315272808074951,
      "866": 0.5200106501579285,
      "867": 1.2120022773742676,
      "868": -2.2910258769989014,
      "869": -5.060266971588135,
      "870": -2.6136996746063232,
      "871": 2.5389537811279297,
      "872": 2.884448289871216,
      "873": 1.117095947265625,
      "874": 0.28638240694999695,
      "875": -1.4787805080413818,
      "876": 1.5200732946395874,
      "877": -0.31489095091819763,
      "878": 3.6906678676605225,
      "879": 2.0769834518432617,
      "880": -1.678999423980713,
      "881": 3.9534924030303955,
      "882": 0.5457055568695068,
      "883": 0.4605298638343811,
      "884": -1.4950604438781738,
      "885": -2.1829352378845215,
      "886": -1.176985502243042,
      "887": -2.5797767639160156,
      "888": 0.8165258765220642,
      "889": -1.8211523294448853,
      "890": 1.5331149101257324,
      "891": -2.3429555892944336,
      "892": 4.332330226898193,
      "893": 10.121851921081543,
      "894": 6.493982791900635,
      "895": 2.106386661529541,
      "896": -6.982968330383301,
      "897": 2.9505808353424072,
      "898": -0.8603696227073669,
      "899": -3.2794744968414307,
      "900": 5.752932548522949,
      "901": -5.158138275146484,
      "902": -5.599258899688721,
      "903": -0.8059032559394836,
      "904": -6.603825569152832,
      "905": 2.1177287101745605,
      "906": -16.51520538330078,
      "907": -9.447941780090332,
      "908": -3.7107346057891846,
      "909": -2.876847267150879,
      "910": -5.924900054931641,
      "911": -5.617688179016113,
      "912": 8.079546928405762,
      "913": 0.11121785640716553,
      "914": -3.818890333175659,
      "915": 0.8951995372772217,
      "916": -8.040229797363281,
      "917": 2.5317835807800293,
      "918": 0.30189424753189087,
      "919": 2.3555994033813477,
      "920": -0.7919274568557739,
      "921": 2.585921287536621,
      "922": -2.185622453689575,
      "923": 2.9025888442993164,
      "924": -6.219025611877441,
      "925": 12.509846687316895,
      "926": 8.150179862976074,
      "927": -5.91193151473999,
      "928": 6.66029167175293,
      "929": 2.1853909492492676,
      "930": -1.7756353616714478,
      "931": 3.7076079845428467,
      "932": 2.5787012577056885,
      "933": -0.2963239848613739,
      "934": -5.795393943786621,
      "935": -4.2150397300720215,
      "936": -0.919804036617279,
      "937": 3.7625954151153564,
      "938": 8.274091720581055,
      "939": 0.3387664258480072,
      "940": 1.1297776699066162,
      "941": 2.172767400741577,
      "942": 0.9604805111885071,
      "943": -2.8187084197998047,
      "944": -4.011557102203369,
      "945": -5.656101226806641,
      "946": -3.3836021423339844,
      "947": 3.5653886795043945,
      "948": -6.885130405426025,
      "949": -1.3459489345550537,
      "950": -1.840392827987671,
      "951": 0.6995159387588501,
      "952": 3.6329610347747803,
      "953": -0.7486140727996826,
      "954": -1.635533094406128,
      "955": -9.309313774108887,
      "956": -1.6892439126968384,
      "957": 3.0382943153381348,
      "958": 4.909328937530518,
      "959": 3.7413220405578613,
      "960": -8.506489753723145,
      "961": 1.160065770149231,
      "962": -0.04552503675222397,
      "963": -1.2831215858459473,
      "964": -1.4644346237182617,
      "965": -1.781446099281311,
      "966": 3.63830304145813,
      "967": 3.0505895614624023,
      "968": 1.0170893669128418,
      "969": -5.956621170043945,
      "970": 0.9689916372299194,
      "971": -3.8150031566619873,
      "972": 4.583555698394775,
      "973": 7.249565124511719,
      "974": -5.618525981903076,
      "975": -9.399872779846191,
      "976": -7.852219104766846,
      "977": -9.093366622924805,
      "978": 5.853747844696045,
      "979": 4.634744167327881,
      "980": 4.335384368896484,
      "981": 3.8991565704345703,
      "982": 2.661240816116333,
      "983": -1.1049751043319702,
      "984": 0.4319985508918762,
      "985": -3.880235433578491,
      "986": -2.3655812740325928,
      "987": -3.4574005603790283,
      "988": 5.725308895111084,
      "989": -0.6169730424880981,
      "990": 1.811927318572998,
      "991": 2.0935165882110596,
      "992": 1.679004430770874,
      "993": 0.1142188236117363,
      "994": 2.062927484512329,
      "995": 2.7009193897247314,
      "996": -5.640502452850342,
      "997": -1.1217286586761475,
      "998": 0.16878733038902283,
      "999": -2.5591037273406982,
      "1000": 0.17090195417404175,
      "1001": 4.195636749267578,
      "1002": 2.005235433578491,
      "1003": 1.6323953866958618,
      "1004": 3.9673962593078613,
      "1005": 2.0000832080841064,
      "1006": -4.577259063720703,
      "1007": 0.46004170179367065,
      "1008": -2.429896116256714,
      "1009": -2.2233147621154785,
      "1010": -1.9910062551498413,
      "1011": -0.9713800549507141,
      "1012": -0.6716352105140686,
      "1013": -0.5379557013511658,
      "1014": 0.37098199129104614,
      "1015": 1.185280680656433,
      "1016": 0.7087836265563965,
      "1017": -0.6529706120491028,
      "1018": -4.6211161613464355,
      "1019": 5.28537130355835,
      "1020": -1.9617061614990234,
      "1021": -1.0405441522598267,
      "1022": -0.8883431553840637,
      "1023": 1.3540009260177612,
      "1024": -3.707953453063965,
      "1025": -3.960857391357422,
      "1026": -2.9283292293548584,
      "1027": -2.3917386531829834,
      "1028": 0.38234615325927734,
      "1029": 5.854854106903076,
      "1030": -6.7295379638671875,
      "1031": 3.1416690349578857,
      "1032": 4.966533184051514,
      "1033": -4.014488697052002,
      "1034": 1.4492658376693726,
      "1035": 1.1721651554107666,
      "1036": -6.293412208557129,
      "1037": -0.696948230266571,
      "1038": 2.718289613723755,
      "1039": -9.075207710266113,
      "1040": -2.9378771781921387,
      "1041": 0.1317957043647766,
      "1042": -1.748876929283142,
      "1043": 5.47988748550415,
      "1044": 2.52936053276062,
      "1045": 4.9456682205200195,
      "1046": -1.3019107580184937,
      "1047": -2.7268311977386475,
      "1048": 4.970000743865967,
      "1049": -2.179658889770508,
      "1050": -8.20173454284668,
      "1051": 0.25231480598449707,
      "1052": 1.3585405349731445,
      "1053": -4.640523433685303,
      "1054": 4.64218807220459,
      "1055": -3.086130142211914,
      "1056": -0.5003167986869812,
      "1057": -5.230279445648193,
      "1058": -2.297470808029175,
      "1059": -6.3805766105651855,
      "1060": 3.555414915084839,
      "1061": -4.089625358581543,
      "1062": 3.414318561553955,
      "1063": 1.692081332206726,
      "1064": 3.3265841007232666,
      "1065": -3.4800260066986084,
      "1066": 1.7755241394042969,
      "1067": -0.8237180113792419,
      "1068": -2.5758614540100098,
      "1069": 3.447552442550659,
      "1070": 2.044084072113037,
      "1071": -1.7301374673843384,
      "1072": -0.2582906484603882,
      "1073": 1.5871211290359497,
      "1074": 0.44413644075393677,
      "1075": 2.0574965476989746,
      "1076": 2.011406898498535,
      "1077": 2.080589771270752,
      "1078": 0.8864007592201233,
      "1079": -0.11481771618127823,
      "1080": -4.626497268676758,
      "1081": -0.8180209994316101,
      "1082": 0.4729853868484497,
      "1083": 1.0228391885757446,
      "1084": -2.358466148376465,
      "1085": 3.2912254333496094,
      "1086": 0.44894498586654663,
      "1087": 1.5564934015274048,
      "1088": -0.6213639378547668,
      "1089": 1.2326492071151733,
      "1090": 0.12576815485954285,
      "1091": -4.696349620819092,
      "1092": 3.0738484859466553,
      "1093": -0.7384845018386841,
      "1094": 0.7425792813301086,
      "1095": -1.8553541898727417,
      "1096": -2.148606777191162,
      "1097": -0.3673349916934967,
      "1098": 2.104069232940674,
      "1099": -1.523512840270996,
      "1100": 3.9092953205108643,
      "1101": -0.7098144888877869,
      "1102": -2.396162509918213,
      "1103": -3.5314512252807617,
      "1104": 1.0305248498916626,
      "1105": 0.15313415229320526,
      "1106": -0.7263467311859131,
      "1107": -1.8062537908554077,
      "1108": -6.720856189727783,
      "1109": -3.2093944549560547,
      "1110": -1.3917754888534546,
      "1111": 14.468052864074707,
      "1112": 2.8339555263519287,
      "1113": 4.052473545074463,
      "1114": 2.35758113861084,
      "1115": 6.507087230682373,
      "1116": 11.143586158752441,
      "1117": -4.186300754547119,
      "1118": -1.5894547700881958,
      "1119": -5.918973922729492,
      "1120": -7.6612629890441895,
      "1121": 2.077129364013672,
      "1122": -4.753961086273193,
      "1123": 2.5219521522521973,
      "1124": 4.098193168640137,
      "1125": -8.167617797851562,
      "1126": 0.7182892560958862,
      "1127": -1.5400248765945435,
      "1128": -3.3688881397247314,
      "1129": -2.213944673538208,
      "1130": -2.1941866874694824,
      "1131": 0.0024400667753070593,
      "1132": 5.60180139541626,
      "1133": -2.1015613079071045,
      "1134": -0.3375452756881714,
      "1135": -3.4581329822540283,
      "1136": -4.503833770751953,
      "1137": 0.25309503078460693,
      "1138": -2.052553415298462,
      "1139": -5.209460258483887,
      "1140": -0.7610841989517212,
      "1141": -5.3445844650268555,
      "1142": 2.3443117141723633,
      "1143": -4.745012283325195,
      "1144": -1.0265368223190308,
      "1145": 5.137475490570068,
      "1146": -3.065347194671631,
      "1147": 2.6588375568389893,
      "1148": 10.867281913757324,
      "1149": -3.3282666206359863,
      "1150": -1.5744514465332031,
      "1151": -8.718314170837402,
      "1152": 5.227549076080322,
      "1153": 0.5288280248641968,
      "1154": 6.443706035614014,
      "1155": -8.562735557556152,
      "1156": 1.5806057453155518,
      "1157": -0.3722614645957947,
      "1158": 4.638363361358643,
      "1159": 9.643856048583984,
      "1160": -1.2876663208007812,
      "1161": -5.910475730895996,
      "1162": -0.6698483824729919,
      "1163": 9.020075798034668,
      "1164": -8.206803321838379,
      "1165": 9.26958179473877,
      "1166": -1.8755106925964355,
      "1167": -0.08826372772455215,
      "1168": -1.353844165802002,
      "1169": 5.7481913566589355,
      "1170": -5.344709873199463,
      "1171": -4.404873847961426,
      "1172": 1.0614382028579712,
      "1173": -1.8869082927703857,
      "1174": -18.73963737487793,
      "1175": 1.7883241176605225,
      "1176": -5.963197708129883,
      "1177": -3.0138821601867676,
      "1178": -3.262160539627075,
      "1179": 9.341490745544434,
      "1180": 14.94766902923584,
      "1181": 0.8369446396827698,
      "1182": -2.2438952922821045,
      "1183": -2.602713108062744,
      "1184": 0.6509960889816284,
      "1185": -13.515410423278809,
      "1186": 0.7567148804664612,
      "1187": -5.12384557723999,
      "1188": -3.1275315284729004,
      "1189": 1.8353161811828613,
      "1190": -3.143286943435669,
      "1191": 0.32455897331237793,
      "1192": 2.9015419483184814,
      "1193": 2.504357099533081,
      "1194": 3.374044179916382,
      "1195": 3.185335874557495,
      "1196": 1.6721397638320923,
      "1197": 4.432356834411621,
      "1198": 3.294804096221924,
      "1199": -0.8656498789787292,
      "1200": 1.6140203475952148,
      "1201": 1.2875285148620605,
      "1202": -2.180098533630371,
      "1203": 2.6943063735961914,
      "1204": -2.452998638153076,
      "1205": -1.009526014328003,
      "1206": 3.7049107551574707,
      "1207": -3.4918675422668457,
      "1208": 2.3900463581085205,
      "1209": 0.247528538107872,
      "1210": 0.7933172583580017,
      "1211": -1.1663975715637207,
      "1212": -3.465745210647583,
      "1213": -1.2801039218902588,
      "1214": 0.9704363346099854,
      "1215": -3.64288592338562,
      "1216": -4.925558567047119,
      "1217": -1.8117319345474243,
      "1218": -1.1458488702774048,
      "1219": -1.3638157844543457,
      "1220": 0.3148479461669922,
      "1221": 1.7538056373596191,
      "1222": 1.7088234424591064,
      "1223": 0.48470810055732727,
      "1224": 1.1435880661010742,
      "1225": -1.6133559942245483,
      "1226": -1.7985327243804932,
      "1227": -0.9043526649475098,
      "1228": -2.2142512798309326,
      "1229": -3.354898691177368,
      "1230": 4.18043851852417,
      "1231": 0.9760446548461914,
      "1232": -2.514657974243164,
      "1233": -1.2511305809020996,
      "1234": 0.4716179370880127,
      "1235": 3.235322952270508,
      "1236": -1.7143620252609253,
      "1237": -7.315095901489258,
      "1238": 4.221372127532959,
      "1239": 2.436340808868408,
      "1240": -5.26974630355835,
      "1241": 11.016653060913086,
      "1242": 1.312094807624817,
      "1243": -4.290615081787109,
      "1244": 0.32447174191474915,
      "1245": 4.923399925231934,
      "1246": -7.523077964782715,
      "1247": 6.845552921295166,
      "1248": 4.70984411239624,
      "1249": 3.429072856903076,
      "1250": -5.886448383331299,
      "1251": -3.8407375812530518,
      "1252": -0.8010315895080566,
      "1253": -0.9344961643218994,
      "1254": 2.4475114345550537,
      "1255": -0.21184803545475006,
      "1256": -3.450049638748169,
      "1257": -0.31920379400253296,
      "1258": 2.7023091316223145,
      "1259": -2.719871759414673,
      "1260": -6.2774529457092285,
      "1261": 7.8145341873168945,
      "1262": 3.9505279064178467,
      "1263": -2.6147661209106445,
      "1264": 3.5372555255889893,
      "1265": -0.5319427847862244,
      "1266": 7.84827995300293,
      "1267": -2.335019111633301,
      "1268": -6.468299865722656,
      "1269": 4.448883533477783,
      "1270": 0.9121962189674377,
      "1271": 12.775827407836914,
      "1272": 8.593299865722656,
      "1273": -9.050321578979492,
      "1274": 4.009822845458984,
      "1275": -2.7044076919555664,
      "1276": -8.831032752990723,
      "1277": -19.41691017150879,
      "1278": -5.328091144561768,
      "1279": 0.39776039123535156,
      "1280": 5.2295098304748535,
      "1281": 4.438409328460693,
      "1282": -2.903660297393799,
      "1283": 12.548885345458984,
      "1284": -13.042555809020996,
      "1285": 6.011852741241455,
      "1286": 9.042935371398926,
      "1287": -5.7138519287109375,
      "1288": -8.484029769897461,
      "1289": -0.8581277132034302,
      "1290": 2.217358350753784,
      "1291": 6.925515174865723,
      "1292": 4.080838203430176,
      "1293": -1.9520004987716675,
      "1294": 13.894371032714844,
      "1295": 10.150171279907227,
      "1296": 4.638980388641357,
      "1297": 13.621015548706055,
      "1298": 12.554910659790039,
      "1299": 15.50577449798584,
      "1300": -4.572690486907959,
      "1301": -12.049677848815918,
      "1302": 8.748083114624023,
      "1303": -6.813385009765625,
      "1304": -13.123562812805176,
      "1305": 2.219923496246338,
      "1306": 1.9288971424102783,
      "1307": -0.6031222343444824,
      "1308": -0.674822986125946,
      "1309": -8.42326831817627,
      "1310": 7.332483768463135,
      "1311": 10.308022499084473,
      "1312": -7.325869560241699,
      "1313": -5.07738733291626,
      "1314": 16.349275588989258,
      "1315": -3.4127180576324463,
      "1316": -0.4844389259815216,
      "1317": 9.682520866394043,
      "1318": 19.55435562133789,
      "1319": 11.949644088745117,
      "1320": -5.3242082595825195,
      "1321": -6.020257949829102,
      "1322": -16.69720458984375,
      "1323": -11.60659122467041,
      "1324": 9.514854431152344,
      "1325": 7.566450595855713,
      "1326": 5.575577735900879,
      "1327": -7.3085126876831055,
      "1328": 6.067466735839844,
      "1329": -13.869640350341797,
      "1330": -0.3976280391216278,
      "1331": -3.416651725769043,
      "1332": -4.890801429748535,
      "1333": -3.2436587810516357,
      "1334": 7.652215957641602,
      "1335": -4.36020565032959,
      "1336": -5.010751724243164,
      "1337": 5.964949607849121,
      "1338": -8.537481307983398,
      "1339": 4.248252868652344,
      "1340": -2.1076395511627197,
      "1341": 4.411371231079102,
      "1342": 4.794043064117432,
      "1343": 1.883619785308838,
      "1344": -5.334654331207275,
      "1345": 30.260234832763672,
      "1346": 6.308525562286377,
      "1347": 2.1405868530273438,
      "1348": -17.109254837036133,
      "1349": 6.956717014312744,
      "1350": 7.156261444091797,
      "1351": -7.524121284484863,
      "1352": -13.619603157043457,
      "1353": 0.5288239121437073,
      "1354": -6.783777236938477,
      "1355": 12.264634132385254,
      "1356": -9.556907653808594,
      "1357": -16.97222900390625,
      "1358": 12.653153419494629,
      "1359": -5.954024791717529,
      "1360": -6.221588611602783,
      "1361": -4.627176761627197,
      "1362": -6.757926940917969,
      "1363": -9.16883373260498,
      "1364": -2.7569215297698975,
      "1365": 9.177928924560547,
      "1366": -5.563480854034424,
      "1367": -5.4658708572387695,
      "1368": 20.08210563659668,
      "1369": -5.140801429748535,
      "1370": 12.845471382141113,
      "1371": -0.8684277534484863,
      "1372": -10.190966606140137,
      "1373": -9.86568546295166,
      "1374": -9.251592636108398,
      "1375": 0.8912456631660461,
      "1376": -6.0215840339660645,
      "1377": 7.918855667114258,
      "1378": 24.308292388916016,
      "1379": -0.7828771471977234,
      "1380": 17.355836868286133,
      "1381": 9.614704132080078,
      "1382": -3.212407112121582,
      "1383": -10.028425216674805,
      "1384": 1.6305720806121826,
      "1385": -8.720752716064453,
      "1386": 16.447134017944336,
      "1387": 16.229909896850586,
      "1388": -9.41616153717041,
      "1389": 6.311026573181152,
      "1390": 0.3045608103275299,
      "1391": -6.824605464935303,
      "1392": -3.0093963146209717,
      "1393": 0.8177339434623718,
      "1394": -14.661616325378418,
      "1395": -5.259888172149658,
      "1396": -4.954026699066162,
      "1397": 14.01112174987793,
      "1398": -1.9991261959075928,
      "1399": 24.187955856323242,
      "1400": -9.411863327026367,
      "1401": 11.812386512756348,
      "1402": -2.922929525375366,
      "1403": 13.991849899291992,
      "1404": -0.12568624317646027,
      "1405": -5.014855861663818,
      "1406": -8.02477741241455,
      "1407": -0.4739251434803009,
      "1408": 18.756145477294922,
      "1409": 14.281437873840332,
      "1410": 17.441604614257812,
      "1411": 6.518530368804932,
      "1412": -9.833867073059082,
      "1413": 4.264700412750244,
      "1414": 0.5952788591384888,
      "1415": -15.387060165405273,
      "1416": -6.277990818023682,
      "1417": -8.434354782104492,
      "1418": -1.130270004272461,
      "1419": 5.446404457092285,
      "1420": 12.471611976623535,
      "1421": 7.40922212600708,
      "1422": -13.343240737915039,
      "1423": -4.019474983215332,
      "1424": 3.533559560775757,
      "1425": -8.458236694335938,
      "1426": 5.155727863311768,
      "1427": -1.6347882747650146,
      "1428": 3.3474786281585693,
      "1429": -1.5639359951019287,
      "1430": 1.0604722499847412,
      "1431": 7.177844047546387,
      "1432": 17.73102569580078,
      "1433": -2.2351768016815186,
      "1434": 20.25771713256836,
      "1435": 3.605384111404419,
      "1436": -5.800530910491943,
      "1437": -0.9913468360900879,
      "1438": -0.6945554614067078,
      "1439": 4.249927997589111,
      "1440": -0.6902422904968262,
      "1441": -0.7783172726631165,
      "1442": 2.520250082015991,
      "1443": 4.07644510269165,
      "1444": 4.382861137390137,
      "1445": 3.4020724296569824,
      "1446": -0.0379440002143383,
      "1447": -3.852220296859741,
      "1448": -4.048598766326904,
      "1449": 1.4271522760391235,
      "1450": 1.917841911315918,
      "1451": -2.3955063819885254,
      "1452": 2.875279664993286,
      "1453": -0.7069500088691711,
      "1454": 3.0902934074401855,
      "1455": 5.786299228668213,
      "1456": -4.870621681213379,
      "1457": -2.893589496612549,
      "1458": -1.1708582639694214,
      "1459": -1.1479895114898682,
      "1460": 0.49115821719169617,
      "1461": -0.07627004384994507,
      "1462": 2.3449435234069824,
      "1463": -0.8364745378494263,
      "1464": -6.300965309143066,
      "1465": -4.520096302032471,
      "1466": -2.473653554916382,
      "1467": 0.9373140931129456,
      "1468": 1.3361220359802246,
      "1469": -4.515507698059082,
      "1470": -0.748982310295105,
      "1471": 3.0874266624450684,
      "1472": -1.61759614944458,
      "1473": -0.8411726355552673,
      "1474": 3.355947732925415,
      "1475": 0.05311906337738037,
      "1476": -9.461172103881836,
      "1477": -18.164653778076172,
      "1478": -17.31841468811035,
      "1479": 9.98037052154541,
      "1480": -6.162858963012695,
      "1481": -13.297843933105469,
      "1482": 6.884289264678955,
      "1483": 2.7914140224456787,
      "1484": -10.390071868896484,
      "1485": 6.2199387550354,
      "1486": -4.281099319458008,
      "1487": 5.3979902267456055,
      "1488": -7.591675281524658,
      "1489": 0.6772562861442566,
      "1490": -1.232180118560791,
      "1491": -9.522603988647461,
      "1492": 12.135821342468262,
      "1493": -9.800236701965332,
      "1494": -3.728607177734375,
      "1495": 12.31831169128418,
      "1496": 1.2491583824157715,
      "1497": 12.409631729125977,
      "1498": -13.846315383911133,
      "1499": 12.588018417358398,
      "1500": -9.269291877746582,
      "1501": -12.391861915588379,
      "1502": 3.0812172889709473,
      "1503": -7.551115989685059,
      "1504": -1.1920870542526245,
      "1505": -5.272738933563232,
      "1506": -0.5250533223152161,
      "1507": -12.948615074157715,
      "1508": -6.806976795196533,
      "1509": -8.408000946044922,
      "1510": -7.304990768432617,
      "1511": 10.39566707611084,
      "1512": -16.577028274536133,
      "1513": 6.861293792724609,
      "1514": 7.574817180633545,
      "1515": -1.7491183280944824,
      "1516": -5.923285961151123,
      "1517": -7.77428674697876,
      "1518": 0.4353542923927307,
      "1519": 1.3901395797729492,
      "1520": -1.7944878339767456,
      "1521": -5.874258995056152,
      "1522": 9.663636207580566,
      "1523": 9.82850170135498,
      "1524": 6.022500038146973,
      "1525": -10.391377449035645,
      "1526": -10.528388023376465,
      "1527": -0.49113455414772034,
      "1528": 1.1248531341552734,
      "1529": 7.101996898651123,
      "1530": 7.945894241333008,
      "1531": -3.1714184284210205,
      "1532": -5.403323173522949,
      "1533": 1.2892757654190063,
      "1534": -4.737589359283447,
      "1535": 3.419853687286377,
      "1536": -0.18985652923583984,
      "1537": -9.319117546081543,
      "1538": 0.787267804145813,
      "1539": 3.1585323810577393,
      "1540": -2.8185031414031982,
      "1541": -7.48305082321167,
      "1542": -0.5669224262237549,
      "1543": -15.123684883117676,
      "1544": -6.11893367767334,
      "1545": -6.340673446655273,
      "1546": 6.1185503005981445,
      "1547": 16.339946746826172,
      "1548": -0.7130119800567627,
      "1549": 1.0540040731430054,
      "1550": 8.856574058532715,
      "1551": 4.736454486846924,
      "1552": -0.9485602974891663,
      "1553": -13.608755111694336,
      "1554": -1.1327085494995117,
      "1555": 14.702094078063965,
      "1556": -8.453439712524414,
      "1557": -6.384442329406738,
      "1558": -9.178427696228027,
      "1559": 17.60268783569336,
      "1560": 16.680496215820312,
      "1561": -4.134581089019775,
      "1562": -13.077016830444336,
      "1563": 9.302172660827637,
      "1564": 4.404438018798828,
      "1565": 8.519761085510254,
      "1566": -13.01759147644043,
      "1567": -29.96331024169922,
      "1568": -7.5161261558532715,
      "1569": 0.20362384617328644,
      "1570": 4.476149559020996,
      "1571": 4.311591625213623,
      "1572": -6.119325160980225,
      "1573": -14.567781448364258,
      "1574": 1.5486431121826172,
      "1575": -2.9513611793518066,
      "1576": -4.224994659423828,
      "1577": 8.945503234863281,
      "1578": 0.34608328342437744,
      "1579": -9.333385467529297,
      "1580": 26.369491577148438,
      "1581": -4.231503486633301,
      "1582": -12.703363418579102,
      "1583": -2.489534378051758,
      "1584": 7.028205871582031,
      "1585": -5.406243801116943,
      "1586": -1.5728403329849243,
      "1587": -7.3413214683532715,
      "1588": 14.967082023620605,
      "1589": -6.150150775909424,
      "1590": 1.5155142545700073,
      "1591": 18.348560333251953,
      "1592": 4.524169921875,
      "1593": -15.763616561889648,
      "1594": -6.939464092254639,
      "1595": -0.3296619951725006,
      "1596": -3.778240919113159,
      "1597": 7.3834428787231445,
      "1598": 1.0637789964675903,
      "1599": 0.8134943842887878,
      "1600": -0.41697362065315247,
      "1601": 0.2599406838417053,
      "1602": -1.6387109756469727,
      "1603": -1.3421040773391724,
      "1604": -0.06303060799837112,
      "1605": 0.6515831351280212,
      "1606": -2.6315393447875977,
      "1607": -0.3557306230068207,
      "1608": -1.5521026849746704,
      "1609": 2.956958770751953,
      "1610": 2.7273712158203125,
      "1611": -1.0262768268585205,
      "1612": 1.7224376201629639,
      "1613": -0.29722094535827637,
      "1614": 2.415534257888794,
      "1615": 0.06765689700841904,
      "1616": -0.10482417792081833,
      "1617": 1.9403575658798218,
      "1618": -0.6603012084960938,
      "1619": 1.7698172330856323,
      "1620": 0.3106556236743927,
      "1621": -0.7780207991600037,
      "1622": -1.0700092315673828,
      "1623": 3.1089205741882324,
      "1624": -0.26732349395751953,
      "1625": -5.456938743591309,
      "1626": 0.09800601750612259,
      "1627": -0.15742138028144836,
      "1628": 0.9772014021873474,
      "1629": 0.7989054918289185,
      "1630": 2.1152849197387695,
      "1631": 0.5928192734718323,
      "1632": -0.25567591190338135,
      "1633": -2.340517997741699,
      "1634": 0.40027254819869995,
      "1635": 0.026700401678681374,
      "1636": 0.7132437825202942,
      "1637": -2.242487668991089,
      "1638": 0.7862898111343384,
      "1639": -2.3693442344665527,
      "1640": 0.8816500306129456,
      "1641": -2.250706434249878,
      "1642": -0.9399853348731995,
      "1643": 0.9879980087280273,
      "1644": 0.3255515992641449,
      "1645": -1.6799479722976685,
      "1646": -0.15115472674369812,
      "1647": -1.158405065536499,
      "1648": 0.13262437283992767,
      "1649": 0.7195862531661987,
      "1650": 2.706087350845337,
      "1651": -1.2595282793045044,
      "1652": 0.05710843950510025,
      "1653": -1.5918179750442505,
      "1654": -1.539942741394043,
      "1655": -1.5378490686416626,
      "1656": -0.1946221888065338,
      "1657": 0.13696499168872833,
      "1658": 0.4066179394721985,
      "1659": 1.6387022733688354,
      "1660": 0.3488931357860565,
      "1661": -0.39858725666999817,
      "1662": -1.6029845476150513,
      "1663": 1.706607699394226,
      "1664": -0.8387677073478699,
      "1665": -2.2373476028442383,
      "1666": 2.104994297027588,
      "1667": -1.1659648418426514,
      "1668": -0.3874005675315857,
      "1669": 0.052136797457933426,
      "1670": -0.46692875027656555,
      "1671": 0.9626577496528625,
      "1672": 0.41233178973197937,
      "1673": -0.8213441967964172,
      "1674": -1.1054966449737549,
      "1675": -0.0983676165342331,
      "1676": 0.18638715147972107,
      "1677": -1.3353191614151,
      "1678": -1.6270357370376587,
      "1679": -0.8289971947669983,
      "1680": -0.7454144954681396,
      "1681": 0.01469465158879757,
      "1682": 0.06367846578359604,
      "1683": -0.01429030206054449,
      "1684": 0.0686124637722969,
      "1685": 0.03537411987781525,
      "1686": -0.02512926049530506,
      "1687": -0.02610705979168415,
      "1688": -0.005627251695841551,
      "1689": 0.06144634634256363,
      "1690": 0.04009302332997322,
      "1691": -0.005301215220242739,
      "1692": -0.01169309951364994,
      "1693": -0.004926095716655254,
      "1694": -0.06830939650535583,
      "1695": 0.04685525968670845,
      "1696": 0.046806398779153824,
      "1697": 0.0012097423896193504,
      "1698": -0.017591439187526703,
      "1699": -0.0041074142791330814,
      "1700": -0.015182851813733578,
      "1701": -0.012397943064570427,
      "1702": 0.04797855392098427,
      "1703": 0.07142527401447296,
      "1704": 0.057202696800231934,
      "1705": 0.02754058502614498,
      "1706": 0.038405925035476685,
      "1707": -0.07021593302488327,
      "1708": -0.038475099951028824,
      "1709": 0.06239968165755272,
      "1710": 0.07525518536567688,
      "1711": 0.020924856886267662,
      "1712": -0.0137637285515666,
      "1713": 0.0667375698685646,
      "1714": -0.0600808821618557,
      "1715": -0.054847367107868195,
      "1716": -0.0519135445356369,
      "1717": 0.042172159999608994,
      "1718": 0.05117258056998253,
      "1719": -0.020635373890399933,
      "1720": -0.0018214272568002343,
      "1721": 0.00826088897883892
    }
  },
  "hiddenLayers": [
    {
      "inputMatrix": {
        "rows": 20,
        "columns": 41,
        "weights": {
          "0": -1.4535895586013794,
          "1": -0.26883256435394287,
          "2": -0.9869153499603271,
          "3": 2.580604076385498,
          "4": -2.8104090690612793,
          "5": -1.9658418893814087,
          "6": -0.5752379894256592,
          "7": -0.5729544758796692,
          "8": -3.617865800857544,
          "9": 0.2730536162853241,
          "10": 1.1053897142410278,
          "11": -0.5557659864425659,
          "12": -1.0585131645202637,
          "13": -0.30820560455322266,
          "14": 1.146957516670227,
          "15": -0.45107728242874146,
          "16": 0.9489572048187256,
          "17": -0.5753883719444275,
          "18": -1.6339266300201416,
          "19": 0.21085533499717712,
          "20": -0.9234768748283386,
          "21": -2.1212053298950195,
          "22": -1.1570854187011719,
          "23": 0.49579548835754395,
          "24": 0.02735121175646782,
          "25": -0.6428845524787903,
          "26": 3.890444755554199,
          "27": -0.1465398520231247,
          "28": -0.5245186686515808,
          "29": 0.7461268901824951,
          "30": -0.78220534324646,
          "31": -1.1312509775161743,
          "32": -1.3451564311981201,
          "33": -2.2628040313720703,
          "34": -0.7263991832733154,
          "35": -0.2687457203865051,
          "36": 0.9699508547782898,
          "37": -0.6252087950706482,
          "38": 0.39219939708709717,
          "39": 0.2005939483642578,
          "40": 1.6366727352142334,
          "41": 0.7039255499839783,
          "42": -2.066349506378174,
          "43": 1.862425684928894,
          "44": -1.3118667602539062,
          "45": 1.0593526363372803,
          "46": 0.4437190890312195,
          "47": 0.026831911876797676,
          "48": 2.2430150508880615,
          "49": 1.0987918376922607,
          "50": 1.7252452373504639,
          "51": 1.739761471748352,
          "52": -1.4117136001586914,
          "53": -0.7612386345863342,
          "54": -0.5702939629554749,
          "55": -1.2210760116577148,
          "56": 1.8983403444290161,
          "57": -0.5833929777145386,
          "58": 1.5899790525436401,
          "59": 0.617947518825531,
          "60": -0.09729398041963577,
          "61": -0.09069333970546722,
          "62": -0.4287489056587219,
          "63": 0.9438039064407349,
          "64": -0.2941439747810364,
          "65": -1.8205276727676392,
          "66": -0.03539420664310455,
          "67": -4.209620952606201,
          "68": 1.8195804357528687,
          "69": -1.71768319606781,
          "70": -0.5070716738700867,
          "71": 0.6066914796829224,
          "72": 0.1571459025144577,
          "73": 0.9892208576202393,
          "74": 2.126671075820923,
          "75": -1.055033564567566,
          "76": 0.5137070417404175,
          "77": -0.7250497341156006,
          "78": -0.6606890559196472,
          "79": -0.10206994414329529,
          "80": -0.6449377536773682,
          "81": -1.6442948579788208,
          "82": 0.23312817513942719,
          "83": 1.2029995918273926,
          "84": 0.6839997172355652,
          "85": -2.175377368927002,
          "86": 1.7038832902908325,
          "87": -0.30566757917404175,
          "88": 1.1949758529663086,
          "89": -0.16824786365032196,
          "90": 1.8443958759307861,
          "91": 0.18261811137199402,
          "92": 0.6968787908554077,
          "93": 1.1485475301742554,
          "94": -0.42740803956985474,
          "95": -1.3321970701217651,
          "96": 1.3806747198104858,
          "97": -2.8406448364257812,
          "98": -1.3564099073410034,
          "99": 1.1302756071090698,
          "100": 2.8687732219696045,
          "101": -0.021526386961340904,
          "102": 3.014967679977417,
          "103": -0.15619012713432312,
          "104": 0.3009156584739685,
          "105": -0.9867500066757202,
          "106": 1.2725943326950073,
          "107": -0.4422776699066162,
          "108": 0.8876268863677979,
          "109": -0.6261146068572998,
          "110": -0.02027991972863674,
          "111": -0.8269059658050537,
          "112": -1.5518808364868164,
          "113": 3.1192970275878906,
          "114": 0.47604623436927795,
          "115": -1.1561157703399658,
          "116": -1.2706888914108276,
          "117": 0.339009553194046,
          "118": -0.2461150884628296,
          "119": -0.11378214508295059,
          "120": -2.756206750869751,
          "121": 2.7645926475524902,
          "122": -3.957986354827881,
          "123": -1.528022289276123,
          "124": 0.8347675800323486,
          "125": 1.3120583295822144,
          "126": -1.351436972618103,
          "127": -1.0322126150131226,
          "128": 1.116897702217102,
          "129": -0.0017337140161544085,
          "130": -0.9476408958435059,
          "131": -2.1726913452148438,
          "132": -1.8822599649429321,
          "133": 0.2545517385005951,
          "134": 0.21806031465530396,
          "135": -0.12917400896549225,
          "136": 0.21897496283054352,
          "137": 1.6622703075408936,
          "138": 0.44925761222839355,
          "139": 1.7002798318862915,
          "140": -0.09417184442281723,
          "141": 0.8793107867240906,
          "142": -1.0370526313781738,
          "143": 0.200870081782341,
          "144": -1.4660723209381104,
          "145": 0.7324483394622803,
          "146": -2.3500421047210693,
          "147": 0.18315620720386505,
          "148": -0.2596496343612671,
          "149": 0.04320903867483139,
          "150": 1.554923415184021,
          "151": -0.33248457312583923,
          "152": -0.6124864220619202,
          "153": 1.2037606239318848,
          "154": 0.6768242716789246,
          "155": 0.5071269869804382,
          "156": 1.0609228610992432,
          "157": 0.842419445514679,
          "158": -0.3565678000450134,
          "159": -1.0132617950439453,
          "160": 0.38372838497161865,
          "161": 0.22048290073871613,
          "162": -0.07682844996452332,
          "163": -0.9492214918136597,
          "164": 0.8476730585098267,
          "165": 0.6975588798522949,
          "166": -1.1662012338638306,
          "167": -0.03597059100866318,
          "168": 1.118433952331543,
          "169": -2.015709400177002,
          "170": -1.676537036895752,
          "171": 5.139097213745117,
          "172": 2.2941718101501465,
          "173": -0.33236104249954224,
          "174": 0.4696674644947052,
          "175": -1.6008034944534302,
          "176": -1.572304606437683,
          "177": 0.22412748634815216,
          "178": -0.9879496693611145,
          "179": 0.06427908688783646,
          "180": 0.21301186084747314,
          "181": -1.161350131034851,
          "182": -0.23428189754486084,
          "183": 1.3926340341567993,
          "184": 0.28164905309677124,
          "185": -2.2694251537323,
          "186": 1.9241571426391602,
          "187": 1.1808336973190308,
          "188": -2.0045981407165527,
          "189": -2.4770119190216064,
          "190": 1.7889422178268433,
          "191": 1.097124695777893,
          "192": -1.3035120964050293,
          "193": -1.823973536491394,
          "194": 1.8874236345291138,
          "195": -0.7817718982696533,
          "196": -1.3852529525756836,
          "197": -0.8974536657333374,
          "198": -1.3776850700378418,
          "199": 1.6116968393325806,
          "200": -0.6426378488540649,
          "201": 0.3899572193622589,
          "202": -1.6869122982025146,
          "203": 2.647580862045288,
          "204": 2.9253265857696533,
          "205": 0.27722880244255066,
          "206": -0.551688015460968,
          "207": 0.2424146831035614,
          "208": -0.9248241186141968,
          "209": 2.573986768722534,
          "210": -0.38943323493003845,
          "211": 0.6831436157226562,
          "212": 2.4305195808410645,
          "213": 1.9010270833969116,
          "214": 0.6355666518211365,
          "215": -0.16175012290477753,
          "216": -0.42634785175323486,
          "217": -0.6629209518432617,
          "218": -0.33805686235427856,
          "219": -0.8286197781562805,
          "220": -2.2258682250976562,
          "221": -0.4973771572113037,
          "222": -0.25064191222190857,
          "223": 1.1939942836761475,
          "224": 1.0489840507507324,
          "225": 2.202554941177368,
          "226": 1.1556212902069092,
          "227": 1.212063193321228,
          "228": 1.1087267398834229,
          "229": -1.2561850547790527,
          "230": -0.49426785111427307,
          "231": -0.23456133902072906,
          "232": -0.37642812728881836,
          "233": 0.03113309107720852,
          "234": -1.1554665565490723,
          "235": 0.8760355710983276,
          "236": -0.12778809666633606,
          "237": -0.3865216374397278,
          "238": 0.1273421049118042,
          "239": -1.5535744428634644,
          "240": 0.4296606183052063,
          "241": -1.8498389720916748,
          "242": 0.514090895652771,
          "243": 0.22034992277622223,
          "244": 0.255086749792099,
          "245": -0.8770644068717957,
          "246": 1.6965633630752563,
          "247": 1.7346199750900269,
          "248": -0.8388680815696716,
          "249": 0.4826469421386719,
          "250": 0.41009029746055603,
          "251": 2.2405712604522705,
          "252": 0.6482288241386414,
          "253": -3.1879193782806396,
          "254": 0.12784574925899506,
          "255": 0.2980784773826599,
          "256": -0.6147785782814026,
          "257": 1.970916748046875,
          "258": 2.9813320636749268,
          "259": -1.733121633529663,
          "260": 0.1962156444787979,
          "261": 0.8987100720405579,
          "262": -0.1758858859539032,
          "263": 2.4798598289489746,
          "264": 0.5185649394989014,
          "265": -2.9579172134399414,
          "266": 0.4738764464855194,
          "267": 1.0083708763122559,
          "268": 2.79423451423645,
          "269": -0.16537895798683167,
          "270": 1.9897348880767822,
          "271": 2.9539244174957275,
          "272": -1.4467777013778687,
          "273": -1.953853964805603,
          "274": 0.8032490611076355,
          "275": 1.1428475379943848,
          "276": 0.6194813251495361,
          "277": 1.279995322227478,
          "278": 1.7431221008300781,
          "279": 2.132052421569824,
          "280": 1.772193431854248,
          "281": -1.0804741382598877,
          "282": 1.4738751649856567,
          "283": -1.4800869226455688,
          "284": -0.6416202187538147,
          "285": -0.5619480609893799,
          "286": -1.2504605054855347,
          "287": 2.3700249195098877,
          "288": -0.6485222578048706,
          "289": 2.862861394882202,
          "290": 0.2073064148426056,
          "291": -1.7434844970703125,
          "292": 1.1177613735198975,
          "293": 0.17979755997657776,
          "294": -0.9036985039710999,
          "295": -0.5121828317642212,
          "296": -0.5871784687042236,
          "297": -0.1526716649532318,
          "298": -0.17709752917289734,
          "299": 0.6319624185562134,
          "300": -0.42047542333602905,
          "301": -0.11076132208108902,
          "302": 1.5138559341430664,
          "303": -0.1081455871462822,
          "304": -0.18261195719242096,
          "305": 0.8083116412162781,
          "306": 0.5785653591156006,
          "307": 0.005136165767908096,
          "308": 1.2457808256149292,
          "309": 0.2060871422290802,
          "310": -0.8095749020576477,
          "311": -0.803851306438446,
          "312": -1.5899348258972168,
          "313": -2.096620798110962,
          "314": -0.7528875470161438,
          "315": 0.8570922017097473,
          "316": 0.6001614928245544,
          "317": 0.7159157991409302,
          "318": 0.39847058057785034,
          "319": 2.559046745300293,
          "320": 1.7797582149505615,
          "321": 1.9697234630584717,
          "322": -3.166609764099121,
          "323": 0.07391856610774994,
          "324": -1.6081165075302124,
          "325": -0.6464881896972656,
          "326": -0.961094081401825,
          "327": -0.7301355600357056,
          "328": -2.478522300720215,
          "329": 1.2078408002853394,
          "330": 0.4749523997306824,
          "331": -1.672406554222107,
          "332": -0.8877784013748169,
          "333": 0.17084631323814392,
          "334": -1.5825831890106201,
          "335": 0.7296496629714966,
          "336": -2.8150346279144287,
          "337": -1.849151849746704,
          "338": -0.8478506803512573,
          "339": -0.5809919238090515,
          "340": -0.7312968373298645,
          "341": 2.3276219367980957,
          "342": 1.5375616550445557,
          "343": -0.3000918924808502,
          "344": 3.575162172317505,
          "345": -1.2914645671844482,
          "346": 0.7176231145858765,
          "347": 0.10275567322969437,
          "348": -0.6579406261444092,
          "349": -1.4015617370605469,
          "350": 0.2414197325706482,
          "351": -0.06743896752595901,
          "352": -1.7062102556228638,
          "353": 0.13391104340553284,
          "354": 0.9105021953582764,
          "355": -0.038664866238832474,
          "356": -1.656935453414917,
          "357": 1.9651026725769043,
          "358": 1.2536057233810425,
          "359": -0.4800119996070862,
          "360": -1.756959080696106,
          "361": 1.0481165647506714,
          "362": 0.5527275800704956,
          "363": 2.7449116706848145,
          "364": -0.4469894766807556,
          "365": 1.1857556104660034,
          "366": 2.5057435035705566,
          "367": -0.12426131218671799,
          "368": -1.0601307153701782,
          "369": -0.40420758724212646,
          "370": 1.8351032733917236,
          "371": 2.168936252593994,
          "372": -0.07459517568349838,
          "373": -1.2019684314727783,
          "374": 0.2620235085487366,
          "375": -0.7792779803276062,
          "376": 1.993836522102356,
          "377": -1.2816194295883179,
          "378": -0.7669554352760315,
          "379": -1.88902747631073,
          "380": -2.0223312377929688,
          "381": 2.477736473083496,
          "382": 0.9188905358314514,
          "383": -1.0005484819412231,
          "384": -0.07632321119308472,
          "385": 0.05876730754971504,
          "386": -3.1370773315429688,
          "387": 1.1558167934417725,
          "388": -0.4004271328449249,
          "389": -1.5130655765533447,
          "390": 0.24356712400913239,
          "391": 1.4746652841567993,
          "392": -0.7397785186767578,
          "393": -0.45973798632621765,
          "394": -0.019435469061136246,
          "395": 0.5293087363243103,
          "396": 1.6470381021499634,
          "397": -0.9637400507926941,
          "398": 2.0904037952423096,
          "399": 0.4010460078716278,
          "400": -0.7079108357429504,
          "401": -0.5719826817512512,
          "402": 0.1953001171350479,
          "403": 1.363016963005066,
          "404": -1.1806964874267578,
          "405": -0.529828667640686,
          "406": -0.11172541230916977,
          "407": 0.5672492384910583,
          "408": 0.6641754508018494,
          "409": 1.2666759490966797,
          "410": 1.5884450674057007,
          "411": 0.7686818838119507,
          "412": 1.6429195404052734,
          "413": -1.140367031097412,
          "414": 0.9010573625564575,
          "415": 1.041447401046753,
          "416": 0.041109196841716766,
          "417": -1.8539631366729736,
          "418": 1.1056312322616577,
          "419": -0.2265651822090149,
          "420": 0.4108186960220337,
          "421": 1.1094306707382202,
          "422": -0.42562761902809143,
          "423": -0.9741329550743103,
          "424": -0.8154845237731934,
          "425": -0.8988361358642578,
          "426": -3.003718852996826,
          "427": 1.5184237957000732,
          "428": 1.6505141258239746,
          "429": 0.06504467129707336,
          "430": 1.0339429378509521,
          "431": -1.3262615203857422,
          "432": 0.744631290435791,
          "433": -2.398688554763794,
          "434": -0.12406765669584274,
          "435": -1.3816560506820679,
          "436": -2.1605730056762695,
          "437": -0.3297680616378784,
          "438": 0.8615397810935974,
          "439": -0.1999351978302002,
          "440": -0.7366273403167725,
          "441": 1.4510693550109863,
          "442": 2.7360756397247314,
          "443": 1.4620652198791504,
          "444": -0.36205604672431946,
          "445": -2.729390859603882,
          "446": 0.46174442768096924,
          "447": -3.2621703147888184,
          "448": -2.2239339351654053,
          "449": -0.40204504132270813,
          "450": -2.5567002296447754,
          "451": 1.927644968032837,
          "452": -3.0996415615081787,
          "453": -1.2768080234527588,
          "454": 1.5144425630569458,
          "455": -0.9302099347114563,
          "456": 0.28191617131233215,
          "457": -0.8146918416023254,
          "458": 0.33633148670196533,
          "459": 2.0962231159210205,
          "460": 0.6417164206504822,
          "461": 0.8296975493431091,
          "462": -0.36750343441963196,
          "463": -0.7753528952598572,
          "464": -3.7290093898773193,
          "465": 1.7040765285491943,
          "466": 0.5767938494682312,
          "467": -3.617861747741699,
          "468": -0.9249750375747681,
          "469": 0.15201616287231445,
          "470": -0.23779059946537018,
          "471": 0.12076070159673691,
          "472": 1.3465949296951294,
          "473": -1.5688493251800537,
          "474": -1.2405787706375122,
          "475": 1.0327346324920654,
          "476": 0.5999262928962708,
          "477": -2.0690901279449463,
          "478": 2.4612619876861572,
          "479": 2.440272331237793,
          "480": -2.193530797958374,
          "481": -4.584615707397461,
          "482": 0.31443679332733154,
          "483": 1.8223795890808105,
          "484": -1.4549860954284668,
          "485": -0.1553793102502823,
          "486": 0.8063355088233948,
          "487": 1.6101998090744019,
          "488": -1.9990564584732056,
          "489": -0.6756525635719299,
          "490": 0.5800334811210632,
          "491": -0.05734056979417801,
          "492": 1.186441421508789,
          "493": -1.7115477323532104,
          "494": -0.15373562276363373,
          "495": 1.4480538368225098,
          "496": 1.3811249732971191,
          "497": -0.9132193326950073,
          "498": -1.073456048965454,
          "499": 0.3370356261730194,
          "500": 2.609172821044922,
          "501": 2.875845432281494,
          "502": 0.2598886787891388,
          "503": -1.2887767553329468,
          "504": -2.0377559661865234,
          "505": -3.448629140853882,
          "506": 0.8452693223953247,
          "507": -0.3325115442276001,
          "508": -2.8386423587799072,
          "509": 2.8882033824920654,
          "510": 0.03507817164063454,
          "511": 2.305617332458496,
          "512": -0.48932066559791565,
          "513": -0.3037453293800354,
          "514": -1.0041173696517944,
          "515": -0.6569241285324097,
          "516": -1.5959123373031616,
          "517": -1.151450276374817,
          "518": 0.6372591257095337,
          "519": 1.1245025396347046,
          "520": 1.754905104637146,
          "521": -1.401708960533142,
          "522": -2.7752797603607178,
          "523": 0.7771092653274536,
          "524": 1.5038602352142334,
          "525": -2.881317377090454,
          "526": -1.5956848859786987,
          "527": 0.324432909488678,
          "528": -1.134821891784668,
          "529": -1.2549184560775757,
          "530": -1.536873698234558,
          "531": -0.9381464719772339,
          "532": 1.190825343132019,
          "533": 0.4114304780960083,
          "534": 0.49366268515586853,
          "535": 0.09438466280698776,
          "536": -0.18394601345062256,
          "537": -0.854026734828949,
          "538": -2.8819596767425537,
          "539": -2.7135140895843506,
          "540": -2.0718626976013184,
          "541": -0.23409651219844818,
          "542": -1.0176161527633667,
          "543": -1.562304973602295,
          "544": 0.5980940461158752,
          "545": 1.410955548286438,
          "546": 0.19021610915660858,
          "547": -1.8811308145523071,
          "548": 1.1934884786605835,
          "549": -0.748275876045227,
          "550": -1.9142042398452759,
          "551": 1.7650980949401855,
          "552": -3.329374313354492,
          "553": 0.5523456335067749,
          "554": -2.863358974456787,
          "555": 1.0033092498779297,
          "556": 1.8712369203567505,
          "557": 3.4941084384918213,
          "558": -0.9086489081382751,
          "559": 0.8345289826393127,
          "560": 1.1277803182601929,
          "561": -0.9858754873275757,
          "562": -0.4690192639827728,
          "563": 0.4482102692127228,
          "564": 1.1732382774353027,
          "565": -0.5776428580284119,
          "566": -2.1613829135894775,
          "567": 0.37303489446640015,
          "568": 1.2974311113357544,
          "569": 0.634608805179596,
          "570": 1.3563427925109863,
          "571": -0.09927422553300858,
          "572": 0.41455671191215515,
          "573": 0.4126131236553192,
          "574": -1.2687700986862183,
          "575": 1.481768012046814,
          "576": 1.1380079984664917,
          "577": -1.1919429302215576,
          "578": -1.8555210828781128,
          "579": -0.20965243875980377,
          "580": -0.7343894839286804,
          "581": -0.5188544988632202,
          "582": -1.0959094762802124,
          "583": -2.142038583755493,
          "584": -0.6929712891578674,
          "585": -1.0188491344451904,
          "586": -0.3380923569202423,
          "587": 0.4814251661300659,
          "588": -0.13077881932258606,
          "589": -0.10277141630649567,
          "590": -0.1877022683620453,
          "591": -1.7845988273620605,
          "592": 2.3176379203796387,
          "593": -2.3931496143341064,
          "594": 0.1150093525648117,
          "595": -0.8413572907447815,
          "596": 1.003913164138794,
          "597": 0.4694111943244934,
          "598": 3.096928834915161,
          "599": 2.0096166133880615,
          "600": 0.6302515864372253,
          "601": 0.03973532095551491,
          "602": 0.5598655939102173,
          "603": 1.020167350769043,
          "604": 0.46807584166526794,
          "605": 0.637869119644165,
          "606": -0.5723034143447876,
          "607": -0.298700749874115,
          "608": -0.4616338908672333,
          "609": 0.13258595764636993,
          "610": 0.03055749274790287,
          "611": 2.6608457565307617,
          "612": -0.5888674855232239,
          "613": 1.1486096382141113,
          "614": 0.873363733291626,
          "615": -0.28146296739578247,
          "616": 2.8709876537323,
          "617": 1.4960376024246216,
          "618": -0.5734095573425293,
          "619": 0.5144618153572083,
          "620": 1.5227603912353516,
          "621": -0.5105130672454834,
          "622": 1.3303511142730713,
          "623": 0.2899968922138214,
          "624": 0.11928648501634598,
          "625": -2.1294310092926025,
          "626": -1.3594443798065186,
          "627": 2.5129191875457764,
          "628": -0.05304964631795883,
          "629": 0.8481448888778687,
          "630": -0.6851544976234436,
          "631": -0.3782084882259369,
          "632": -0.21651698648929596,
          "633": 0.16843681037425995,
          "634": -1.285220742225647,
          "635": 0.68658047914505,
          "636": -0.919429361820221,
          "637": 4.1625237464904785,
          "638": -2.7753055095672607,
          "639": -0.4705455005168915,
          "640": 1.6407767534255981,
          "641": 0.6377023458480835,
          "642": 0.9633292555809021,
          "643": 0.42453980445861816,
          "644": -1.1364414691925049,
          "645": -1.2262860536575317,
          "646": 0.8535209894180298,
          "647": 0.06605925410985947,
          "648": 0.24645675718784332,
          "649": 1.012535810470581,
          "650": -0.27691709995269775,
          "651": 1.2091169357299805,
          "652": 0.12461397051811218,
          "653": -0.3869192898273468,
          "654": 0.9792384505271912,
          "655": 0.19450904428958893,
          "656": 2.033046245574951,
          "657": -0.9541341066360474,
          "658": -0.7664733529090881,
          "659": 3.317885160446167,
          "660": 0.4579153060913086,
          "661": 0.5593054890632629,
          "662": 1.7499399185180664,
          "663": 0.9190993905067444,
          "664": 0.9382408261299133,
          "665": 0.5189223289489746,
          "666": -0.09240853041410446,
          "667": -0.25607091188430786,
          "668": 0.66885906457901,
          "669": 1.32659113407135,
          "670": 1.4951915740966797,
          "671": 0.3340161442756653,
          "672": 0.9645782709121704,
          "673": -1.466418981552124,
          "674": -1.1859914064407349,
          "675": 2.304438352584839,
          "676": -1.79530668258667,
          "677": 0.7487912178039551,
          "678": -1.6064906120300293,
          "679": -1.223382592201233,
          "680": -0.7918331027030945,
          "681": -0.006866416893899441,
          "682": -0.839949369430542,
          "683": -1.2129323482513428,
          "684": -0.3882773816585541,
          "685": 4.58924674987793,
          "686": 0.06926000118255615,
          "687": -0.11171304434537888,
          "688": -0.04875849932432175,
          "689": -0.5365966558456421,
          "690": 0.8028486371040344,
          "691": 0.5370661616325378,
          "692": -1.923758864402771,
          "693": 0.10380847007036209,
          "694": 1.4381613731384277,
          "695": -3.6332924365997314,
          "696": -0.3292666971683502,
          "697": -2.4391379356384277,
          "698": 1.8008897304534912,
          "699": -2.079564332962036,
          "700": 0.12590943276882172,
          "701": 1.6714317798614502,
          "702": -0.44430166482925415,
          "703": -0.9801172018051147,
          "704": -0.020141230896115303,
          "705": -0.5518752336502075,
          "706": -0.10023875534534454,
          "707": -2.293816328048706,
          "708": 0.5080598592758179,
          "709": -0.3630082607269287,
          "710": 0.09425001591444016,
          "711": 2.2223408222198486,
          "712": -0.507415235042572,
          "713": -0.5907326936721802,
          "714": 1.0827409029006958,
          "715": 0.4810132086277008,
          "716": -0.7364052534103394,
          "717": -0.7899818420410156,
          "718": -2.793027639389038,
          "719": 0.5954130291938782,
          "720": 0.24242006242275238,
          "721": 0.6534125804901123,
          "722": 2.0798211097717285,
          "723": 2.4634363651275635,
          "724": -0.04754677414894104,
          "725": 0.033215608447790146,
          "726": -1.6960110664367676,
          "727": -1.2873680591583252,
          "728": -0.24759435653686523,
          "729": -2.160615921020508,
          "730": -1.6029192209243774,
          "731": 0.2875968813896179,
          "732": 0.34384989738464355,
          "733": 0.520724892616272,
          "734": 0.2217922955751419,
          "735": -0.17504681646823883,
          "736": 2.0830259323120117,
          "737": 2.1276931762695312,
          "738": -0.9501039981842041,
          "739": 1.655111312866211,
          "740": -0.05124875530600548,
          "741": -1.0091124773025513,
          "742": 1.1237833499908447,
          "743": -1.0939189195632935,
          "744": 1.0911650657653809,
          "745": -1.5318630933761597,
          "746": -2.087284564971924,
          "747": -2.094636917114258,
          "748": 1.2678698301315308,
          "749": 1.4086787700653076,
          "750": 0.3574497699737549,
          "751": 1.9941538572311401,
          "752": -1.4564127922058105,
          "753": -1.3381160497665405,
          "754": 3.8617372512817383,
          "755": 0.9659032821655273,
          "756": 1.6242873668670654,
          "757": 0.46705004572868347,
          "758": 1.1000306606292725,
          "759": -0.2924807071685791,
          "760": 2.593780279159546,
          "761": 1.2522127628326416,
          "762": -1.1907849311828613,
          "763": -3.3152997493743896,
          "764": 1.2311221361160278,
          "765": -2.5659990310668945,
          "766": -1.1199699640274048,
          "767": 0.23256845772266388,
          "768": 1.4230934381484985,
          "769": 0.6229771375656128,
          "770": 0.9372993111610413,
          "771": 0.9347602725028992,
          "772": 0.8938796520233154,
          "773": -0.5632114410400391,
          "774": -1.0607051849365234,
          "775": 0.163704514503479,
          "776": -0.17492680251598358,
          "777": 1.3875895738601685,
          "778": -3.186493396759033,
          "779": -1.0994409322738647,
          "780": -0.4839961528778076,
          "781": 1.846113920211792,
          "782": 0.4139258861541748,
          "783": -0.15468887984752655,
          "784": 2.0396840572357178,
          "785": 0.42031329870224,
          "786": -0.2677081227302551,
          "787": -1.2104624509811401,
          "788": 0.02629954367876053,
          "789": -2.0091445446014404,
          "790": -0.6739363074302673,
          "791": 1.356857419013977,
          "792": 0.630549430847168,
          "793": 3.2654709815979004,
          "794": -1.577918529510498,
          "795": 1.4862627983093262,
          "796": 0.14125917851924896,
          "797": -0.31143030524253845,
          "798": -0.2508198916912079,
          "799": -1.5720458030700684,
          "800": -2.303548812866211,
          "801": 1.8554472923278809,
          "802": -1.3687012195587158,
          "803": -1.179214596748352,
          "804": 1.7139331102371216,
          "805": -0.17858630418777466,
          "806": -1.0227923393249512,
          "807": -1.7571988105773926,
          "808": -1.5008107423782349,
          "809": 0.5283830165863037,
          "810": -0.30365973711013794,
          "811": -0.8504435420036316,
          "812": 2.1306636333465576,
          "813": 0.6369057893753052,
          "814": 0.269368439912796,
          "815": -1.1075222492218018,
          "816": 2.7668557167053223,
          "817": 0.9742712378501892,
          "818": -0.07439655810594559,
          "819": -0.03629433363676071
        }
      },
      "inputHidden": {
        "rows": 20,
        "columns": 20,
        "weights": {
          "0": -2.7719454765319824,
          "1": -3.461381435394287,
          "2": 2.868377923965454,
          "3": 0.25104430317878723,
          "4": 0.6430520415306091,
          "5": 2.2968568801879883,
          "6": -1.006038784980774,
          "7": 0.6371090412139893,
          "8": -1.0645751953125,
          "9": -0.43183189630508423,
          "10": -0.18241095542907715,
          "11": 2.173367500305176,
          "12": -1.015447735786438,
          "13": 3.498853921890259,
          "14": 3.9783108234405518,
          "15": -3.7705237865448,
          "16": -1.807364583015442,
          "17": 0.3097609579563141,
          "18": -0.614476203918457,
          "19": 2.334644079208374,
          "20": 1.2826623916625977,
          "21": 2.0303232669830322,
          "22": 0.9208300113677979,
          "23": 1.8911349773406982,
          "24": -2.2959039211273193,
          "25": -0.9164261817932129,
          "26": -2.380472183227539,
          "27": 0.155160591006279,
          "28": -0.7366894483566284,
          "29": -0.7381554841995239,
          "30": 1.918869972229004,
          "31": 0.4071755111217499,
          "32": -1.9644114971160889,
          "33": -0.22112180292606354,
          "34": 0.6580576300621033,
          "35": 1.769924283027649,
          "36": 0.5218517184257507,
          "37": -0.42557474970817566,
          "38": -0.04391032084822655,
          "39": 0.9789074063301086,
          "40": -1.4945354461669922,
          "41": 2.5615127086639404,
          "42": 0.08001980185508728,
          "43": -1.4764331579208374,
          "44": -1.6741323471069336,
          "45": -1.164326548576355,
          "46": 1.8631939888000488,
          "47": -1.2366695404052734,
          "48": 1.5314593315124512,
          "49": 2.248582363128662,
          "50": 0.7444952130317688,
          "51": -1.2788735628128052,
          "52": -0.5718326568603516,
          "53": -1.3624093532562256,
          "54": -2.6513116359710693,
          "55": 0.6349706649780273,
          "56": 3.34692645072937,
          "57": -1.125859260559082,
          "58": -0.19018352031707764,
          "59": -1.2783350944519043,
          "60": -1.1789509057998657,
          "61": 3.023751974105835,
          "62": -0.19730757176876068,
          "63": 3.0533318519592285,
          "64": -2.2154510021209717,
          "65": -0.46829622983932495,
          "66": -0.8375621438026428,
          "67": 1.744942545890808,
          "68": 0.6619446873664856,
          "69": -1.2435349225997925,
          "70": -1.1424815654754639,
          "71": -0.23503609001636505,
          "72": -1.7347564697265625,
          "73": -0.6567978262901306,
          "74": -0.5661479234695435,
          "75": 2.5393409729003906,
          "76": -1.0202494859695435,
          "77": -3.5427584648132324,
          "78": -2.204151153564453,
          "79": -1.193625807762146,
          "80": -2.1751084327697754,
          "81": 3.7498788833618164,
          "82": -0.44673117995262146,
          "83": 3.8791801929473877,
          "84": 4.12142276763916,
          "85": -0.7799914479255676,
          "86": -0.6320022344589233,
          "87": -1.3174867630004883,
          "88": -0.8937230110168457,
          "89": -1.2929619550704956,
          "90": -0.2946936786174774,
          "91": -0.8815356492996216,
          "92": -2.0765092372894287,
          "93": 2.5939700603485107,
          "94": -2.191633939743042,
          "95": -4.886047840118408,
          "96": 3.55098557472229,
          "97": -0.29311224818229675,
          "98": 2.750319004058838,
          "99": 0.38638561964035034,
          "100": 0.5846531391143799,
          "101": -0.8093500137329102,
          "102": -2.5078842639923096,
          "103": 0.7222954630851746,
          "104": -2.5996932983398438,
          "105": 1.919862151145935,
          "106": -2.6327574253082275,
          "107": -0.8724945187568665,
          "108": -0.6469563245773315,
          "109": -0.42244499921798706,
          "110": -3.5487468242645264,
          "111": -1.7775440216064453,
          "112": -3.17824387550354,
          "113": 3.9921607971191406,
          "114": 2.805938482284546,
          "115": -0.6756471395492554,
          "116": -1.4563603401184082,
          "117": 5.3715901374816895,
          "118": 1.1522034406661987,
          "119": -1.9172405004501343,
          "120": 1.0814850330352783,
          "121": -0.9843594431877136,
          "122": -0.0701601430773735,
          "123": 0.5789434909820557,
          "124": 2.8366453647613525,
          "125": -0.8583946228027344,
          "126": 0.10699129104614258,
          "127": -0.1339980959892273,
          "128": 3.300495147705078,
          "129": 1.4353634119033813,
          "130": 0.6417602896690369,
          "131": -0.6127498745918274,
          "132": 3.2916929721832275,
          "133": -1.2271883487701416,
          "134": 0.2875787317752838,
          "135": 2.7112197875976562,
          "136": 3.489264488220215,
          "137": -2.4715147018432617,
          "138": -3.008967638015747,
          "139": -3.463749885559082,
          "140": -0.5619350671768188,
          "141": 2.9927680492401123,
          "142": -2.8576748371124268,
          "143": 0.9013336300849915,
          "144": -3.7528021335601807,
          "145": -2.0110912322998047,
          "146": -1.6243751049041748,
          "147": -0.389546275138855,
          "148": -0.5026019215583801,
          "149": 1.7021942138671875,
          "150": -1.4271005392074585,
          "151": -2.529986619949341,
          "152": -5.511584758758545,
          "153": -1.2910542488098145,
          "154": 0.7001757621765137,
          "155": 1.0425786972045898,
          "156": 0.5969681739807129,
          "157": 1.794210433959961,
          "158": -1.7683013677597046,
          "159": -1.5408011674880981,
          "160": 1.2759093046188354,
          "161": 0.7298147082328796,
          "162": -1.7109225988388062,
          "163": -0.22201043367385864,
          "164": -1.003713846206665,
          "165": 1.306450366973877,
          "166": -1.1007258892059326,
          "167": -0.7097195386886597,
          "168": 0.6585403084754944,
          "169": -0.37112340331077576,
          "170": -0.24383871257305145,
          "171": -1.247207522392273,
          "172": -1.754011869430542,
          "173": -0.8058521151542664,
          "174": 0.16631025075912476,
          "175": 0.4669552445411682,
          "176": -0.2498302012681961,
          "177": -0.11991466581821442,
          "178": -0.26070165634155273,
          "179": -2.431408166885376,
          "180": 1.1957496404647827,
          "181": -0.4402097463607788,
          "182": -0.5402241945266724,
          "183": 1.4969894886016846,
          "184": -1.6366790533065796,
          "185": -0.4673323929309845,
          "186": -0.37243691086769104,
          "187": 1.0609408617019653,
          "188": -0.5211835503578186,
          "189": -1.0241230726242065,
          "190": -0.308824360370636,
          "191": 0.20082753896713257,
          "192": -0.5551725029945374,
          "193": -0.6413707733154297,
          "194": 0.5613239407539368,
          "195": 1.0974711179733276,
          "196": 0.04019762575626373,
          "197": 0.585814356803894,
          "198": 0.27028563618659973,
          "199": -1.426297903060913,
          "200": 0.02550000324845314,
          "201": 2.268282175064087,
          "202": -0.8065024018287659,
          "203": -3.7533743381500244,
          "204": -0.1190822646021843,
          "205": 1.4301033020019531,
          "206": -0.758231520652771,
